/*
 * Copyright (c) 2026 EdgeImpulse Inc.
 *
 * Generated by Edge Impulse and licensed under the applicable Edge Impulse
 * Terms of Service. Community and Professional Terms of Service
 * (https://edgeimpulse.com/legal/terms-of-service) or Enterprise Terms of
 * Service (https://edgeimpulse.com/legal/enterprise-terms-of-service),
 * according to your product plan subscription (the “License”).
 *
 * This software, documentation and other associated files (collectively referred
 * to as the “Software”) is a single SDK variation generated by the Edge Impulse
 * platform and requires an active paid Edge Impulse subscription to use this
 * Software for any purpose.
 *
 * You may NOT use this Software unless you have an active Edge Impulse subscription
 * that meets the eligibility requirements for the applicable License, subject to
 * your full and continued compliance with the terms and conditions of the License,
 * including without limitation any usage restrictions under the applicable License.
 *
 * If you do not have an active Edge Impulse product plan subscription, or if use
 * of this Software exceeds the usage limitations of your Edge Impulse product plan
 * subscription, you are not permitted to use this Software and must immediately
 * delete and erase all copies of this Software within your control or possession.
 * Edge Impulse reserves all rights and remedies available to enforce its rights.
 *
 * Unless required by applicable law or agreed to in writing, the Software is
 * distributed on an "AS IS" BASIS, WITHOUT WARRANTIES OR CONDITIONS OF ANY KIND,
 * either express or implied. See the License for the specific language governing
 * permissions, disclaimers and limitations under the License.
 */
// Generated on: 06.02.2026 22:43:12

#include <stdio.h>
#include <stdlib.h>
#include "edge-impulse-sdk/tensorflow/lite/c/builtin_op_data.h"
#include "edge-impulse-sdk/tensorflow/lite/c/common.h"
#include "edge-impulse-sdk/tensorflow/lite/micro/micro_mutable_op_resolver.h"
#include "edge-impulse-sdk/porting/ei_classifier_porting.h"

#if EI_CLASSIFIER_PRINT_STATE
#if defined(__cplusplus) && EI_C_LINKAGE == 1
extern "C" {
    extern void ei_printf(const char *format, ...);
}
#else
extern void ei_printf(const char *format, ...);
#endif
#endif

#define STRINGIZE(x) #x
#define STRINGIZE_VALUE_OF(x) STRINGIZE(x)

#if defined (__GNUC__)  /* GNU compiler */
#define ALIGN(X) __attribute__((aligned(X)))
#define DEFINE_SECTION(x) __attribute__((section(x)))
#elif defined (_MSC_VER)
#define ALIGN(X) __declspec(align(X))
#elif defined (__TASKING__) /* TASKING Compiler */
#define ALIGN(X) __align(X)
#define DEFINE_SECTION(x) __attribute__((section(x)))
#elif defined (__ARMCC_VERSION) /* Arm Compiler */
#define ALIGN(X) __ALIGNED(x)
#define DEFINE_SECTION(x) __attribute__((section(x)))
#elif defined (__ICCARM__) /* IAR Compiler */
#define ALIGN(x) __attribute__((aligned(x)))
#define DEFINE_SECTION(x) __attribute__((section(x)))
#elif defined (__clang__) /* LLVM/Clang Compiler */
#define ALIGN(X) __ALIGNED(x)
#define DEFINE_SECTION(x) __attribute__((section(x)))
#endif

#if defined(EI_MODEL_SECTION) && (defined(__GNUC__) || defined(__clang__))
#define MODEL_SECTION(X) __attribute__((section(STRINGIZE_VALUE_OF(X))))
#else
#define MODEL_SECTION(X)
#endif

#ifndef EI_MAX_SCRATCH_BUFFER_COUNT
#ifndef CONFIG_IDF_TARGET_ESP32S3
#define EI_MAX_SCRATCH_BUFFER_COUNT 14
#else
#define EI_MAX_SCRATCH_BUFFER_COUNT 28
#endif // CONFIG_IDF_TARGET_ESP32S3
#endif // EI_MAX_SCRATCH_BUFFER_COUNT

#ifndef EI_MAX_OVERFLOW_BUFFER_COUNT
#define EI_MAX_OVERFLOW_BUFFER_COUNT 10
#endif // EI_MAX_OVERFLOW_BUFFER_COUNT

using namespace tflite;
using namespace tflite::ops;
using namespace tflite::ops::micro;

namespace {

#if defined(EI_CLASSIFIER_ALLOCATION_STATIC_HIMAX) || defined(EI_CLASSIFIER_ALLOCATION_STATIC_HIMAX_GNU)
constexpr int kTensorArenaSize = 114176;
#else
constexpr int kTensorArenaSize = 113152;
#endif

#if defined(EI_CLASSIFIER_ALLOCATION_STATIC)
#if defined (EI_TENSOR_ARENA_LOCATION)
uint8_t tensor_arena[kTensorArenaSize] ALIGN(16) DEFINE_SECTION(STRINGIZE_VALUE_OF(EI_TENSOR_ARENA_LOCATION));
#else
uint8_t tensor_arena[kTensorArenaSize] ALIGN(16);
#endif
#elif defined(EI_CLASSIFIER_ALLOCATION_STATIC_HIMAX)
#pragma Bss(".tensor_arena")
uint8_t tensor_arena[kTensorArenaSize] ALIGN(16);
#pragma Bss()
#elif defined(EI_CLASSIFIER_ALLOCATION_STATIC_HIMAX_GNU)
uint8_t tensor_arena[kTensorArenaSize] ALIGN(16) __attribute__((section(".tensor_arena")));
#else
#define EI_CLASSIFIER_ALLOCATION_HEAP 1
uint8_t* tensor_arena = NULL;
#endif

static uint8_t* tensor_boundary;
static uint8_t* current_location;

template <int SZ, class T> struct TfArray {
  int sz; T elem[SZ];
};

enum used_operators_e {
  OP_CONV_2D, OP_DEPTHWISE_CONV_2D, OP_ADD, OP_PAD, OP_SOFTMAX,  OP_LAST
};

struct TensorInfo_t { // subset of TfLiteTensor used for initialization from constant memory
  TfLiteAllocationType allocation_type;
  TfLiteType type;
  void* data;
  TfLiteIntArray* dims;
  size_t bytes;
  TfLiteQuantization quantization;
};

typedef struct {
  TfLiteTensor tensor;
  int16_t index;
} TfLiteTensorWithIndex;

typedef struct {
  TfLiteEvalTensor tensor;
  int16_t index;
} TfLiteEvalTensorWithIndex;

TfLiteContext ctx{};
static const int MAX_TFL_TENSOR_COUNT = 4;
static TfLiteTensorWithIndex tflTensors[MAX_TFL_TENSOR_COUNT];
static const int MAX_TFL_EVAL_COUNT = 4;
static TfLiteEvalTensorWithIndex tflEvalTensors[MAX_TFL_EVAL_COUNT];
TfLiteRegistration registrations[OP_LAST];

namespace g0 {
const TfArray<4, int> tensor_dimension0 = { 4, { 1,64,64,3 } };
const TfArray<1, float> quant0_scale = { 1, { 0.0039215688593685627, } };
const TfArray<1, int> quant0_zero = { 1, { -128 } };
const TfLiteAffineQuantization quant0 = { (TfLiteFloatArray*)&quant0_scale, (TfLiteIntArray*)&quant0_zero, 0 };
const MODEL_SECTION(EI_MODEL_SECTION) ALIGN(16) int32_t tensor_data1[4*2] = { 
  0, 0, 
  0, 1, 
  0, 1, 
  0, 0, 
};
const TfArray<2, int> tensor_dimension1 = { 2, { 4,2 } };
const MODEL_SECTION(EI_MODEL_SECTION) ALIGN(16) int8_t tensor_data2[8*3*3*3] = { 
  /* [0][0][][] */ 3,-7,11, 2,-28,28, 9,-22,24, 
  /* [0][1][][] */ 35,27,26, 61,15,57, 20,-32,41, 
  /* [0][2][][] */ -21,-89,-12, -32,-127,-3, -8,-53,22, 
  /* [1][0][][] */ 33,80,31, 6,13,3, -32,-67,-23, 
  /* [1][1][][] */ 53,126,43, 0,1,-3, -55,-127,-38, 
  /* [1][2][][] */ 25,45,14, -1,-3,0, -40,-57,-5, 
  /* [2][0][][] */ 42,91,14, 52,127,18, 17,46,7, 
  /* [2][1][][] */ -44,-78,-23, -79,-88,-32, -33,-4,-14, 
  /* [2][2][][] */ 2,12,8, 4,17,3, 1,17,3, 
  /* [3][0][][] */ 41,-36,-19, 80,-36,-34, 33,-18,-12, 
  /* [3][1][][] */ 78,-61,-39, 127,-58,-70, 60,-30,-30, 
  /* [3][2][][] */ 17,-25,-7, 43,-31,-16, 13,-18,-11, 
  /* [4][0][][] */ -13,-23,-5, 27,45,8, -17,-30,-6, 
  /* [4][1][][] */ -29,-59,-10, 63,127,18, -35,-63,-10, 
  /* [4][2][][] */ -10,-13,1, 20,24,-5, -12,-14,-4, 
  /* [5][0][][] */ -3,-2,11, -37,-58,-32, -30,-12,-11, 
  /* [5][1][][] */ -40,-67,-27, -100,-127,-70, -41,-21,-4, 
  /* [5][2][][] */ 9,16,8, 5,5,4, 9,26,31, 
  /* [6][0][][] */ -103,-5,38, 2,17,-14, 67,20,-15, 
  /* [6][1][][] */ -127,-33,49, 16,21,-23, 114,23,-22, 
  /* [6][2][][] */ -45,-9,22, 16,-9,1, 41,-9,43, 
  /* [7][0][][] */ -3,16,-2, -13,25,-5, -7,19,-10, 
  /* [7][1][][] */ 19,85,-5, 22,127,-22, -2,60,-27, 
  /* [7][2][][] */ -27,-49,-20, -43,-52,-33, -19,4,-21, 
};
const TfArray<4, int> tensor_dimension2 = { 4, { 8,3,3,3 } };
const TfArray<8, float> quant2_scale = { 8, { 0.020617390051484108, 0.015962013974785805, 0.020070189610123634, 0.015453197993338108, 0.032828669995069504, 0.003965029027312994, 0.0023459864314645529, 0.028583399951457977, } };
const TfArray<8, int> quant2_zero = { 8, { 0,0,0,0,0,0,0,0 } };
const TfLiteAffineQuantization quant2 = { (TfLiteFloatArray*)&quant2_scale, (TfLiteIntArray*)&quant2_zero, 0 };
const MODEL_SECTION(EI_MODEL_SECTION) ALIGN(16) int32_t tensor_data3[8] = { 41432, 1008, 44772, 12401, 15823, 193172, 29300, 26133, };
const TfArray<1, int> tensor_dimension3 = { 1, { 8 } };
const TfArray<8, float> quant3_scale = { 8, { 8.0852514656726271e-05, 6.2596140196546912e-05, 7.8706631029490381e-05, 6.0600781580433249e-05, 0.00012873989180661738, 1.5549134332104586e-05, 9.1999472715542652e-06, 0.00011209177318960428, } };
const TfLiteAffineQuantization quant3 = { (TfLiteFloatArray*)&quant3_scale, (TfLiteIntArray*)&g0::quant2_zero, 0 };
const MODEL_SECTION(EI_MODEL_SECTION) ALIGN(16) int8_t tensor_data4[1*3*3*8] = { 
  /* [0][0][][] */ -29,-10,1,-2,9,24,-4,-16, 6,-2,6,-7,18,127,0,127, 1,0,4,-9,-4,17,7,-7, 
  /* [0][1][][] */ 3,-127,-15,2,-23,-8,-98,-15, -127,107,-90,127,-127,-7,127,-47, 1,-1,-12,-65,-18,3,49,-37, 
  /* [0][2][][] */ 15,0,-15,-6,-6,-22,17,7, 62,-6,127,-26,18,-113,8,3, -1,-5,-23,-11,-7,-19,1,-7, 
};
const TfArray<4, int> tensor_dimension4 = { 4, { 1,3,3,8 } };
const TfArray<8, float> quant4_scale = { 8, { 0.0049897660501301289, 0.015314425341784954, 0.0075463363900780678, 0.017169829457998276, 0.0096659529954195023, 0.0090633658692240715, 0.024431345984339714, 0.003189808689057827, } };
const TfLiteAffineQuantization quant4 = { (TfLiteFloatArray*)&quant4_scale, (TfLiteIntArray*)&g0::quant2_zero, 3 };
const MODEL_SECTION(EI_MODEL_SECTION) ALIGN(16) int32_t tensor_data5[8] = { 13517, 387, 10210, 2254, 12816, 841, 14, 8186, };
const TfArray<8, float> quant5_scale = { 8, { 0.00011740626359824091, 0.00036033941432833672, 0.00017756085435394198, 0.00040399600402452052, 0.00022743419685866684, 0.00021325566922314465, 0.00057485519209876657, 7.5054325861856341e-05, } };
const TfLiteAffineQuantization quant5 = { (TfLiteFloatArray*)&quant5_scale, (TfLiteIntArray*)&g0::quant2_zero, 0 };
const MODEL_SECTION(EI_MODEL_SECTION) ALIGN(16) int8_t tensor_data6[8*1*1*8] = { 
  /* [0][0][][] */ -17,-16,-20,15,-6,-127,11,43, 
  /* [1][0][][] */ -61,32,-127,119,3,69,-13,32, 
  /* [2][0][][] */ 13,-4,16,10,-20,-127,-1,22, 
  /* [3][0][][] */ 19,56,56,127,19,-38,-39,-12, 
  /* [4][0][][] */ 24,45,24,-28,-127,-3,24,-17, 
  /* [5][0][][] */ 75,-16,127,-104,15,-56,-2,-48, 
  /* [6][0][][] */ 24,127,45,-29,35,-8,-66,-27, 
  /* [7][0][][] */ -18,-25,-37,-17,-13,-127,18,39, 
};
const TfArray<4, int> tensor_dimension6 = { 4, { 8,1,1,8 } };
const TfArray<8, float> quant6_scale = { 8, { 0.0091534480452537537, 0.010630117729306221, 0.015159377828240395, 0.0079733561724424362, 0.011178941465914249, 0.0053374338895082474, 0.014225027523934841, 0.0079536102712154388, } };
const TfLiteAffineQuantization quant6 = { (TfLiteFloatArray*)&quant6_scale, (TfLiteIntArray*)&g0::quant2_zero, 0 };
const MODEL_SECTION(EI_MODEL_SECTION) ALIGN(16) int32_t tensor_data7[8] = { 1886, 1335, 57, -8215, 167, -1994, -942, 4462, };
const TfArray<8, float> quant7_scale = { 8, { 0.00021537525753956288, 0.00025012041442096233, 0.00035669124918058515, 0.00018760838429443538, 0.00026303392951376736, 0.00012558668095152825, 0.00033470653579570353, 0.00018714377074502409, } };
const TfLiteAffineQuantization quant7 = { (TfLiteFloatArray*)&quant7_scale, (TfLiteIntArray*)&g0::quant2_zero, 0 };
const MODEL_SECTION(EI_MODEL_SECTION) ALIGN(16) int8_t tensor_data8[48*1*1*8] = { 
  /* [0][0][][] */ 4,53,-5,-17,93,-23,127,-14, 
  /* [1][0][][] */ 127,84,98,38,9,-56,-32,79, 
  /* [2][0][][] */ -71,8,-4,127,20,-10,-43,44, 
  /* [3][0][][] */ 57,-31,-127,-3,-21,-36,17,114, 
  /* [4][0][][] */ -68,50,-127,-37,-7,24,-18,-10, 
  /* [5][0][][] */ 127,-13,-3,-54,-3,-40,3,-118, 
  /* [6][0][][] */ 6,-10,-1,10,-127,-27,61,3, 
  /* [7][0][][] */ -3,-67,-3,-4,-29,2,-127,-3, 
  /* [8][0][][] */ -22,33,25,9,127,21,-69,-15, 
  /* [9][0][][] */ 127,-6,10,-14,4,-36,26,76, 
  /* [10][0][][] */ 126,6,-9,-38,-9,10,-3,-127, 
  /* [11][0][][] */ -56,12,-2,127,-2,-59,-57,39, 
  /* [12][0][][] */ -88,9,-27,24,-45,77,-33,-127, 
  /* [13][0][][] */ 107,10,127,18,4,17,29,42, 
  /* [14][0][][] */ -123,-11,13,17,5,-13,9,127, 
  /* [15][0][][] */ -127,17,23,108,-30,-9,-10,117, 
  /* [16][0][][] */ 71,-45,110,83,2,-127,39,78, 
  /* [17][0][][] */ 7,-76,-101,121,1,31,7,127, 
  /* [18][0][][] */ 16,-40,-123,52,0,7,40,127, 
  /* [19][0][][] */ 23,15,-10,127,-8,1,-69,-44, 
  /* [20][0][][] */ 18,35,115,-120,29,-49,21,-127, 
  /* [21][0][][] */ 1,3,-10,-3,-127,-14,42,-2, 
  /* [22][0][][] */ 6,57,-7,-13,10,127,-9,-5, 
  /* [23][0][][] */ 127,-8,-15,54,0,23,-42,-103, 
  /* [24][0][][] */ -106,11,-127,-24,33,-30,-59,-44, 
  /* [25][0][][] */ -56,-1,-84,-48,16,-127,27,-42, 
  /* [26][0][][] */ -90,-25,-127,3,-6,5,-17,-24, 
  /* [27][0][][] */ 127,1,112,29,-24,60,23,48, 
  /* [28][0][][] */ 21,-89,-32,40,31,-127,3,13, 
  /* [29][0][][] */ -13,-4,23,-127,-15,-12,16,7, 
  /* [30][0][][] */ -38,8,127,-5,7,3,-13,-116, 
  /* [31][0][][] */ 2,-1,10,-10,127,36,-65,6, 
  /* [32][0][][] */ -127,-24,-93,-8,0,-24,-20,-55, 
  /* [33][0][][] */ 18,-53,-1,-33,34,-127,12,-12, 
  /* [34][0][][] */ -49,-127,-96,53,38,-55,-49,-17, 
  /* [35][0][][] */ 53,-5,-120,1,-6,1,0,127, 
  /* [36][0][][] */ 69,44,101,6,-7,127,17,48, 
  /* [37][0][][] */ -12,16,-7,127,3,-18,-6,8, 
  /* [38][0][][] */ -8,28,1,-2,127,18,-37,-5, 
  /* [39][0][][] */ -19,27,-24,37,-24,106,-127,0, 
  /* [40][0][][] */ 127,-27,88,-3,-23,44,15,24, 
  /* [41][0][][] */ 87,-5,127,21,-14,0,26,42, 
  /* [42][0][][] */ 53,-55,-18,-19,18,127,18,-23, 
  /* [43][0][][] */ -5,-63,-5,1,-42,-16,-127,3, 
  /* [44][0][][] */ -11,-120,43,126,10,19,10,-127, 
  /* [45][0][][] */ 127,4,122,-12,-10,38,22,59, 
  /* [46][0][][] */ -72,27,12,127,16,-22,-55,86, 
  /* [47][0][][] */ -4,47,-9,-4,-1,127,-16,2, 
};
const TfArray<4, int> tensor_dimension8 = { 4, { 48,1,1,8 } };
const TfArray<48, float> quant8_scale = { 48, { 0.0041664750315248966, 0.0024296150077134371, 0.0015241667861118913, 0.0030316112097352743, 0.0037094419822096825, 0.010223662480711937, 0.0067316289059817791, 0.005893331952393055, 0.0047756163403391838, 0.0046732435002923012, 0.018373876810073853, 0.0023734357673674822, 0.0010686350287869573, 0.003665833966806531, 0.0063277091830968857, 0.00051396328490227461, 0.0028597260825335979, 0.0028477816376835108, 0.0034164816606789827, 0.0025618057698011398, 0.0019846237264573574, 0.011686700396239758, 0.0042927572503685951, 0.01202673465013504, 0.0019605201669037342, 0.00080874102422967553, 0.0042065572924911976, 0.0028739876579493284, 0.0092228930443525314, 0.0050170370377600193, 0.010213346220552921, 0.01017041876912117, 0.0012754059862345457, 0.0039187027141451836, 0.0036991885863244534, 0.0074988920241594315, 0.0031849711667746305, 0.0047543514519929886, 0.0092800455167889595, 0.002977561904117465, 0.0042112781666219234, 0.0027573816478252411, 0.0027474907692521811, 0.0044051422737538815, 0.0014118342660367489, 0.0022492145653814077, 0.00053145375568419695, 0.0053527173586189747, } };
const TfArray<48, int> quant8_zero = { 48, { 0,0,0,0,0,0,0,0,0,0,0,0,0,0,0,0,0,0,0,0,0,0,0,0,0,0,0,0,0,0,0,0,0,0,0,0,0,0,0,0,0,0,0,0,0,0,0,0 } };
const TfLiteAffineQuantization quant8 = { (TfLiteFloatArray*)&quant8_scale, (TfLiteIntArray*)&quant8_zero, 0 };
const MODEL_SECTION(EI_MODEL_SECTION) ALIGN(16) int32_t tensor_data9[48] = { -631, -8247, 6803, 4373, 9686, 2626, 3554, 518, -213, -6585, 711, 6585, 16511, -13063, 522, 8171, -7816, 1451, 2441, 6849, 6276, 3912, 1156, -1159, 12653, 29598, 10749, -13601, 2258, -752, -439, -4757, 19919, 7444, 10122, -1285, -13974, 144, -3402, 2138, -10900, -9189, -225, 2761, 8561, -14351, 5489, -1264, };
const TfArray<1, int> tensor_dimension9 = { 1, { 48 } };
const TfArray<48, float> quant9_scale = { 48, { 0.00034779150155372918, 0.00020280919852666557, 0.00012722799147013575, 0.00025306010502390563, 0.00030964121106080711, 0.00085340795340016484, 0.00056191463954746723, 0.00049193884478881955, 0.00039863886195234954, 0.00039009339525364339, 0.0015337372897192836, 0.0001981197128770873, 8.920302934711799e-05, 0.00030600110767409205, 0.00052819796837866306, 4.2902469431282952e-05, 0.00023871220764704049, 0.00023771515407133847, 0.00028518671751953661, 0.00021384366846177727, 0.00016566408157814294, 0.00097553333034738898, 0.00035833276342600584, 0.0010039173066616058, 0.00016365207557100803, 6.7508684878703207e-05, 0.0003511373361106962, 0.00023990267072804272, 0.000769869948271662, 0.00041879113996401429, 0.00085254682926461101, 0.00084896350745111704, 0.00010646298323990777, 0.00032710900995880365, 0.00030878532561473548, 0.00062596105271950364, 0.00026586165768094361, 0.0003968637902289629, 0.0007746407063677907, 0.00024854840012267232, 0.00035153140197508037, 0.00023016912746243179, 0.00022934349544811994, 0.00036771397572010756, 0.000117851173854433, 0.00018775048374664038, 4.4362466724123806e-05, 0.00044681166764348745, } };
const TfLiteAffineQuantization quant9 = { (TfLiteFloatArray*)&quant9_scale, (TfLiteIntArray*)&g0::quant8_zero, 0 };
const MODEL_SECTION(EI_MODEL_SECTION) ALIGN(16) int8_t tensor_data10[1*3*3*48] = { 
  /* [0][0][][] */ 80,-50,-73,-80,29,-119,29,-6,65,25,121,53,-96,91,54,-127,79,-83,3,-40,-127,-28,31,92,-41,58,0,59,-127,-41,127,-57,-51,-80,56,109,-127,41,127,68,-82,-119,-71,51,-95,-28,15,-77, 49,-72,73,127,94,40,92,-127,-53,127,68,64,-3,68,59,108,76,-80,-101,-58,92,-127,47,0,73,127,-23,92,-2,27,89,-44,44,119,127,127,-113,59,93,-22,61,33,-40,111,127,99,2,-4, 59,-22,-5,-43,37,59,25,-70,-12,64,-77,35,80,13,-44,-10,33,-43,71,-22,38,4,-87,-49,-16,4,-1,61,42,31,87,-3,-10,-64,30,21,-24,5,-10,-79,-127,127,22,48,-72,-86,-5,78, 
  /* [0][1][][] */ 125,61,-127,5,-73,-127,105,-14,98,-59,127,-83,82,87,127,122,-36,106,2,-79,106,-59,44,127,12,-5,-21,40,-59,30,86,-114,-127,-91,-7,54,-35,77,115,127,-65,-69,-127,28,-6,-27,-127,-127, 127,127,127,-27,-127,9,127,-98,-127,-98,102,-127,36,127,96,-123,-36,127,127,-127,-64,-86,68,-24,94,7,-127,92,0,127,124,-127,106,127,-29,35,-18,127,118,-43,121,-12,-54,127,-18,127,120,43, 58,46,4,-11,-37,86,21,-106,16,-82,-101,-78,-127,-31,-70,2,38,26,-111,-68,-56,0,-127,-83,-27,2,-55,43,46,66,35,1,-3,-81,2,9,10,41,-3,-89,-38,106,13,117,3,-80,8,91, 
  /* [0][2][][] */ 17,-71,-29,9,32,-14,-2,-1,73,33,34,51,-10,21,-32,-14,-127,-17,-10,-21,-1,-37,8,19,88,-13,4,-106,35,34,-40,-63,-21,-45,-45,-6,69,28,39,59,-75,-54,-84,36,-8,-10,97,-60, 34,-66,4,12,36,10,25,-75,-56,110,8,64,-28,48,-8,10,-92,-19,-13,-58,-39,-85,26,-23,127,-10,-29,-127,4,65,-7,-41,29,85,-29,18,56,65,17,-22,-61,-2,-53,74,-10,-7,-96,64, -1,-14,18,-2,3,12,11,-45,7,75,-34,15,14,-35,-22,-3,26,-5,29,-41,1,1,-42,-40,-39,-6,-5,-41,49,36,-22,15,2,-54,-13,8,39,10,-31,-44,-101,46,18,38,-9,2,8,16, 
};
const TfArray<4, int> tensor_dimension10 = { 4, { 1,3,3,48 } };
const TfArray<48, float> quant10_scale = { 48, { 0.0024967517238110304, 0.0079197864979505539, 0.0242184828966856, 0.028046198189258575, 0.0046063615009188652, 0.0054275342263281345, 0.0030328815337270498, 0.015488311648368835, 0.0087785720825195312, 0.010513636283576488, 0.00255965581163764, 0.015255112200975418, 0.029594043269753456, 0.0054220152087509632, 0.0051601803861558437, 0.18321330845355988, 0.0048303026705980301, 0.0083138570189476013, 0.013766075484454632, 0.0044607440941035748, 0.029017163440585136, 0.0037336768582463264, 0.0099371103569865227, 0.0077666472643613815, 0.0053970371372997761, 0.039247449487447739, 0.0050884410738945007, 0.010957691818475723, 0.01628199964761734, 0.023629778996109962, 0.0027225385420024395, 0.0080092847347259521, 0.042903617024421692, 0.016719626262784004, 0.0089944507926702499, 0.0060522304847836494, 0.0080102169886231422, 0.003082979703322053, 0.0044675897806882858, 0.010530665516853333, 0.014381272718310356, 0.017457209527492523, 0.003417198546230793, 0.0069462438113987446, 0.027829747647047043, 0.034301340579986572, 0.096933938562870026, 0.018196273595094681, } };
const TfLiteAffineQuantization quant10 = { (TfLiteFloatArray*)&quant10_scale, (TfLiteIntArray*)&g0::quant8_zero, 3 };
const MODEL_SECTION(EI_MODEL_SECTION) ALIGN(16) int32_t tensor_data11[48] = { 4631, 1479, -164, 242, 10961, 2294, 462, 2679, -283, -3767, -4124, 691, 1831, 165, -714, 498, 16797, -248, -225, 32940, 1803, 16513, 2073, -894, -426, -8070, 7376, -1063, 913, -373, 7389, 8903, 1299, 3748, -2590, -1013, 5908, 1038, 1491, 617, 2210, -1135, 16112, -6861, 3496, 86, -270, -1094, };
const TfArray<48, float> quant11_scale = { 48, { 5.8747100410982966e-05, 0.0001863479265011847, 0.00056984665570780635, 0.00065991055453196168, 0.00010838497837539762, 0.0001277066912734881, 7.1361922891810536e-05, 0.0003644308599177748, 0.00020655464322771877, 0.00024737967760302126, 6.0227197536733001e-05, 0.00035894382745027542, 0.00069633044768124819, 0.00012757682998199016, 0.00012141601473558694, 0.0043109012767672539, 0.00011365418322384357, 0.00019562017405405641, 0.00032390767592005432, 0.00010495868627913296, 0.00068275682860985398, 8.7851221906021237e-05, 0.00023381436767522246, 0.00018274463945999742, 0.00012698910722974688, 0.00092346942983567715, 0.00011972802894888446, 0.00025782804004848003, 0.00038310588570311666, 0.00055599480401724577, 6.4059728174470365e-05, 0.00018845376325771213, 0.0010094968602061272, 0.00039340296643786132, 0.0002116341347573325, 0.00014240542077459395, 0.00018847569299396127, 7.2540700784884393e-05, 0.00010511976142879575, 0.00024778037914074957, 0.00033838290255516768, 0.0004107578715775162, 8.0404672189615667e-05, 0.00016344102914445102, 0.00065481761703267694, 0.00080709037138149142, 0.0022807985078543425, 0.00042814761400222778, } };
const TfLiteAffineQuantization quant11 = { (TfLiteFloatArray*)&quant11_scale, (TfLiteIntArray*)&g0::quant8_zero, 0 };
const MODEL_SECTION(EI_MODEL_SECTION) ALIGN(16) int8_t tensor_data12[8*1*1*48] = { 
  /* [0][0][][] */ -24,54,-20,-1,-48,-26,-77,21,3,19,28,43,31,14,-49,18,-43,29,7,-54,27,36,-127,8,-3,8,-33,49,-9,-18,13,20,19,-22,28,23,-6,98,-64,-11,-10,7,-25,30,8,10,19,3, 
  /* [1][0][][] */ -58,-65,-50,12,80,-23,-105,47,-11,-37,-9,-57,-29,69,7,-7,107,-127,-6,-15,-57,0,-2,-16,11,-9,-16,-39,22,-8,-106,-28,23,-62,-66,-95,31,11,-73,2,10,36,3,79,-9,12,2,35, 
  /* [2][0][][] */ 13,-68,15,46,100,15,95,-11,-26,-11,-18,-39,-7,-19,24,36,-27,-82,45,-43,10,-75,-52,28,-64,57,65,-87,-45,-2,-59,-51,25,6,-53,-36,-9,127,66,-23,-21,4,-18,-69,50,31,53,-12, 
  /* [3][0][][] */ 6,21,6,-13,28,29,21,-83,20,18,-12,6,11,-98,-18,-14,-32,16,-4,-8,-28,54,-127,0,18,-88,28,31,46,-24,-18,59,-7,4,4,-24,-77,-44,1,-9,1,-9,34,1,-22,6,-16,-50, 
  /* [4][0][][] */ 36,-63,7,58,62,9,-25,-10,-29,-3,35,-26,82,32,-19,44,-54,-61,54,44,36,-59,127,24,-33,15,-47,-19,-24,24,-81,-41,76,-32,-46,-73,-46,-44,-24,-14,-78,105,4,-3,54,77,51,15, 
  /* [5][0][][] */ -69,-33,-29,49,-19,8,1,-54,-59,-34,-2,-29,11,42,-78,22,127,-21,64,-70,54,-108,5,2,83,-122,-105,-15,56,-36,29,-79,14,-54,-58,22,-95,-24,10,-32,-64,23,99,36,43,30,33,-38, 
  /* [6][0][][] */ -27,3,-35,48,-29,78,-71,21,-19,-3,-127,4,45,38,113,18,28,11,57,-29,37,-13,-46,-14,12,-2,-72,18,2,-47,15,-34,40,-36,14,16,1,2,-46,-18,-20,52,-24,17,36,24,30,2, 
  /* [7][0][][] */ 34,-4,43,-21,6,10,15,-16,16,2,-5,-2,-11,-7,-2,-10,13,-2,-23,-18,-21,11,127,18,5,-16,2,9,2,-12,-23,11,0,21,4,-19,-12,15,9,35,3,-3,11,-5,-17,-2,-21,14, 
};
const TfArray<4, int> tensor_dimension12 = { 4, { 8,1,1,48 } };
const TfArray<8, float> quant12_scale = { 8, { 0.0066942246630787849, 0.0054112663492560387, 0.0065446593798696995, 0.0062406081706285477, 0.004869348369538784, 0.0045103817246854305, 0.0059312647208571434, 0.012191608548164368, } };
const TfLiteAffineQuantization quant12 = { (TfLiteFloatArray*)&quant12_scale, (TfLiteIntArray*)&g0::quant2_zero, 0 };
const MODEL_SECTION(EI_MODEL_SECTION) ALIGN(16) int32_t tensor_data13[8] = { 3896, 1284, 676, 9424, 5281, 7366, 789, -3419, };
const TfArray<8, float> quant13_scale = { 8, { 0.00015751116734463722, 0.00012732391769532114, 0.00015399199037346989, 0.00014683784684166312, 0.00011457290383987129, 0.0001061266302713193, 0.00013955916801933199, 0.00028686138102784753, } };
const TfLiteAffineQuantization quant13 = { (TfLiteFloatArray*)&quant13_scale, (TfLiteIntArray*)&g0::quant2_zero, 0 };
const MODEL_SECTION(EI_MODEL_SECTION) ALIGN(16) int8_t tensor_data14[48*1*1*8] = { 
  /* [0][0][][] */ -127,-1,16,-96,-124,120,-14,-65, 
  /* [1][0][][] */ 66,-3,30,-28,11,50,-127,52, 
  /* [2][0][][] */ -75,52,-127,83,-77,88,-2,51, 
  /* [3][0][][] */ 111,-24,-51,90,-26,-72,5,127, 
  /* [4][0][][] */ -73,-14,0,3,-26,-36,127,0, 
  /* [5][0][][] */ 48,127,34,32,-107,-44,-1,-15, 
  /* [6][0][][] */ -10,-82,39,127,27,-116,-11,40, 
  /* [7][0][][] */ 126,15,109,-9,-98,51,79,127, 
  /* [8][0][][] */ -19,-127,59,56,90,-20,-28,-4, 
  /* [9][0][][] */ -75,-96,18,-33,-33,5,-45,127, 
  /* [10][0][][] */ -59,-127,45,115,69,87,-11,3, 
  /* [11][0][][] */ -117,-127,63,-91,108,32,-48,90, 
  /* [12][0][][] */ 71,-17,92,-79,31,-127,87,5, 
  /* [13][0][][] */ 36,33,11,127,-22,8,39,-69, 
  /* [14][0][][] */ -28,-4,46,9,127,-21,-14,126, 
  /* [15][0][][] */ -63,124,71,66,84,127,-37,107, 
  /* [16][0][][] */ -3,-18,-83,-127,-67,67,25,55, 
  /* [17][0][][] */ 42,127,-12,119,-17,-74,15,24, 
  /* [18][0][][] */ -1,44,-23,-127,-35,-60,31,-16, 
  /* [19][0][][] */ 16,-56,-118,-94,-47,127,14,-4, 
  /* [20][0][][] */ 32,13,23,2,127,24,37,-45, 
  /* [21][0][][] */ -127,-45,-41,-73,46,48,36,11, 
  /* [22][0][][] */ -79,-58,72,127,41,-61,-40,120, 
  /* [23][0][][] */ 18,18,-37,127,102,50,7,43, 
  /* [24][0][][] */ 127,-2,-120,-27,-7,-39,35,-55, 
  /* [25][0][][] */ 15,8,-42,-24,67,-28,-127,-76, 
  /* [26][0][][] */ 127,12,77,-31,-89,45,52,102, 
  /* [27][0][][] */ -33,-70,1,127,50,-2,-40,-97, 
  /* [28][0][][] */ -59,127,83,68,53,-23,-31,2, 
  /* [29][0][][] */ 0,1,60,-6,-66,9,127,64, 
  /* [30][0][][] */ -48,-43,56,-52,-69,127,47,30, 
  /* [31][0][][] */ 63,-7,97,-28,-75,36,80,127, 
  /* [32][0][][] */ -115,-15,-34,35,-19,20,127,15, 
  /* [33][0][][] */ -127,109,54,39,48,21,-89,0, 
  /* [34][0][][] */ 122,13,24,-18,15,51,-127,24, 
  /* [35][0][][] */ 10,2,19,26,-53,31,19,-127, 
  /* [36][0][][] */ 8,-30,-53,-127,25,-28,2,98, 
  /* [37][0][][] */ 92,-58,-36,-82,6,33,48,-127, 
  /* [38][0][][] */ 31,127,-10,124,-79,-69,9,-45, 
  /* [39][0][][] */ 96,-4,109,-17,-83,37,127,123, 
  /* [40][0][][] */ -81,-79,120,117,-35,-36,-127,45, 
  /* [41][0][][] */ 86,-22,-9,33,10,-88,7,127, 
  /* [42][0][][] */ 59,-84,-103,-105,-50,102,72,-127, 
  /* [43][0][][] */ 91,7,120,-18,-90,-27,115,127, 
  /* [44][0][][] */ -116,-82,-38,127,67,-37,-101,43, 
  /* [45][0][][] */ 127,-24,88,-28,-48,23,-4,81, 
  /* [46][0][][] */ 45,-127,8,77,107,16,42,6, 
  /* [47][0][][] */ 89,115,-42,127,-42,-65,50,-77, 
};
const TfArray<48, float> quant14_scale = { 48, { 0.0034987148828804493, 0.0042293248698115349, 0.0025683429557830095, 0.0024772889446467161, 0.013742886483669281, 0.0019519932102411985, 0.0038670890498906374, 0.0031058953609317541, 0.003442718181759119, 0.0024911332875490189, 0.0038057023193687201, 0.0015258291969075799, 0.0027426036540418863, 0.0024530994705855846, 0.0021955438423901796, 0.0024895139504224062, 0.003813544986769557, 0.00301582389511168, 0.0035751345567405224, 0.0058008763007819653, 0.0049533797428011894, 0.0017962119309231639, 0.0013503103982657194, 0.0042960350401699543, 0.002114131348207593, 0.0029607533942908049, 0.0054763266816735268, 0.0042621525935828686, 0.003484772052615881, 0.0063309567049145699, 0.0023249073419719934, 0.0026141200214624405, 0.0066948356106877327, 0.0032824345398694277, 0.010524382814764977, 0.003037547692656517, 0.0026834376621991396, 0.0025287938769906759, 0.0021088700741529465, 0.0035789520479738712, 0.0037939150352030993, 0.0024393745698034763, 0.0023173110093921423, 0.0034212670288980007, 0.0028255884535610676, 0.0040131602436304092, 0.0041748238727450371, 0.0011239615269005299, } };
const TfLiteAffineQuantization quant14 = { (TfLiteFloatArray*)&quant14_scale, (TfLiteIntArray*)&g0::quant8_zero, 0 };
const MODEL_SECTION(EI_MODEL_SECTION) ALIGN(16) int32_t tensor_data15[48] = { 2810, 1379, 2748, 4574, 313, 4674, 1757, 2347, 1870, 2708, 1928, 3769, 2975, 1526, 2684, 218, 777, -3090, 2749, 2022, 1787, 5357, 7205, 886, 3331, 3618, 1333, 23, -1395, 1638, 4575, 3505, 1025, 779, 739, -635, 644, 1785, 760, 2295, 929, 4070, 1764, 700, 2116, 1358, -338, 9417, };
const TfArray<48, float> quant15_scale = { 48, { 0.00031069217948243022, 0.00037557166069746017, 0.00022807347704656422, 0.00021998771990183741, 0.0012203931109979749, 0.00017334050789941102, 0.00034340447746217251, 0.00027580911410041153, 0.00030571958632208407, 0.00022121712390799075, 0.00033795321360230446, 0.00013549637515097857, 0.00024354814377147704, 0.00021783965348731726, 0.00019496824825182557, 0.00022107332188170403, 0.0003386496682651341, 0.00026781059568747878, 0.00031747837783768773, 0.00051512825302779675, 0.000439869036199525, 0.00015950686065480113, 0.00011990999337285757, 0.00038149565807543695, 0.00018773866759147495, 0.0002629202208481729, 0.00048630766104906797, 0.00037848681677132845, 0.00030945404432713985, 0.00056220038095489144, 0.00020645596669055521, 0.00023213856911752373, 0.00059451343258842826, 0.00029148609610274434, 0.00093458412447944283, 0.00026973971398547292, 0.00023829410201869905, 0.00022456144506577402, 0.000187271463801153, 0.00031781737925484776, 0.00033690649433992803, 0.0002166208578273654, 0.00020578139810822904, 0.00030381468241102993, 0.00025091733550652862, 0.00035637585096992552, 0.0003707318683154881, 9.9809811217710376e-05, } };
const TfLiteAffineQuantization quant15 = { (TfLiteFloatArray*)&quant15_scale, (TfLiteIntArray*)&g0::quant8_zero, 0 };
const MODEL_SECTION(EI_MODEL_SECTION) ALIGN(16) int8_t tensor_data16[1*3*3*48] = { 
  /* [0][0][][] */ -127,49,-25,-41,-8,-31,1,-23,0,-6,15,38,0,-89,-85,30,127,6,50,38,-127,-64,63,-100,-10,-36,-3,57,19,8,51,127,-15,12,-2,36,24,-42,-6,17,90,-94,-35,41,79,-118,-16,-1, 1,-127,-8,-127,-7,-27,-92,127,75,-91,27,34,18,-127,-117,17,-18,16,-36,-71,-89,5,39,127,15,-4,2,116,33,-5,41,-96,-119,18,-11,-25,127,-106,45,-8,-16,-106,-70,19,105,79,72,-26, -28,3,3,-32,-4,28,8,58,-15,8,5,26,21,24,-83,-7,23,25,-23,2,-94,48,47,28,11,58,-5,-90,-9,-5,5,-39,-34,-10,-14,19,4,92,-9,12,58,-58,2,-24,66,34,-29,-7, 
  /* [0][1][][] */ -67,-19,-112,-26,-34,16,7,-16,57,-43,-3,-115,-11,-50,-127,127,104,35,127,83,-4,127,98,95,8,-15,-35,-44,43,-40,55,-93,-33,-33,-53,30,-8,-72,41,19,65,127,32,-24,-63,127,79,-34, -118,45,127,115,127,-119,-127,-9,-8,-127,-127,-127,127,-29,-25,35,18,-127,-118,-127,114,-13,-61,-113,127,-11,127,-92,127,127,-39,70,-127,-127,127,-127,98,-120,-127,-127,8,115,-98,5,-127,-67,127,127, 0,16,0,12,45,127,-23,52,67,3,56,-52,-1,-6,-112,-4,42,52,-12,46,-56,-111,127,-22,37,127,11,-30,55,28,107,23,27,-3,44,14,15,66,52,-11,-21,68,127,-13,-56,-70,52,-2, 
  /* [0][2][][] */ -37,11,-52,11,-6,-19,16,-17,85,25,2,45,3,1,109,9,48,16,44,30,18,-8,43,19,14,-28,-14,-106,17,-9,-4,-24,14,54,-7,-6,-33,-20,-8,2,20,-11,-58,-64,-14,4,-26,-35, -3,-49,44,4,-83,-19,-94,-95,127,67,51,59,0,-47,54,7,51,104,-49,-22,-47,1,6,-22,2,-29,-75,-127,1,-26,127,22,-31,53,-78,-54,41,-127,15,40,-127,-21,-119,127,34,5,82,-47, 38,-2,29,-6,-42,38,1,-96,-5,-11,-16,20,1,23,125,-113,24,-39,-55,-22,-114,6,15,18,-8,31,-38,-34,35,-31,-3,8,6,44,-49,-17,-58,49,-24,22,-9,-28,48,51,-26,-25,-34,-15, 
};
const TfArray<48, float> quant16_scale = { 48, { 0.0092370007187128067, 0.0092420307919383049, 0.0092563275247812271, 0.0096410773694515228, 0.0095856282860040665, 0.019442513585090637, 0.0041145659051835537, 0.0084629543125629425, 0.0030498707201331854, 0.0078503340482711792, 0.013100809417665005, 0.014749412424862385, 0.0076651545241475105, 0.0069073988124728203, 0.0079503478482365608, 0.013760648667812347, 0.0059121148660778999, 0.092251114547252655, 0.014540277421474457, 0.0079786581918597221, 0.0049963667988777161, 0.023149507120251656, 0.0060526742599904537, 0.0088353324681520462, 0.0094899460673332214, 0.011525540612637997, 0.0089818267151713371, 0.0076725529506802559, 0.017585894092917442, 0.008978845551609993, 0.0075338105671107769, 0.025563864037394524, 0.0031167513225227594, 0.011643733829259872, 0.0052269543521106243, 0.031027559190988541, 0.0073104868642985821, 0.0076959952712059021, 0.034972567111253738, 0.011009419336915016, 0.0022800518199801445, 0.012312453240156174, 0.0065199551172554493, 0.0068791327066719532, 0.010609299875795841, 0.007880418561398983, 0.005289777647703886, 0.012929026037454605, } };
const TfLiteAffineQuantization quant16 = { (TfLiteFloatArray*)&quant16_scale, (TfLiteIntArray*)&g0::quant8_zero, 3 };
const MODEL_SECTION(EI_MODEL_SECTION) ALIGN(16) int32_t tensor_data17[48] = { 9325, 3532, -863, 8094, 81, -38, 5877, 450, -309, 3720, -1445, -283, -2709, 11313, 3237, -533, -4063, -316, 2557, 964, 12181, -83, -9921, -911, -7511, -3650, 921, 3474, -2240, -658, -7342, 115, 14665, -645, 929, 1437, -3792, 4102, -148, 3044, 19500, 622, 1317, -256, 24, 1191, -6567, 6564, };
const TfArray<48, float> quant17_scale = { 48, { 0.00021734119218308479, 0.00021745955746155232, 0.00021779593953397125, 0.00022684888972435147, 0.00022554419410880655, 0.00045747091644443572, 9.6813317213673145e-05, 0.00019912833522539586, 7.1761664003133774e-05, 0.0001847137464210391, 0.00030825435533188283, 0.00034704501740634441, 0.00018035658285953104, 0.00016252703790087253, 0.00018706700939219445, 0.00032377996831201017, 0.00013910858251620084, 0.0021706144325435162, 0.00034212417085655034, 0.00018773313786368817, 0.00011756157618947327, 0.00054469431051984429, 0.00014241586904972792, 0.0002078901743516326, 0.00022329285275191069, 0.00027118920115754008, 0.00021133710106369108, 0.000180530667421408, 0.0004137857467867434, 0.00021126696083229035, 0.00017726613441482186, 0.00060150271747261286, 7.3335329943802208e-05, 0.00027397021767683327, 0.00012298717047087848, 0.00073006021557375789, 0.00017201145237777382, 0.00018108224321622401, 0.00082288397243246436, 0.00025904516223818064, 5.3648280299967155e-05, 0.00028970479615963995, 0.00015341071411967278, 0.00016186194261536002, 0.00024963059695437551, 0.00018542160978540778, 0.00012446535401977599, 0.0003042123862542212, } };
const TfLiteAffineQuantization quant17 = { (TfLiteFloatArray*)&quant17_scale, (TfLiteIntArray*)&g0::quant8_zero, 0 };
const MODEL_SECTION(EI_MODEL_SECTION) ALIGN(16) int8_t tensor_data18[8*1*1*48] = { 
  /* [0][0][][] */ -30,-7,-18,-26,-61,-29,-6,-22,69,2,10,-5,4,16,-19,14,-36,-1,-18,-20,1,-1,-15,-4,16,-6,78,5,-17,-79,-7,9,1,27,127,-12,-24,-35,23,-31,26,10,-1,-22,-9,-4,-16,-69, 
  /* [1][0][][] */ 12,-38,-12,54,-1,-2,10,34,70,71,38,-48,-44,70,-4,12,-13,-37,21,-18,-64,41,-39,38,77,11,-30,33,21,-7,127,24,-9,-43,-31,0,-18,12,-33,-4,6,-30,8,29,-4,37,37,21, 
  /* [2][0][][] */ -72,-10,-103,94,-79,-87,23,-51,-73,44,71,-77,-14,-21,-41,3,121,28,-76,-43,-74,-42,-39,41,101,-33,127,7,90,-12,-51,33,-12,-15,43,-14,-46,16,-8,-106,50,-93,-66,-125,-7,-65,-65,99, 
  /* [3][0][][] */ 26,-48,25,-40,36,-23,-7,-72,40,-62,4,-14,-89,-80,-13,0,29,3,54,-50,-1,37,-93,10,82,-35,51,26,4,-7,-8,-44,-44,36,18,-35,-58,33,7,-14,127,12,-41,30,-44,47,-16,-57, 
  /* [4][0][][] */ 23,6,6,14,9,39,-13,-21,48,21,11,-56,1,4,-72,21,-6,12,19,-19,-26,13,9,37,36,1,-34,-3,45,-8,-18,26,-6,2,31,25,-127,-2,55,11,12,-3,-6,16,-43,55,-33,-103, 
  /* [5][0][][] */ -37,-82,13,105,-26,-22,-51,101,-83,77,36,28,-76,23,61,-35,-18,23,23,3,-2,11,46,36,-41,12,-22,30,-46,-92,36,42,-106,-40,-22,-9,127,-8,-20,11,-35,-17,69,97,23,32,47,35, 
  /* [6][0][][] */ 97,-1,-19,-22,86,-51,-20,-60,48,23,36,-37,-5,16,6,-2,-4,-10,-8,-31,-30,21,22,34,74,-60,55,-13,-35,118,-17,17,47,25,-127,-19,-90,-45,32,-74,-2,-8,-15,-98,10,12,-13,-14, 
  /* [7][0][][] */ -47,-65,47,-30,11,102,25,-59,7,-104,-34,-19,-3,-25,-61,-2,15,-71,127,54,53,-44,13,-6,-26,21,104,-19,45,19,21,-1,-37,-45,-34,108,-120,105,-55,-30,-46,67,8,-78,17,-18,83,-26, 
};
const TfArray<8, float> quant18_scale = { 8, { 0.01256271731108427, 0.0077514024451375008, 0.0034146376419812441, 0.0067511722445487976, 0.0095625733956694603, 0.0049025090411305428, 0.0067219953052699566, 0.0037103621289134026, } };
const TfLiteAffineQuantization quant18 = { (TfLiteFloatArray*)&quant18_scale, (TfLiteIntArray*)&g0::quant2_zero, 0 };
const MODEL_SECTION(EI_MODEL_SECTION) ALIGN(16) int32_t tensor_data19[8] = { 6525, -12612, 3773, 8230, 4446, -5453, 2709, 4758, };
const TfArray<8, float> quant19_scale = { 8, { 0.00029559334507212043, 0.0001823859493015334, 8.0344419984612614e-05, 0.00015885110769886523, 0.00022500172781292349, 0.00011535315570654348, 0.00015816459199413657, 8.730263652978465e-05, } };
const TfLiteAffineQuantization quant19 = { (TfLiteFloatArray*)&quant19_scale, (TfLiteIntArray*)&g0::quant2_zero, 0 };
const MODEL_SECTION(EI_MODEL_SECTION) ALIGN(16) int8_t tensor_data20[48*1*1*8] = { 
  /* [0][0][][] */ -22,25,-47,46,41,127,35,30, 
  /* [1][0][][] */ 59,-127,-120,-25,-55,85,62,-51, 
  /* [2][0][][] */ -31,49,10,-118,-21,-127,-32,-44, 
  /* [3][0][][] */ -15,127,62,31,-6,-67,-23,13, 
  /* [4][0][][] */ -102,53,-127,90,0,-35,-55,-91, 
  /* [5][0][][] */ 126,-104,-127,29,8,-29,70,-57, 
  /* [6][0][][] */ -6,-65,-50,39,-127,-37,-43,52, 
  /* [7][0][][] */ -20,-35,-9,-44,42,9,-37,127, 
  /* [8][0][][] */ -2,36,-91,-92,57,-57,-127,-83, 
  /* [9][0][][] */ -126,51,-28,96,-17,89,127,9, 
  /* [10][0][][] */ -24,-8,91,-127,-19,62,14,31, 
  /* [11][0][][] */ 109,-28,90,19,-68,49,74,127, 
  /* [12][0][][] */ 61,5,-1,-73,57,111,96,-127, 
  /* [13][0][][] */ 50,43,-17,63,-18,-127,-32,58, 
  /* [14][0][][] */ 30,-127,-15,-4,9,74,38,-53, 
  /* [15][0][][] */ -124,-7,-16,-74,69,127,-87,-49, 
  /* [16][0][][] */ 13,-54,127,18,-17,15,127,72, 
  /* [17][0][][] */ 70,-9,44,19,-24,-96,-28,-127, 
  /* [18][0][][] */ -118,14,-62,-7,6,-127,27,-96, 
  /* [19][0][][] */ 50,15,52,-5,-73,30,127,52, 
  /* [20][0][][] */ 7,127,58,-3,27,39,38,9, 
  /* [21][0][][] */ -24,11,21,-110,-88,127,11,-12, 
  /* [22][0][][] */ 48,-10,91,-10,-53,7,127,51, 
  /* [23][0][][] */ -63,127,75,51,-81,-76,-101,113, 
  /* [24][0][][] */ -23,-11,75,-6,-120,127,4,-108, 
  /* [25][0][][] */ -48,15,62,10,-127,38,-70,20, 
  /* [26][0][][] */ -45,-127,26,-48,7,40,-13,-7, 
  /* [27][0][][] */ -9,42,22,45,-19,127,-28,-3, 
  /* [28][0][][] */ 14,-127,44,20,38,106,52,26, 
  /* [29][0][][] */ 23,127,-21,33,-65,-42,-22,18, 
  /* [30][0][][] */ -48,104,117,106,-125,-63,-54,-127, 
  /* [31][0][][] */ 18,72,30,53,-47,0,12,-127, 
  /* [32][0][][] */ -13,-28,-83,76,-127,-41,-39,-4, 
  /* [33][0][][] */ 61,31,49,48,-10,58,32,127, 
  /* [34][0][][] */ 127,32,-108,-25,-48,10,78,28, 
  /* [35][0][][] */ 102,92,103,-127,-55,-90,25,117, 
  /* [36][0][][] */ -31,-97,127,44,46,81,16,-41, 
  /* [37][0][][] */ -2,20,-14,-10,-5,-41,-53,127, 
  /* [38][0][][] */ 127,-6,63,-5,-4,12,-72,39, 
  /* [39][0][][] */ 71,92,-83,-127,-107,101,31,-65, 
  /* [40][0][][] */ -27,127,-47,59,-85,-22,-61,-16, 
  /* [41][0][][] */ -127,36,-31,-53,59,39,0,-46, 
  /* [42][0][][] */ 52,-44,2,-13,-22,127,1,87, 
  /* [43][0][][] */ -74,59,127,25,71,9,-38,1, 
  /* [44][0][][] */ 6,127,8,40,-60,-72,-23,1, 
  /* [45][0][][] */ -89,77,71,-127,-53,14,-75,-47, 
  /* [46][0][][] */ 16,-29,-9,30,2,9,-127,40, 
  /* [47][0][][] */ -114,-127,43,78,61,-100,17,118, 
};
const TfArray<48, float> quant20_scale = { 48, { 0.0044758566655218601, 0.001875408343039453, 0.0032269705552607775, 0.0041640354320406914, 0.0029671355150640011, 0.0019643793348222971, 0.0022050854749977589, 0.0020276403520256281, 0.0032624818850308657, 0.0022840285673737526, 0.0029457607306540012, 0.0023953095078468323, 0.0018482158193364739, 0.0042485478334128857, 0.0035276175476610661, 0.0019449390238150954, 0.0041842004284262657, 0.0017347602406516671, 0.0025332996156066656, 0.0023707684595137835, 0.003202295396476984, 0.00081364891957491636, 0.0023163517471402884, 0.0026127705350518227, 0.0032273505348712206, 0.0021579647436738014, 0.0028369023930281401, 0.0027666108217090368, 0.0043330444023013115, 0.0047922213561832905, 0.0019117529736831784, 0.0024639302864670753, 0.0020715969149023294, 0.00414609769359231, 0.0014566025929525495, 0.00091701641213148832, 0.0025718621909618378, 0.0018012976506724954, 0.0021032090298831463, 0.0021771206520497799, 0.0032389040570706129, 0.0027361281681805849, 0.0023191079962998629, 0.0031954515725374222, 0.0028852263931185007, 0.0017500888789072633, 0.0027687768451869488, 0.0020720968022942543, } };
const TfLiteAffineQuantization quant20 = { (TfLiteFloatArray*)&quant20_scale, (TfLiteIntArray*)&g0::quant8_zero, 0 };
const MODEL_SECTION(EI_MODEL_SECTION) ALIGN(16) int32_t tensor_data21[48] = { 101, 3342, 1213, 98, -430, 455, 3220, 2840, 965, -1651, 1017, -553, 3427, 110, 1151, -1738, 69, 3495, 1087, 1749, -814, 16434, 1770, -787, 313, 2943, 1717, -1839, 178, -67, -2289, -1282, 3583, 629, 5562, 10083, 3154, 3947, -2441, -1642, -695, 1852, 1332, 668, -1005, -3013, 1845, 740, };
const TfArray<48, float> quant21_scale = { 48, { 0.00050934276077896357, 0.00021341738465707749, 0.00036722220829688013, 0.00047385814832523465, 0.00033765356056392193, 0.00022354208340402693, 0.00025093392468988895, 0.00023074104683473706, 0.00037126333336345851, 0.00025991746224462986, 0.0003352211497258395, 0.000272581004537642, 0.00021032293443568051, 0.00048347547999583185, 0.00040143518708646297, 0.00022132982849143445, 0.00047615289804525673, 0.00019741193682420999, 0.00028828397626057267, 0.00026978828827850521, 0.000364414241630584, 9.2591471911873668e-05, 0.00026359577896073461, 0.00029732758412137628, 0.00036726545658893883, 0.00024557168944738805, 0.00032283330801874399, 0.00031483429484069347, 0.00049309100722894073, 0.0005453443736769259, 0.00021755333000328392, 0.00028038991149514914, 0.00023574320948682725, 0.00047181689296849072, 0.00016575820336584002, 0.00010435446893097833, 0.00029267231002449989, 0.00020498374942690134, 0.00023934060300234705, 0.00024775159545242786, 0.00036858022212982178, 0.00031136540928855538, 0.00026390943094156682, 0.00036363542312756181, 0.00032833247678354383, 0.00019915630400646478, 0.00031508077518083155, 0.00023580010747537017, } };
const TfLiteAffineQuantization quant21 = { (TfLiteFloatArray*)&quant21_scale, (TfLiteIntArray*)&g0::quant8_zero, 0 };
const MODEL_SECTION(EI_MODEL_SECTION) ALIGN(16) int8_t tensor_data22[1*3*3*48] = { 
  /* [0][0][][] */ -2,-74,-1,-28,-9,12,-68,-22,-80,8,23,-122,-12,36,-37,125,61,-93,-43,88,-2,114,24,118,-127,-65,43,51,50,-23,79,113,62,-31,-25,-41,-64,-101,77,54,-87,-29,26,29,22,42,-15,-50, -92,-99,-19,-59,-13,0,-127,-92,-73,45,66,-74,-63,98,-100,103,100,-75,-48,-20,100,115,64,107,-93,-127,115,100,33,-127,127,35,60,-95,-34,-34,-75,-58,127,119,-21,-82,70,46,-51,50,-2,-58, 27,-124,-109,-10,-73,8,-114,0,-60,55,48,1,-34,7,-55,80,71,-46,-72,1,73,-127,-36,16,-81,-95,40,12,118,-6,65,-6,76,-44,-90,-45,-127,-1,27,106,-52,-11,45,63,10,22,-26,11, 
  /* [0][1][][] */ -71,-63,-94,-127,-54,-4,-113,-46,-75,127,61,-116,-25,56,-118,127,127,-127,-53,94,87,122,-93,127,-74,-96,69,127,118,-97,49,2,57,-127,-77,-62,-82,-94,70,66,-86,-58,2,50,108,55,-37,-38, -127,-127,-68,-94,-70,-127,-90,-127,-127,123,127,-127,-127,127,-127,109,89,-75,-127,-5,114,25,127,94,9,-106,127,86,99,-78,99,66,76,-111,-127,-125,-27,-127,75,114,-127,-127,127,125,117,127,-109,-77, -41,-95,-66,-111,-127,-75,-63,-37,-80,20,76,-56,-24,34,-122,86,94,-58,13,-127,101,-125,-93,43,-9,-75,45,10,127,-120,47,127,102,-51,-77,-47,-91,-68,9,127,-80,-23,52,127,127,15,-37,-15, 
  /* [0][2][][] */ 2,8,-60,-91,-62,9,7,-17,-111,38,-11,-29,-46,-45,-40,62,38,-22,-65,37,-13,30,-32,2,-66,-3,17,41,38,-13,32,70,127,25,16,-93,-54,9,-1,40,23,-50,-42,-1,57,6,-127,28, -32,6,-127,-79,-29,-109,-40,-61,-46,39,49,0,-32,115,-47,25,56,-14,-6,-7,127,12,-30,-16,1,-73,61,20,62,-23,92,-5,77,-14,-45,-127,-41,-93,-26,13,32,-23,47,-11,103,-17,-72,-127, -47,29,-54,-104,-64,-20,-54,-44,-49,97,41,-13,-28,-22,80,31,51,-73,-2,-61,22,-39,-31,41,-27,-74,5,11,73,-80,43,68,80,52,-51,-57,-88,-51,31,59,-59,-1,17,50,111,10,-39,-21, 
};
const TfArray<48, float> quant22_scale = { 48, { 0.0034278640523552895, 0.0036554662510752678, 0.0053951791487634182, 0.002433753339573741, 0.0084718996658921242, 0.0047655040398240089, 0.0064876195974647999, 0.0061396951787173748, 0.0022243491839617491, 0.00281165586784482, 0.003188250819221139, 0.0041319355368614197, 0.0068614482879638672, 0.0043832072988152504, 0.0041090259328484535, 0.0044148284941911697, 0.0013029272668063641, 0.0033657439053058624, 0.0045807473361492157, 0.0083303302526473999, 0.0031390937510877848, 0.0098139503970742226, 0.0060964119620621204, 0.0066696777939796448, 0.0023662704043090343, 0.0021256273612380028, 0.0025712642818689346, 0.014540338888764381, 0.0021808343008160591, 0.0042721196077764034, 0.010493903420865536, 0.0097413286566734314, 0.0028137888293713331, 0.0040901419706642628, 0.0050132772885262966, 0.0041194404475390911, 0.0048912572674453259, 0.005250102374702692, 0.0069535821676254272, 0.0061845378950238228, 0.0090788640081882477, 0.0016609722515568137, 0.0051221223548054695, 0.0031442840117961168, 0.0094236377626657486, 0.010459189303219318, 0.0056807664223015308, 0.0050572068430483341, } };
const TfLiteAffineQuantization quant22 = { (TfLiteFloatArray*)&quant22_scale, (TfLiteIntArray*)&g0::quant8_zero, 3 };
const MODEL_SECTION(EI_MODEL_SECTION) ALIGN(16) int32_t tensor_data23[48] = { 15436, 23122, 9559, 27264, 5093, 8243, 17108, 6964, 40515, -1759, 2089, 10075, 12050, -3141, 8389, 14, 6510, 30014, 14607, -1220, 4337, -15779, 1120, -1379, 33761, 42150, 4150, 221, -4287, 14059, -1731, 785, -19150, 9509, 20690, 31983, 23443, 20979, 16, -1604, 5313, 38237, 55, -1409, -1119, -478, 15765, 6652, };
const TfArray<48, float> quant23_scale = { 48, { 8.0655627243686467e-05, 8.6010972154326737e-05, 0.00012694539327640086, 5.7264784118160605e-05, 0.00019933881412725896, 0.00011212950630579144, 0.00015264988178387284, 0.00014446342538576573, 5.2337629313115031e-05, 6.6156608227174729e-05, 7.5017669587396085e-05, 9.7222015028819442e-05, 0.0001614458451513201, 0.00010313429083907977, 9.6682968433015049e-05, 0.00010387832298874855, 3.0657112802146003e-05, 7.9193974670488387e-05, 0.00010778228897834197, 0.00019600777886807919, 7.3861032433342189e-05, 0.00023091648472473025, 0.00014344499504659325, 0.00015693360182922333, 5.5676951888017356e-05, 5.0014761654892936e-05, 6.0500336985569447e-05, 0.00034212562604807317, 5.1313749281689525e-05, 0.00010052046127384529, 0.00024691538419574499, 0.0002292077406309545, 6.6206797782797366e-05, 9.6238632977474481e-05, 0.00011795946920756251, 9.6928015409503132e-05, 0.00011508840543683618, 0.0001235318195540458, 0.00016361370217055082, 0.00014551854110322893, 0.00021362034021876752, 3.9081700379028916e-05, 0.00012052052625222132, 7.3983152105938643e-05, 0.00022173265460878611, 0.00024609858519397676, 0.00013366508937906474, 0.00011899310629814863, } };
const TfLiteAffineQuantization quant23 = { (TfLiteFloatArray*)&quant23_scale, (TfLiteIntArray*)&g0::quant8_zero, 0 };
const MODEL_SECTION(EI_MODEL_SECTION) ALIGN(16) int8_t tensor_data24[8*1*1*48] = { 
  /* [0][0][][] */ -22,16,0,34,-24,6,-8,32,-42,-12,-37,2,-10,22,39,-1,-48,-20,21,-18,-31,127,-22,-15,-22,-35,3,28,-35,34,11,-20,-6,20,28,39,24,4,28,-20,4,-29,-21,-17,-21,26,23,11, 
  /* [1][0][][] */ 20,61,9,48,37,36,57,113,-61,-45,84,-41,-34,-38,27,-19,-20,-1,53,12,33,-127,-5,-69,13,13,-14,6,-11,9,-41,-67,-39,5,27,-10,16,63,66,-35,33,19,41,-26,-36,49,0,52, 
  /* [2][0][][] */ -10,28,-4,28,16,18,-28,30,19,18,69,16,4,-14,25,-48,25,30,-25,8,-11,127,6,-5,26,-36,1,6,-17,36,-26,-61,-18,5,22,-41,28,-18,-32,-24,27,-19,-3,-40,-37,38,14,5, 
  /* [3][0][][] */ -47,57,-2,1,-19,37,72,-3,1,11,9,11,-19,31,40,26,-13,7,12,4,49,-85,0,21,-14,5,-127,35,-33,-25,-14,2,-45,-17,14,26,30,-18,-37,-37,5,-20,22,26,14,-13,42,14, 
  /* [4][0][][] */ 31,12,-49,3,24,-2,22,-4,-52,9,-6,24,5,-10,-10,24,-25,36,-6,-22,-9,-127,2,-2,36,26,26,-55,34,-12,5,15,-4,54,32,-8,-18,15,-16,3,-16,-58,-92,24,36,37,5,-8, 
  /* [5][0][][] */ -5,45,90,15,10,28,31,-99,53,-29,-16,5,97,-70,-14,23,3,-37,65,12,-29,127,8,11,77,-2,74,49,79,55,4,-36,-62,-37,107,47,-41,-44,-15,-99,20,-16,65,60,-48,-38,-33,-7, 
  /* [6][0][][] */ 61,-12,-32,28,50,-31,33,-43,51,26,-4,-29,-14,66,25,-88,21,-127,-38,-18,29,-25,-23,22,-42,-28,43,-16,59,-49,124,55,56,46,21,-47,-55,24,59,-25,-31,30,-78,56,47,0,44,-49, 
  /* [7][0][][] */ -12,45,47,75,-2,2,52,98,74,26,-10,80,-71,19,47,-25,90,-24,-29,-23,-15,-127,-5,-85,-88,89,54,9,15,38,6,-6,27,-36,11,35,-11,115,-100,-11,17,12,34,-22,-60,7,53,6, 
};
const TfArray<8, float> quant24_scale = { 8, { 0.0081105362623929977, 0.008657786063849926, 0.0064608245156705379, 0.006926822941750288, 0.0072805127128958702, 0.0035536075010895729, 0.0043997117318212986, 0.0053053628653287888, } };
const TfLiteAffineQuantization quant24 = { (TfLiteFloatArray*)&quant24_scale, (TfLiteIntArray*)&g0::quant2_zero, 0 };
const MODEL_SECTION(EI_MODEL_SECTION) ALIGN(16) int32_t tensor_data25[8] = { 5223, -2348, -3281, 2288, 2033, -17219, -4154, -12206, };
const TfArray<8, float> quant25_scale = { 8, { 0.00019083614461123943, 0.00020371261052787304, 0.00015201940550468862, 0.00016298406990244985, 0.00017130617925431579, 8.3614293544087559e-05, 0.00010352263052482158, 0.00012483207683544606, } };
const TfLiteAffineQuantization quant25 = { (TfLiteFloatArray*)&quant25_scale, (TfLiteIntArray*)&g0::quant2_zero, 0 };
const MODEL_SECTION(EI_MODEL_SECTION) ALIGN(16) int8_t tensor_data26[48*1*1*8] = { 
  /* [0][0][][] */ 60,-125,42,0,73,-127,-3,-68, 
  /* [1][0][][] */ -37,-58,-63,62,-127,59,-35,-4, 
  /* [2][0][][] */ 52,-33,55,-25,127,-15,-15,90, 
  /* [3][0][][] */ -26,127,2,108,20,16,-64,-33, 
  /* [4][0][][] */ -41,127,73,-31,64,39,-80,17, 
  /* [5][0][][] */ -91,33,-1,14,127,-25,84,-14, 
  /* [6][0][][] */ 94,-92,115,-3,62,127,95,21, 
  /* [7][0][][] */ -29,-42,47,39,53,13,-46,127, 
  /* [8][0][][] */ 27,-24,-34,-110,-21,127,-88,-2, 
  /* [9][0][][] */ -127,17,-77,-6,126,-26,-74,5, 
  /* [10][0][][] */ -8,-45,60,30,-61,-79,-127,-83, 
  /* [11][0][][] */ 34,97,-21,-14,-28,-67,23,127, 
  /* [12][0][][] */ 33,-19,-66,41,-66,127,29,72, 
  /* [13][0][][] */ -50,-28,-127,0,-113,87,16,40, 
  /* [14][0][][] */ -66,127,-78,82,94,45,-20,84, 
  /* [15][0][][] */ -69,-21,-6,-14,67,77,-69,-127, 
  /* [16][0][][] */ 73,-106,-127,-31,-50,91,-46,-39, 
  /* [17][0][][] */ 21,122,-109,-66,-89,29,64,-127, 
  /* [18][0][][] */ -109,-124,50,21,127,-70,-35,91, 
  /* [19][0][][] */ -68,99,-49,65,-6,-127,-125,52, 
  /* [20][0][][] */ 61,-6,20,-46,10,-59,24,127, 
  /* [21][0][][] */ 46,-30,127,102,-70,119,71,-28, 
  /* [22][0][][] */ -29,127,8,-9,107,-64,-85,-53, 
  /* [23][0][][] */ 32,-38,0,127,36,-74,66,-16, 
  /* [24][0][][] */ -27,59,127,-69,-33,-32,15,-39, 
  /* [25][0][][] */ -42,-127,118,62,15,4,-45,122, 
  /* [26][0][][] */ 79,-39,-127,-117,-118,60,28,121, 
  /* [27][0][][] */ 49,127,-88,-75,-45,20,34,-105, 
  /* [28][0][][] */ -16,50,-41,-81,-12,-35,-127,-49, 
  /* [29][0][][] */ -50,58,-92,3,127,73,-70,-12, 
  /* [30][0][][] */ 76,-50,27,-31,-127,123,98,60, 
  /* [31][0][][] */ -50,48,-25,75,127,-77,0,-38, 
  /* [32][0][][] */ 9,46,28,-42,127,-58,10,-51, 
  /* [33][0][][] */ -127,74,-103,21,50,39,-42,12, 
  /* [34][0][][] */ 32,-6,74,-85,-2,-108,58,127, 
  /* [35][0][][] */ -127,49,65,-25,-84,15,30,5, 
  /* [36][0][][] */ -2,-34,-47,37,-5,12,127,37, 
  /* [37][0][][] */ -18,-25,-73,-31,-22,-127,-53,-10, 
  /* [38][0][][] */ -127,33,18,27,-100,21,49,31, 
  /* [39][0][][] */ -42,-46,35,-14,-6,87,-94,-127, 
  /* [40][0][][] */ 111,-76,39,14,-45,-53,108,127, 
  /* [41][0][][] */ 27,127,93,42,24,27,-106,-39, 
  /* [42][0][][] */ 35,127,-29,-11,-20,25,-14,-53, 
  /* [43][0][][] */ -125,97,-82,-127,67,78,-94,122, 
  /* [44][0][][] */ -38,7,-23,23,33,127,-11,-17, 
  /* [45][0][][] */ 8,94,-112,-31,-127,-124,-41,101, 
  /* [46][0][][] */ 30,105,-91,-40,-71,36,-4,-127, 
  /* [47][0][][] */ 37,-14,6,-84,-77,-127,-34,23, 
};
const TfArray<48, float> quant26_scale = { 48, { 0.0012372729834169149, 0.0046638567000627518, 0.0051894248463213444, 0.0030808171723037958, 0.002829001983627677, 0.0020285602658987045, 0.0022169738076627254, 0.0050254063680768013, 0.00076037150574848056, 0.0016471849521622062, 0.0023079493548721075, 0.0024866820313036442, 0.0089913075789809227, 0.0051082116551697254, 0.0017570804338902235, 0.002571537159383297, 0.0029272125102579594, 0.0042160837911069393, 0.0022892947308719158, 0.0021298478823155165, 0.0027376373764127493, 0.0019820667803287506, 0.0043408921919763088, 0.0028131462167948484, 0.0021825919393450022, 0.0045760972425341606, 0.0014679593732580543, 0.0060353819280862808, 0.0027800274547189474, 0.002842277055606246, 0.0017444005934521556, 0.0018892902880907059, 0.0041712690144777298, 0.0022844120394438505, 0.0034144639503210783, 0.0044501484371721745, 0.0023240796290338039, 0.0038660489954054356, 0.0040451767854392529, 0.0019052689895033836, 0.0031846174970269203, 0.0016461784252896905, 0.0042983079329133034, 0.0018223167862743139, 0.0041890935972332954, 0.0021351221948862076, 0.0026903811376541853, 0.0031583483796566725, } };
const TfLiteAffineQuantization quant26 = { (TfLiteFloatArray*)&quant26_scale, (TfLiteIntArray*)&g0::quant8_zero, 0 };
const MODEL_SECTION(EI_MODEL_SECTION) ALIGN(16) int32_t tensor_data27[48] = { 14731, -1284, 1521, 2385, 3699, 1648, 3963, -398, 23652, 6958, -1766, 411, 747, 1041, 621, 4709, 3075, 2896, -2778, -965, 4826, 2913, 1948, 808, 5792, 2385, 11087, -465, 5611, -1476, 8350, 5362, 3316, 18, 1502, 2653, 4985, 1678, 2293, 2280, -1036, 7175, 2399, 6668, 3377, 2836, 1017, 4443, };
const TfArray<48, float> quant27_scale = { 48, { 6.903700705152005e-05, 0.00026023256941698492, 0.0002895580546464771, 0.00017190257494803518, 0.00015785185678396374, 0.00011318903125356883, 0.00012370207696221769, 0.00028040620964020491, 4.2426996515132487e-05, 9.1909161710646003e-05, 0.00012877830886282027, 0.00013875118747819215, 0.00050169444875791669, 0.00028502655914053321, 9.8041076853405684e-05, 0.00014348590048030019, 0.00016333177336491644, 0.00023524786229245365, 0.00012773742491845042, 0.00011884065315825865, 0.00015275391342584044, 0.00011059480311814696, 0.0002422118850518018, 0.00015696714399382472, 0.00012178364704595879, 0.00025533579173497856, 8.1908787251450121e-05, 0.00033676053863018751, 0.00015511919627897441, 0.00015859257837291807, 9.7333570010960102e-05, 0.0001054180902428925, 0.00023274729028344154, 0.00012746498396154493, 0.00019051929120905697, 0.00024830811889842153, 0.00012967834481969476, 0.00021571671823039651, 0.00022571162844542414, 0.0001063096642610617, 0.0001776943972799927, 9.1852998593822122e-05, 0.00023983577557373792, 0.00010168112203245983, 0.00023374187003355473, 0.00011913494381587952, 0.00015011713549029082, 0.00017622862651478499, } };
const TfLiteAffineQuantization quant27 = { (TfLiteFloatArray*)&quant27_scale, (TfLiteIntArray*)&g0::quant8_zero, 0 };
const MODEL_SECTION(EI_MODEL_SECTION) ALIGN(16) int8_t tensor_data28[1*3*3*48] = { 
  /* [0][0][][] */ -125,19,56,-18,-72,26,-127,-5,2,127,42,0,-17,20,7,25,6,23,22,-4,-100,-3,50,32,-19,-27,-3,-73,28,-89,81,57,3,50,38,-27,25,-127,-27,127,-61,35,-11,-22,8,6,3,-48, 10,-21,-36,19,-36,30,-99,-25,45,25,127,68,-106,-94,-127,-60,-2,-57,107,94,43,78,-61,32,-61,-39,1,-127,29,-28,-44,-87,19,41,-53,-127,-3,66,14,103,127,-7,-40,127,19,-127,11,-56, -118,73,47,21,-87,32,-58,-15,8,56,11,-51,-31,55,71,36,-72,12,18,29,-92,-31,118,33,13,-7,2,-60,-30,-82,41,22,22,2,-20,-42,15,-29,13,72,-56,27,8,5,1,24,21,30, 
  /* [0][1][][] */ 22,-8,49,-20,-76,8,75,-24,-48,22,35,42,-115,-24,-62,97,-45,21,48,123,13,101,-127,2,-33,-112,-21,-78,127,23,42,85,-127,9,122,6,-4,-8,-82,-112,61,-25,10,8,-127,54,7,-58, 86,-3,-127,-127,39,127,12,127,-117,-91,-17,127,-106,-127,-113,-127,-22,-127,-69,68,127,127,-45,127,-127,45,-127,87,-44,-40,-127,-88,30,127,-127,99,-127,-69,127,-40,-30,127,-127,-104,102,80,-127,-93, 55,-51,89,-7,-97,-24,9,-27,-30,5,30,-43,-41,-64,18,92,-127,-50,39,127,-9,55,36,-125,26,-23,105,-23,-47,127,-59,95,126,-51,-36,11,-9,8,6,-63,27,-22,-4,-14,-11,32,-13,127, 
  /* [0][2][][] */ -127,61,36,-23,-127,6,108,-25,124,50,26,-26,1,41,40,-28,82,48,1,-47,-62,-10,39,37,-46,-39,-3,31,12,68,85,-26,-4,28,88,14,-15,-71,-26,7,-45,15,18,-21,-13,10,-9,-11, -76,-127,51,-65,-112,-33,126,-20,127,20,72,-34,127,-72,-86,-46,-114,25,-127,-25,-73,16,-104,-14,-3,-127,5,38,24,68,10,-127,-11,-45,-38,25,-21,29,65,-44,-1,22,26,-55,34,-12,-10,2, -52,6,47,-5,-79,7,36,-22,57,6,37,28,-87,55,51,-22,-23,35,-23,-85,-16,-29,114,-95,-9,-13,13,29,-1,43,18,-25,12,39,-33,34,22,-49,26,-55,-28,40,32,1,-13,16,-5,11, 
};
const TfArray<48, float> quant28_scale = { 48, { 0.010277415625751019, 0.01575843058526516, 0.0034038589801639318, 0.0050738449208438396, 0.0021929831709712744, 0.021903654560446739, 0.0094590513035655022, 0.008343997411429882, 0.0095565682277083397, 0.013842843472957611, 0.0075014238245785236, 0.011057517491281033, 0.0040856464765965939, 0.0059899487532675266, 0.013294225558638573, 0.0048271478153765202, 0.006737823598086834, 0.0070761707611382008, 0.019559551030397415, 0.0067577608861029148, 0.0058317878283560276, 0.0065677543170750141, 0.0048708557151257992, 0.0097124818712472916, 0.0078473556786775589, 0.0054802144877612591, 0.015171583741903305, 0.012849931605160236, 0.016807226464152336, 0.017641562968492508, 0.0078529585152864456, 0.014693405479192734, 0.0089436601847410202, 0.022299995645880699, 0.0058538070879876614, 0.0061407061293721199, 0.012450218200683594, 0.014342818409204483, 0.0070337159559130669, 0.008639233186841011, 0.0092510981485247612, 0.0072970837354660034, 0.0081027932465076447, 0.015392376109957695, 0.015751007944345474, 0.012326536700129509, 0.0095512773841619492, 0.0065900115296244621, } };
const TfLiteAffineQuantization quant28 = { (TfLiteFloatArray*)&quant28_scale, (TfLiteIntArray*)&g0::quant8_zero, 3 };
const MODEL_SECTION(EI_MODEL_SECTION) ALIGN(16) int32_t tensor_data29[48] = { 8750, 1220, 11738, 12684, 44803, -3414, -2277, 1281, -6923, -6988, -2393, -1261, 13758, 11014, 5467, 5151, 9816, 8109, 937, -5116, 2433, -4121, 3576, -2003, 5108, 11556, 371, -774, -2350, -306, 12601, 2602, -3027, -2281, -416, -716, 9034, 6266, -3241, 96, 5473, -7089, 5094, 3207, -2487, 946, 6840, -2103, };
const TfArray<48, float> quant29_scale = { 48, { 0.00020058154768776149, 0.00030755304032936692, 6.6432199673727155e-05, 9.9024866358377039e-05, 4.2799860239028931e-05, 0.0004274877137504518, 0.00018460975843481719, 0.00016284754383377731, 0.00018651297432370484, 0.00027016704552806914, 0.00014640326844528317, 0.0002158065908588469, 7.973846368258819e-05, 0.00011690421524690464, 0.00025945983361452818, 9.4210146926343441e-05, 0.00013150028826203197, 0.0001381037145620212, 0.00038173850043676794, 0.0001318894064752385, 0.00011381743388483301, 0.00012818109826184809, 9.5063180197030306e-05, 0.00018955589621327817, 0.00015315473137889057, 0.00010695587116060778, 0.00029609972261823714, 0.0002507886674720794, 0.00032802211353555322, 0.00034430561936460435, 0.00015326407446991652, 0.00028676723013631999, 0.00017455100896768272, 0.00043522301712073386, 0.00011424717376939952, 0.00011984651064267382, 0.00024298756034113467, 0.0002799249195959419, 0.00013727514306083322, 0.00016860959294717759, 0.00018055118562187999, 0.00014241521421354264, 0.00015814002836123109, 0.00030040886485949159, 0.00030740819056518376, 0.0002405737031949684, 0.00018640971393324435, 0.00012861548748333007, } };
const TfLiteAffineQuantization quant29 = { (TfLiteFloatArray*)&quant29_scale, (TfLiteIntArray*)&g0::quant8_zero, 0 };
const MODEL_SECTION(EI_MODEL_SECTION) ALIGN(16) int8_t tensor_data30[8*1*1*48] = { 
  /* [0][0][][] */ 127,-7,-15,-4,-18,-86,-30,-11,44,-40,-44,-23,-23,77,-41,-2,1,1,4,15,36,-26,12,6,43,14,15,14,10,70,-48,-84,37,-62,-3,-27,28,-41,-15,35,-65,-29,-18,-35,-71,-72,12,-12, 
  /* [1][0][][] */ -71,1,97,-61,60,30,49,22,-14,17,1,96,40,-28,-127,-33,-119,-98,44,-46,12,92,-48,0,21,-102,9,123,48,-56,40,48,11,47,5,23,-72,-34,14,-7,4,-23,-110,18,-30,-77,-108,17, 
  /* [2][0][][] */ 83,26,-8,-68,-52,3,-39,-77,41,31,-85,-60,-2,48,-65,47,5,66,16,11,38,44,-7,-4,-127,6,19,-49,-2,26,43,-85,18,-34,22,24,-49,-44,10,17,-107,-105,-33,-72,-53,-93,32,-16, 
  /* [3][0][][] */ 15,-18,33,19,-114,-19,-15,54,-44,-58,-25,78,19,-35,-91,-46,-25,24,11,-58,-51,127,10,-66,20,34,48,-48,19,17,18,25,60,28,7,-2,53,78,30,-14,49,-22,19,-59,-25,4,23,16, 
  /* [4][0][][] */ -53,32,-125,23,-4,87,31,27,-31,127,47,44,37,-56,-1,48,-27,-23,-21,11,-16,46,-65,15,7,1,27,2,65,-95,100,104,22,50,14,-35,-75,7,5,-21,28,30,24,35,48,20,13,62, 
  /* [5][0][][] */ -32,6,34,-13,69,-74,-34,-31,-22,-82,17,-32,66,18,-17,16,20,-7,13,28,18,65,25,19,25,-19,-55,-7,-41,0,-127,-16,-48,-24,46,-16,-6,-33,0,-22,-20,-2,-32,-12,36,31,-3,30, 
  /* [6][0][][] */ 13,68,-17,75,-13,35,-59,48,-70,-39,58,25,49,12,52,13,11,-40,-42,42,16,75,40,-29,-85,2,-15,12,-114,5,-103,6,6,-43,-66,-60,127,-9,-55,-49,52,26,39,-60,-83,-14,-53,-42, 
  /* [7][0][][] */ -52,8,-60,43,-10,-24,-11,-29,-68,-50,48,69,46,-4,-64,-77,-89,81,-14,-2,17,13,44,-29,-36,111,-33,-116,-53,6,-104,-27,-23,-50,-44,-5,-37,-95,-57,12,-40,39,58,0,-61,-52,127,-43, 
};
const TfArray<8, float> quant30_scale = { 8, { 0.0031658951193094254, 0.0036654628347605467, 0.0026403430383652449, 0.004892334807664156, 0.0036641135811805725, 0.0036275838501751423, 0.0032984025310724974, 0.0035217101685702801, } };
const TfLiteAffineQuantization quant30 = { (TfLiteFloatArray*)&quant30_scale, (TfLiteIntArray*)&g0::quant2_zero, 0 };
const MODEL_SECTION(EI_MODEL_SECTION) ALIGN(16) int32_t tensor_data31[8] = { 16092, 6248, 15667, -4351, -13835, 9414, 3555, 17524, };
const TfArray<8, float> quant31_scale = { 8, { 7.238546822918579e-05, 8.3807659393642098e-05, 6.0369173297658563e-05, 0.00011185902985744178, 8.377680933335796e-05, 8.2941587606910616e-05, 7.5415140599943697e-05, 8.052087650867179e-05, } };
const TfLiteAffineQuantization quant31 = { (TfLiteFloatArray*)&quant31_scale, (TfLiteIntArray*)&g0::quant2_zero, 0 };
const MODEL_SECTION(EI_MODEL_SECTION) ALIGN(16) int8_t tensor_data32[48*1*1*8] = { 
  /* [0][0][][] */ -11,-56,-36,94,3,-72,-67,-127, 
  /* [1][0][][] */ 127,-26,32,-28,29,-80,3,33, 
  /* [2][0][][] */ -3,44,-4,-127,8,98,-58,50, 
  /* [3][0][][] */ -9,127,-57,-108,-78,3,39,-117, 
  /* [4][0][][] */ -4,-82,-63,-17,23,-91,-68,-127, 
  /* [5][0][][] */ -100,-11,66,124,35,66,-43,-127, 
  /* [6][0][][] */ -5,17,-45,25,9,9,-127,-32, 
  /* [7][0][][] */ 15,-17,-1,11,-49,39,127,68, 
  /* [8][0][][] */ -2,61,-72,-4,-15,-122,-127,93, 
  /* [9][0][][] */ 42,19,-26,-23,15,127,-53,81, 
  /* [10][0][][] */ -13,28,87,127,78,87,22,-51, 
  /* [11][0][][] */ -12,-86,-11,45,-127,57,-3,38, 
  /* [12][0][][] */ -27,32,117,-93,68,-105,-127,-66, 
  /* [13][0][][] */ 72,19,-106,-113,-5,-74,-51,127, 
  /* [14][0][][] */ -79,-120,50,-67,-9,-71,4,-127, 
  /* [15][0][][] */ 10,59,73,96,79,127,9,-35, 
  /* [16][0][][] */ 27,21,-28,-127,13,81,-43,73, 
  /* [17][0][][] */ -93,127,-90,38,41,80,-69,55, 
  /* [18][0][][] */ -127,42,18,-7,-77,8,-21,11, 
  /* [19][0][][] */ 127,-6,-9,-25,91,-62,80,-80, 
  /* [20][0][][] */ 127,-70,23,-21,-34,0,79,7, 
  /* [21][0][][] */ 31,-45,-38,31,-25,38,127,57, 
  /* [22][0][][] */ 109,40,-120,-86,10,110,83,127, 
  /* [23][0][][] */ -16,71,-63,-58,43,1,-127,4, 
  /* [24][0][][] */ 127,-52,-114,-4,127,-42,0,2, 
  /* [25][0][][] */ -31,-127,50,-51,88,68,-14,-101, 
  /* [26][0][][] */ 18,-33,36,-3,127,-53,-41,-40, 
  /* [27][0][][] */ -12,-127,81,72,6,9,-61,87, 
  /* [28][0][][] */ -40,78,-127,-47,76,-98,-58,91, 
  /* [29][0][][] */ -127,56,127,-60,19,-54,8,15, 
  /* [30][0][][] */ 90,-127,67,-6,-40,-85,52,-17, 
  /* [31][0][][] */ 20,30,44,-6,-20,-9,-127,17, 
  /* [32][0][][] */ -11,-2,26,127,-33,-78,-38,-61, 
  /* [33][0][][] */ 127,-82,-68,92,-81,81,-30,-27, 
  /* [34][0][][] */ 65,-127,41,-46,-118,115,-19,-18, 
  /* [35][0][][] */ 17,127,81,15,16,15,-67,2, 
  /* [36][0][][] */ 20,79,-86,-103,-55,0,68,-127, 
  /* [37][0][][] */ 31,6,49,5,50,127,51,26, 
  /* [38][0][][] */ -117,-79,79,60,9,-9,-85,127, 
  /* [39][0][][] */ 14,43,127,-84,-23,72,-17,38, 
  /* [40][0][][] */ -6,27,23,13,34,-33,127,-8, 
  /* [41][0][][] */ -47,3,-95,-127,-77,-67,-81,22, 
  /* [42][0][][] */ 28,-3,74,-31,-127,-40,-42,31, 
  /* [43][0][][] */ 71,3,32,-1,-64,-72,127,-8, 
  /* [44][0][][] */ -87,-126,-5,-65,8,21,-15,-127, 
  /* [45][0][][] */ 17,119,79,62,51,127,-54,23, 
  /* [46][0][][] */ -100,-17,-19,55,127,18,-45,111, 
  /* [47][0][][] */ 46,106,-58,-41,-30,-42,26,-127, 
};
const TfArray<48, float> quant32_scale = { 48, { 0.003107717027887702, 0.0036902620922774076, 0.0027068008203059435, 0.0021423357538878918, 0.0026871776208281517, 0.0019871299155056477, 0.0038000727072358131, 0.0010290797799825668, 0.0023492844775319099, 0.0027587234508246183, 0.0019199649104848504, 0.0033352018799632788, 0.0026571294292807579, 0.0011457490036264062, 0.0019039991311728954, 0.0018993028206750751, 0.0010786519851535559, 0.0023448325227946043, 0.0032376600429415703, 0.0032442673109471798, 0.0027079728897660971, 0.0034476767759770155, 0.0019880139734596014, 0.0020830333232879639, 0.0024459364358335733, 0.0018972477409988642, 0.0043846406042575836, 0.0037206311244517565, 0.0011685322970151901, 0.0038190260529518127, 0.0030978466384112835, 0.0042673922143876553, 0.0033751633018255234, 0.001870730658993125, 0.0013354269322007895, 0.0018137452425435185, 0.0024888264015316963, 0.0028861300088465214, 0.0025473509449511766, 0.0019093943992629647, 0.0046277721412479877, 0.0032716100104153156, 0.0025562532246112823, 0.004800957627594471, 0.00095735222566872835, 0.0013754838146269321, 0.0015843819128349423, 0.0030486874748021364, } };
const TfLiteAffineQuantization quant32 = { (TfLiteFloatArray*)&quant32_scale, (TfLiteIntArray*)&g0::quant8_zero, 0 };
const MODEL_SECTION(EI_MODEL_SECTION) ALIGN(16) int32_t tensor_data33[48] = { -1145, -2360, 3594, -586, -2885, 2275, 2690, 19644, 893, 3885, 5507, 1663, 3392, 11847, 6674, -4112, 14530, 1956, 2250, -2750, 206, -1384, 3174, 7220, 1496, 5810, 2005, 367, 8321, 770, 1097, -1017, -1939, -4170, -5707, 5499, 2854, 2571, 2536, 4224, 1664, 1424, 4395, 1443, 16520, 8716, -3478, 1651, };
const TfArray<48, float> quant33_scale = { 48, { 0.00019079599587712437, 0.00022656092187389731, 0.00016618204244878143, 0.00013152712199371308, 0.00016497728938702494, 0.00012199837510706857, 0.00023330266412813216, 6.3179591961670667e-05, 0.00014423258835449815, 0.0001693697995506227, 0.00011787482799263671, 0.00020476225472521037, 0.00016313249943777919, 7.0342415710911155e-05, 0.00011689462553476915, 0.00011660629388643429, 6.6223044996149838e-05, 0.00014395925973076373, 0.00019877374870702624, 0.0001991793978959322, 0.0001662540016695857, 0.00021166757505852729, 0.00012205265375087038, 0.00012788629101123661, 0.00015016646648291498, 0.00011648012878140435, 0.00026919177616946399, 0.00022842540056444705, 7.1741182182449847e-05, 0.00023446629347745329, 0.00019019001047126949, 0.00026199340936727822, 0.00020721566397696733, 0.0001148521332652308, 8.1987549492623657e-05, 0.00011135355453006923, 0.00015279966464731842, 0.00017719181778375059, 0.0001563927362440154, 0.00011722586350515485, 0.0002841186651494354, 0.00020085809228476137, 0.0001569392770761624, 0.0002947512548416853, 5.8775935031007975e-05, 8.4446815890260041e-05, 9.7271957201883197e-05, 0.00018717191414907575, } };
const TfLiteAffineQuantization quant33 = { (TfLiteFloatArray*)&quant33_scale, (TfLiteIntArray*)&g0::quant8_zero, 0 };
const MODEL_SECTION(EI_MODEL_SECTION) ALIGN(16) int8_t tensor_data34[1*3*3*48] = { 
  /* [0][0][][] */ 68,127,39,-16,17,-69,40,35,-30,-64,9,66,41,-6,-14,22,58,-32,83,47,56,-27,-8,0,-2,-44,27,13,-37,-127,-4,22,63,-81,81,12,-86,22,-5,-127,-14,-112,-90,-29,29,-127,32,-113, 127,36,57,-86,101,14,52,-49,-80,-127,71,127,-2,-40,-127,57,-6,104,93,33,11,53,66,22,127,-54,30,-127,-127,-88,-127,127,52,-77,-90,127,-3,-51,-71,-114,-22,115,-79,7,-68,-88,87,60, 0,13,23,-88,-45,-50,26,33,5,-63,35,40,4,23,45,11,-48,8,21,30,-29,-31,-71,-23,-11,-51,-75,-5,-40,-61,16,-15,31,-45,34,-15,-31,-118,-3,-37,-4,-40,84,-48,26,-126,-10,-119, 
  /* [0][1][][] */ 27,-12,15,25,83,85,11,-127,40,-108,-127,-30,7,34,-42,127,-127,127,49,49,-1,127,84,-55,12,127,80,45,13,-75,-73,34,22,116,-78,38,-89,13,1,-30,-53,-63,0,-96,99,-33,33,-31, -3,100,-127,62,105,36,-127,15,72,1,-46,32,-127,127,-21,33,52,-106,-127,24,40,93,127,-127,-78,68,-46,-22,-3,-67,69,8,127,-16,93,-30,67,-51,127,77,127,48,-127,9,127,30,-127,15, 21,-7,5,-127,127,48,19,-86,127,-16,-118,-41,12,36,-58,96,78,9,43,49,25,-71,47,107,-29,95,-57,-4,30,-62,-79,17,-54,49,127,21,-23,14,-42,-9,-41,-54,86,127,107,-35,59,-33, 
  /* [0][2][][] */ 20,61,21,43,0,4,43,24,-1,61,-58,30,52,-43,23,-58,3,38,98,-55,127,-17,-11,-66,-60,-65,127,64,-4,-11,-16,69,36,55,-19,7,-76,51,26,1,-26,-127,-26,-1,38,40,39,-127, 94,-1,-1,11,-14,-127,7,-95,6,-79,-108,-53,-6,-23,-6,53,15,-33,44,102,76,52,37,16,46,-24,-19,28,-76,-81,-60,52,34,127,-69,16,-127,-127,19,-40,-108,76,-25,27,-15,-45,109,-27, 71,-23,24,-58,123,-5,38,36,-16,-42,46,13,45,-31,28,-27,6,-16,79,-127,9,-46,-80,61,-63,-47,-50,15,-14,-103,32,13,98,-37,-9,27,-99,-67,-25,-7,-18,-33,11,17,-5,45,-25,-104, 
};
const TfArray<48, float> quant34_scale = { 48, { 0.0042553176172077656, 0.017280887812376022, 0.008134116418659687, 0.0097268307581543922, 0.0041770371608436108, 0.014538900926709175, 0.0084717730060219765, 0.018332306295633316, 0.01402304507791996, 0.004925137385725975, 0.00370456138625741, 0.010058309882879257, 0.0074417358264327049, 0.010665135458111763, 0.0090977633371949196, 0.0086447661742568016, 0.023700175806879997, 0.011694693006575108, 0.0045480611734092236, 0.013994922861456871, 0.015636274591088295, 0.012539961375296116, 0.0041226465255022049, 0.011841666884720325, 0.0061462968587875366, 0.008588157594203949, 0.0050992490723729134, 0.0084224874153733253, 0.0083167413249611855, 0.0037594602908939123, 0.012006522156298161, 0.0063876239582896233, 0.0068840743042528629, 0.017945215106010437, 0.014728331007063389, 0.0085267359390854836, 0.0079942354932427406, 0.0059590633027255535, 0.013620651327073574, 0.0088027464225888252, 0.010980000719428062, 0.01229731272906065, 0.0064231166616082191, 0.0095498561859130859, 0.0077033601701259613, 0.004764096811413765, 0.011289498768746853, 0.0060664955526590347, } };
const TfLiteAffineQuantization quant34 = { (TfLiteFloatArray*)&quant34_scale, (TfLiteIntArray*)&g0::quant8_zero, 3 };
const MODEL_SECTION(EI_MODEL_SECTION) ALIGN(16) int32_t tensor_data35[48] = { -2156, -2622, 5396, 1332, -1950, 1822, 3468, 14975, -6116, 16009, 13154, -2592, 7946, -3920, 7492, -1496, -1998, -3152, 303, -2346, -3816, -3256, -16322, 627, 2193, -1312, -2978, 3394, 9406, 12961, 8170, -3225, -10396, -253, -2817, -4860, 7241, 7256, -5528, 9246, 6757, 3651, -853, -2617, -12659, 12317, 17, 9275, };
const TfArray<48, float> quant35_scale = { 48, { 8.2369770098011941e-05, 0.00033450446790084243, 0.00015745130076538771, 0.00018828132306225598, 8.0854500993154943e-05, 0.00028142810333520174, 0.00016398727893829346, 0.00035485666012391448, 0.00027144272462464869, 9.5335402875207365e-05, 7.1708833274897188e-05, 0.00019469772814773023, 0.00014404895773623139, 0.00020644399046432227, 0.00017610451322980225, 0.0001673358929110691, 0.00045876199146732688, 0.00022637302754446864, 8.8036380475386977e-05, 0.00027089836657978594, 0.00030266985413618386, 0.00024273480812553316, 7.9801669926382601e-05, 0.0002292179997311905, 0.00011897327203769237, 0.00016624013369437307, 9.8705670097842813e-05, 0.00016303326992783695, 0.00016098635387606919, 7.277150871232152e-05, 0.00023240907466970384, 0.00012364461144898087, 0.00013325436157174408, 0.00034736379166133702, 0.00028509486583061516, 0.00016505119856446981, 0.00015474364045076072, 0.00011534900841070339, 0.00026365360827185214, 0.00017039390513673425, 0.00021253879822324961, 0.00023803788644727319, 0.00012433165102265775, 0.00018485564214643091, 0.00014911319885868579, 9.2218157078605145e-05, 0.00021852973441127688, 0.00011742856440832838, } };
const TfLiteAffineQuantization quant35 = { (TfLiteFloatArray*)&quant35_scale, (TfLiteIntArray*)&g0::quant8_zero, 0 };
const MODEL_SECTION(EI_MODEL_SECTION) ALIGN(16) int8_t tensor_data36[8*1*1*48] = { 
  /* [0][0][][] */ 43,33,25,18,3,-35,51,40,25,33,-4,1,46,-27,39,-27,-51,-16,-127,-11,48,-39,14,51,8,-10,47,-30,0,-49,-11,42,-35,52,55,-2,37,76,-46,-40,-11,-1,-87,-37,30,26,-25,-63, 
  /* [1][0][][] */ -34,-11,6,89,-32,22,-15,3,8,3,-16,-57,-1,-4,17,13,39,8,59,-33,11,59,37,-50,-1,-1,-29,-1,-27,16,17,-3,-34,-19,-103,88,33,3,-127,-34,48,9,73,13,105,-18,-52,68, 
  /* [2][0][][] */ -57,17,41,-28,-18,-34,-54,121,-57,84,-47,-17,126,14,63,-26,-63,-113,-9,59,-18,-12,49,-9,4,66,-14,62,20,27,98,10,-109,-36,10,61,24,83,61,-127,69,41,-78,-47,11,55,-6,10, 
  /* [3][0][][] */ 22,-13,-127,-22,23,-26,50,-27,-37,-31,-16,18,-42,-67,56,26,5,54,16,40,-61,13,-67,-17,-36,-84,35,13,-84,-70,-55,23,72,37,-59,29,-53,0,30,-27,26,-65,-42,11,55,-59,52,-21, 
  /* [4][0][][] */ 9,55,-13,-3,12,9,-75,-118,-32,27,-11,87,-10,-25,-9,56,36,69,-87,0,36,14,-32,-7,10,-10,14,12,-18,15,-4,-18,33,-18,-127,29,-21,-5,48,40,-22,-36,85,53,11,-56,10,24, 
  /* [5][0][][] */ -60,-18,85,7,69,54,52,-9,-127,10,-88,-4,-89,-73,40,67,-21,28,6,-1,50,29,24,33,-23,13,-1,-10,-30,7,-23,-22,-10,47,68,14,2,64,-26,17,59,-38,-48,54,-13,28,25,41, 
  /* [6][0][][] */ 110,61,-28,17,30,-46,-115,-84,14,16,1,81,-26,-25,-12,32,-37,37,17,-6,121,-39,62,127,12,-61,5,-50,-53,-15,-59,-71,68,-49,26,-21,-24,52,-63,54,-74,-73,-68,-30,-24,-50,50,-20, 
  /* [7][0][][] */ 18,51,36,-96,56,-52,-28,-17,34,19,40,35,-41,5,25,-13,-30,38,-21,47,-44,-9,-16,63,3,-30,-1,36,-3,37,-52,2,70,-2,-33,-44,-86,17,127,3,8,-57,-18,-6,48,12,64,-3, 
};
const TfArray<8, float> quant36_scale = { 8, { 0.0050061186775565147, 0.0075871902517974377, 0.003472890704870224, 0.0027005281299352646, 0.0056367297656834126, 0.003666730597615242, 0.006777539849281311, 0.0062347543425858021, } };
const TfLiteAffineQuantization quant36 = { (TfLiteFloatArray*)&quant36_scale, (TfLiteIntArray*)&g0::quant2_zero, 0 };
const MODEL_SECTION(EI_MODEL_SECTION) ALIGN(16) int32_t tensor_data37[8] = { -1964, -5081, -13162, 13631, 7348, -5609, 11851, 2133, };
const TfArray<8, float> quant37_scale = { 8, { 0.00010753855895018205, 0.00016298364789690822, 7.4602641689125448e-05, 5.8011191867990419e-05, 0.00012108498776797205, 7.8766599472146481e-05, 0.00014559121336787939, 0.00013393140397965908, } };
const TfLiteAffineQuantization quant37 = { (TfLiteFloatArray*)&quant37_scale, (TfLiteIntArray*)&g0::quant2_zero, 0 };
const MODEL_SECTION(EI_MODEL_SECTION) ALIGN(16) int8_t tensor_data38[48*1*1*8] = { 
  /* [0][0][][] */ 51,-64,-57,-5,-127,19,-36,7, 
  /* [1][0][][] */ -127,48,111,12,-97,-24,-24,-4, 
  /* [2][0][][] */ 9,58,-51,17,-32,-127,5,103, 
  /* [3][0][][] */ -72,58,11,127,-9,-44,-123,-66, 
  /* [4][0][][] */ 6,-13,36,-106,-9,10,-127,18, 
  /* [5][0][][] */ 42,127,-56,-23,-33,-22,2,-103, 
  /* [6][0][][] */ 62,-69,52,115,-35,-127,31,-95, 
  /* [7][0][][] */ 25,127,-56,-50,-48,-23,7,-121, 
  /* [8][0][][] */ -4,-24,47,-3,14,14,-57,-127, 
  /* [9][0][][] */ -78,-11,-110,29,-127,-93,-69,-6, 
  /* [10][0][][] */ 32,25,60,4,-82,-35,66,127, 
  /* [11][0][][] */ 127,-28,-73,20,69,8,-93,-8, 
  /* [12][0][][] */ -30,-127,106,26,42,-15,-69,101, 
  /* [13][0][][] */ 9,-51,56,4,44,-127,67,-91, 
  /* [14][0][][] */ -95,36,127,1,-32,-71,22,-50, 
  /* [15][0][][] */ 46,112,-24,-66,-80,8,48,-127, 
  /* [16][0][][] */ 33,87,-55,59,-9,-45,-2,127, 
  /* [17][0][][] */ 26,86,-6,73,-44,83,-127,28, 
  /* [18][0][][] */ 57,-13,127,-20,96,-118,-3,-5, 
  /* [19][0][][] */ 0,0,11,127,43,-39,-55,-107, 
  /* [20][0][][] */ 5,31,-21,33,-4,58,-127,3, 
  /* [21][0][][] */ 2,3,39,19,32,127,37,-48, 
  /* [22][0][][] */ 59,-127,-12,80,-92,62,19,17, 
  /* [23][0][][] */ -67,-123,-34,-127,32,-115,4,-127, 
  /* [24][0][][] */ 1,42,-27,-89,-52,-127,-54,69, 
  /* [25][0][][] */ 65,64,127,14,-2,22,-46,-2, 
  /* [26][0][][] */ -119,46,127,-55,-89,-19,87,-15, 
  /* [27][0][][] */ -85,43,-45,-104,31,127,-16,97, 
  /* [28][0][][] */ 11,-105,69,55,55,20,-35,127, 
  /* [29][0][][] */ -127,67,76,-43,-122,16,85,-62, 
  /* [30][0][][] */ 125,-123,13,74,-127,-24,66,-80, 
  /* [31][0][][] */ 55,63,38,-37,-102,-32,23,127, 
  /* [32][0][][] */ -43,-2,74,-50,21,-15,-127,-102, 
  /* [33][0][][] */ 52,40,102,-127,16,52,-31,63, 
  /* [34][0][][] */ -12,-127,75,-13,30,114,79,-81, 
  /* [35][0][][] */ 59,-8,101,-4,6,127,57,-46, 
  /* [36][0][][] */ -15,35,-28,39,43,-127,1,15, 
  /* [37][0][][] */ 38,-39,47,10,-127,114,-17,2, 
  /* [38][0][][] */ -127,-43,-125,-11,72,-47,-125,-24, 
  /* [39][0][][] */ 25,-7,41,-127,-42,53,-120,10, 
  /* [40][0][][] */ 96,-29,-71,-127,61,53,66,-25, 
  /* [41][0][][] */ 13,-13,-7,127,-96,21,-94,-73, 
  /* [42][0][][] */ -95,36,88,127,-63,-61,-80,-5, 
  /* [43][0][][] */ 28,-82,106,86,-127,10,81,67, 
  /* [44][0][][] */ 1,-30,42,-72,-18,127,27,8, 
  /* [45][0][][] */ -19,38,-25,-6,57,-35,-127,-44, 
  /* [46][0][][] */ -95,-111,-6,-24,19,127,-28,-110, 
  /* [47][0][][] */ -108,-72,-47,11,22,127,-18,-54, 
};
const TfArray<48, float> quant38_scale = { 48, { 0.0040003703907132149, 0.0028706116136163473, 0.0016135430196300149, 0.0016085311071947217, 0.0018034960376098752, 0.0018050600774586201, 0.0043265572749078274, 0.00067533407127484679, 0.0022864467464387417, 0.0012175389565527439, 0.003581714816391468, 0.004985446110367775, 0.0018259184435009956, 0.0039169485680758953, 0.0027481340803205967, 0.0012958588777109981, 0.002018508967012167, 0.00074275286169722676, 0.0056998361833393574, 0.0023878230713307858, 0.0028870580717921257, 0.0019399607554078102, 0.0022023071069270372, 0.0028302771970629692, 0.002861108398064971, 0.0019701083656400442, 0.004513817373663187, 0.0038301518652588129, 0.0022442501503974199, 0.0026820444036275148, 0.0018950073281303048, 0.0024363838601857424, 0.0019842879846692085, 0.0015262182569131255, 0.002080143429338932, 0.0015514678088948131, 0.00081988272722810507, 0.0020553013309836388, 0.0017391496803611517, 0.0020560924895107746, 0.002201366238296032, 0.000655089330393821, 0.002021073130890727, 0.0031099466141313314, 0.0012361155822873116, 0.003985975868999958, 0.0022880192846059799, 0.0023570258636027575, } };
const TfLiteAffineQuantization quant38 = { (TfLiteFloatArray*)&quant38_scale, (TfLiteIntArray*)&g0::quant8_zero, 0 };
const MODEL_SECTION(EI_MODEL_SECTION) ALIGN(16) int32_t tensor_data39[48] = { -15, 1336, 1673, 4077, 5654, -921, -656, 16640, 1346, 7545, 1142, -901, 4079, -1836, 2568, -2689, -465, -1564, 403, 2509, 2647, 3005, 3526, 1670, -860, -2783, 344, 1416, 1488, 2524, -1406, 2690, 3784, 5261, 2195, 1256, 11403, 1088, 726, -1531, 829, 16821, -600, 1667, 7809, 193, 1125, 3737, };
const TfArray<48, float> quant39_scale = { 48, { 0.00035017423215322196, 0.00025128028937615454, 0.00014124222798272967, 0.00014080350229050964, 0.000157869842951186, 0.00015800676192156971, 0.00037872715620324016, 5.9115674957865849e-05, 0.00020014516485389322, 0.00010657782695489004, 0.00031352703808806837, 0.00043640329386107624, 0.00015983260527718812, 0.00034287187736481428, 0.00024055916583165526, 0.00011343359801685438, 0.00017669110093265772, 6.5017207816708833e-05, 0.00049893773393705487, 0.00020901918469462544, 0.00025271993945352733, 0.00016981535009108484, 0.00019277996034361422, 0.00024774961639195681, 0.00025044841459020972, 0.00017245433991774917, 0.00039511907380074263, 0.00033527408959344029, 0.00019645146676339209, 0.00023477397917304188, 0.00016588032303843647, 0.00021326997375581414, 0.00017369556007906795, 0.00013359820877667516, 0.00018208629626315087, 0.00013580844097305089, 7.1768808993510902e-05, 0.0001799117453629151, 0.0001522372622275725, 0.0001799809979274869, 0.00019269759650342166, 5.7343542721355334e-05, 0.00017691556422505528, 0.00027223059441894293, 0.00010820393799804151, 0.00034891421091742814, 0.00020028281142003834, 0.00020632334053516388, } };
const TfLiteAffineQuantization quant39 = { (TfLiteFloatArray*)&quant39_scale, (TfLiteIntArray*)&g0::quant8_zero, 0 };
const MODEL_SECTION(EI_MODEL_SECTION) ALIGN(16) int8_t tensor_data40[32*1*1*48] = { 
  /* [0][0][][] */ 4,52,22,-51,-51,22,-29,56,-12,-23,-127,-86,-79,51,-32,63,30,78,4,5,-19,-62,-50,-10,8,-62,9,87,33,-50,24,4,-49,71,11,-33,-18,13,-62,-4,-81,-31,85,-82,52,-5,-57,80, 
  /* [1][0][][] */ 25,11,40,30,21,-29,-20,67,26,36,-94,38,-60,-127,21,-31,-30,-7,6,-8,63,53,-71,-72,-43,9,-11,-29,42,31,-57,-34,-38,-40,-52,-33,22,-30,-19,18,-3,62,5,-38,24,12,-15,25, 
  /* [2][0][][] */ 68,-71,16,-86,4,-4,76,60,20,13,10,-9,104,99,-45,-55,22,-38,-5,29,-72,0,99,92,90,36,-28,94,77,-9,-22,127,39,-4,94,38,30,49,-31,74,101,27,48,117,27,-54,76,77, 
  /* [3][0][][] */ -82,67,37,-91,74,75,50,48,73,3,29,-65,78,25,77,82,-122,46,-61,72,-80,51,-79,-10,127,50,-107,1,37,15,-50,80,-108,10,10,-98,-98,-52,-87,-67,-88,-54,-74,14,-80,-108,-40,-45, 
  /* [4][0][][] */ -60,14,58,-3,41,11,-27,-19,2,43,-21,-32,-36,127,19,-51,63,22,-18,-49,-53,50,-60,-1,18,-71,51,35,15,-65,61,28,-64,35,-26,-24,64,-20,-62,-56,74,59,-65,-44,-2,54,-28,-22, 
  /* [5][0][][] */ -70,70,-24,-21,21,-5,-46,38,-4,-45,6,23,-44,-4,67,67,-61,78,53,3,69,9,-49,36,-127,37,-15,-26,-18,25,16,1,-31,43,30,34,62,-38,-27,-17,41,1,2,-58,59,75,6,-1, 
  /* [6][0][][] */ 84,-35,78,-48,-39,-49,43,-8,-14,119,52,54,63,-24,-13,36,21,-30,-9,42,-73,60,90,64,127,-31,-61,105,23,-43,2,111,-66,26,52,44,13,-27,31,43,-19,56,5,31,-10,-6,-48,16, 
  /* [7][0][][] */ 49,19,-53,-100,67,-28,-4,-58,6,-73,13,-29,-48,97,63,33,46,-16,-43,28,43,-84,-14,-48,123,-67,30,68,-80,-36,10,-3,-104,-44,41,-38,75,-14,-13,-87,-89,14,-60,127,-3,-61,-79,-54, 
  /* [8][0][][] */ -60,-59,-121,-6,58,-3,-26,-111,93,-123,119,-110,-34,-108,-127,-6,19,84,79,-76,106,61,98,-63,-77,-114,14,-109,-89,-92,-113,-11,-49,-10,-102,118,-126,-110,-54,-78,-29,22,45,-31,-15,-62,-28,97, 
  /* [9][0][][] */ 10,-39,36,63,27,44,127,30,10,45,107,68,101,74,-35,-34,1,-70,-48,-81,-92,71,44,12,46,-68,-45,43,63,-113,-6,57,-93,-63,110,-30,-27,7,-71,-63,98,86,-6,42,38,44,23,-24, 
  /* [10][0][][] */ -106,24,-94,-111,-60,69,-127,-114,59,-115,69,51,-22,18,52,-21,89,-6,-94,16,-27,-76,-53,65,23,82,-47,-43,-115,-91,-26,-120,42,17,89,-126,94,-96,25,92,68,10,11,44,-31,9,-20,-21, 
  /* [11][0][][] */ 28,49,-40,-39,60,5,-43,-48,-44,31,-6,-9,14,-67,41,-36,-68,59,-7,-21,-15,-18,12,-72,-127,71,48,58,-4,34,-24,25,43,55,-78,-39,11,68,-24,-35,19,-61,76,-95,52,31,-56,-8, 
  /* [12][0][][] */ -48,-45,-64,70,-6,-45,0,-67,-30,-5,42,21,-66,26,-50,37,16,-50,13,69,-87,-37,55,82,57,49,-74,-11,65,-74,127,49,7,-38,-9,-72,-5,-79,42,32,60,54,17,-5,14,-25,-58,51, 
  /* [13][0][][] */ 16,51,63,-60,100,41,-21,-62,21,-112,-17,36,-30,30,38,87,57,76,-10,83,119,-20,-63,-127,-5,-54,-6,-71,0,-97,-95,-27,-8,-100,1,-11,55,-119,70,47,-46,-71,76,32,39,7,50,53, 
  /* [14][0][][] */ -59,-53,98,72,64,-76,-2,-2,-5,79,-45,-69,11,95,-14,48,-79,-18,-24,-86,6,48,-57,-50,-84,-18,72,40,84,-73,60,-33,-30,106,115,30,42,64,-74,-87,109,127,126,7,88,-58,3,-35, 
  /* [15][0][][] */ 4,53,0,-36,-61,86,-4,52,-68,-25,22,-20,-9,-83,-21,-12,-23,88,-69,26,-4,-52,-80,-51,-90,14,87,92,-21,-47,-127,22,59,88,-37,-6,-16,85,-13,-54,-47,95,97,-107,68,60,-46,-59, 
  /* [16][0][][] */ -13,3,-72,65,49,-50,50,61,-35,20,47,-48,-39,48,-87,-26,14,42,-38,-25,-82,-22,-73,4,127,-51,-65,9,-28,53,55,15,-60,-37,6,1,-16,51,-80,34,25,12,42,-43,-68,-15,-70,-46, 
  /* [17][0][][] */ -28,57,-59,-12,-11,28,-50,60,20,-14,30,-5,-23,32,24,-26,16,55,-16,43,18,-6,-56,-31,-127,13,-16,-36,-33,29,13,-52,42,-16,-29,24,23,-36,-8,26,-29,65,-6,-73,58,23,-45,-50, 
  /* [18][0][][] */ 58,-108,-112,-24,42,14,-122,-110,-65,25,-85,-87,-21,80,15,33,20,88,-84,-52,-86,36,3,16,23,-21,37,-109,-31,-127,16,-111,-40,78,90,-60,13,-46,-74,-79,-117,8,112,-78,-41,42,75,-77, 
  /* [19][0][][] */ 32,79,-98,95,116,92,-99,16,102,-31,-37,-37,69,38,127,-28,39,-71,-34,126,-71,-72,-11,74,-35,7,38,-13,74,51,73,-108,84,-12,-102,86,-96,-33,-52,28,61,45,67,-1,-33,68,-100,108, 
  /* [20][0][][] */ 22,-99,-19,42,78,11,127,35,-65,-70,74,2,-33,-60,-13,-97,-17,-71,100,21,39,-116,106,6,9,81,-88,6,2,-81,-31,6,24,83,71,-67,88,6,-109,4,91,-109,-101,19,36,1,-49,-52, 
  /* [21][0][][] */ 56,93,85,-94,-45,-60,-92,-58,-36,80,12,-103,-62,-80,-101,-108,-46,-35,-82,-110,-51,44,93,-61,74,20,65,-37,-70,-110,88,-16,-101,15,84,91,-125,-88,-124,11,-7,35,-51,1,-83,77,-127,56, 
  /* [22][0][][] */ 73,-22,76,-17,-21,-66,88,41,8,18,94,0,16,95,-7,-58,0,-43,13,26,8,45,61,127,74,-18,3,46,38,-23,41,20,-41,55,44,17,37,-25,-14,-17,23,14,-42,96,50,-38,49,-15, 
  /* [23][0][][] */ -61,16,9,-19,-70,23,13,17,25,-80,9,-87,-100,35,68,-24,27,57,38,30,57,90,11,-44,-65,-28,-52,-43,-103,75,-38,99,82,-47,70,-17,1,85,75,-62,91,41,100,-127,-84,17,-81,93, 
  /* [24][0][][] */ -31,89,94,98,62,-2,-119,95,7,-72,-106,77,20,-32,7,-35,-16,55,-50,83,112,-11,-51,-8,-127,70,-46,-35,68,105,52,-18,109,-28,-21,-14,21,-41,-57,-62,1,96,-48,-4,-34,81,46,-46, 
  /* [25][0][][] */ 44,-36,45,23,10,-32,-3,43,-19,60,96,38,31,89,30,-76,31,-71,-12,1,7,65,57,126,127,-94,-59,4,111,18,-11,62,-63,-24,105,69,-8,38,-19,50,31,80,-11,66,47,-84,-2,-12, 
  /* [26][0][][] */ 101,-88,-17,-21,64,-102,127,-46,37,-41,-54,-1,-46,-34,19,-30,77,-10,-70,-82,27,-54,80,107,46,-42,33,27,10,-15,-12,-49,-37,33,46,100,-13,90,-119,86,85,-4,-45,-55,-14,31,99,0, 
  /* [27][0][][] */ 102,24,-125,98,-42,-40,42,-15,-92,74,-6,-5,-125,93,63,-58,26,-126,-12,-121,-40,47,97,-70,-102,63,-48,35,76,-71,93,-127,94,-96,40,101,92,71,-90,-42,32,42,-43,92,57,-107,97,-81, 
  /* [28][0][][] */ -124,112,-39,78,19,94,-125,1,56,-50,-127,69,52,-95,30,-69,-59,85,29,89,97,68,-29,-109,-53,-37,73,104,-52,26,-51,33,-6,23,-43,-44,36,74,-22,107,-84,-18,12,7,89,109,-10,9, 
  /* [29][0][][] */ -2,-30,22,16,-35,6,10,-112,-62,-40,-97,-69,59,-29,-82,-21,76,91,-73,94,27,-60,-95,-127,19,-52,-114,-52,-51,70,-82,12,-97,104,86,2,-32,-100,17,-37,62,-55,-22,16,-86,55,-120,-2, 
  /* [30][0][][] */ -102,-87,-105,-44,56,93,17,-5,-72,22,-16,59,86,32,-101,-107,72,127,71,18,-2,-74,88,-105,-61,72,-50,8,72,-64,-15,16,9,-33,12,22,-90,-49,79,-15,-33,-98,-53,-115,63,124,-39,-32, 
  /* [31][0][][] */ 40,56,33,-31,-44,-13,77,-53,-49,-36,57,-40,-48,-24,43,3,-11,16,-15,8,-22,-28,70,23,127,41,-27,-43,-14,38,53,31,32,12,37,54,19,65,-18,-51,-2,51,-61,48,11,45,22,-11, 
};
const TfArray<4, int> tensor_dimension40 = { 4, { 32,1,1,48 } };
const TfArray<32, float> quant40_scale = { 32, { 0.0031937193125486374, 0.0043123029172420502, 0.0030871739145368338, 0.0026349767576903105, 0.0038042513187974691, 0.0042403456754982471, 0.0043628979474306107, 0.0030099770519882441, 0.0021304760593920946, 0.0024120497982949018, 0.0023375588934868574, 0.003835153067484498, 0.0032347547821700573, 0.0024688364937901497, 0.0022794958204030991, 0.0031396676786243916, 0.00356320571154356, 0.0042094974778592587, 0.0023468916770070791, 0.002256021136417985, 0.0025338269770145416, 0.0023961474653333426, 0.0064449049532413483, 0.0026896172203123569, 0.002834186889231205, 0.0049019549041986465, 0.0025806385092437267, 0.0023516793735325336, 0.0028074232395738363, 0.0024593293201178312, 0.0024244559463113546, 0.0040437164716422558, } };
const TfArray<32, int> quant40_zero = { 32, { 0,0,0,0,0,0,0,0,0,0,0,0,0,0,0,0,0,0,0,0,0,0,0,0,0,0,0,0,0,0,0,0 } };
const TfLiteAffineQuantization quant40 = { (TfLiteFloatArray*)&quant40_scale, (TfLiteIntArray*)&quant40_zero, 0 };
const MODEL_SECTION(EI_MODEL_SECTION) ALIGN(16) int32_t tensor_data41[32] = { 80, 237, 3830, -949, 414, 220, 3058, -698, -226, -90, -883, 184, -403, -415, 655, 332, -424, 215, -875, 427, -427, -928, 1293, 234, 290, 2083, -611, -602, 234, -344, -303, -417, };
const TfArray<1, int> tensor_dimension41 = { 1, { 32 } };
const TfArray<32, float> quant41_scale = { 32, { 6.5850115788634866e-05, 8.8913780928123742e-05, 6.3653300458099693e-05, 5.4329611884895712e-05, 7.8438453783746809e-05, 8.7430118583142757e-05, 8.9956978627014905e-05, 6.2061604694463313e-05, 4.3927499064011499e-05, 4.9733163905330002e-05, 4.8197263822657987e-05, 7.9075602116063237e-05, 6.6696215071715415e-05, 5.0904029194498435e-05, 4.7000081394799054e-05, 6.4735650084912777e-05, 7.3468421760480851e-05, 8.6794076196383685e-05, 4.8389691073680297e-05, 4.6516066504409537e-05, 5.2244042308302596e-05, 4.940528015140444e-05, 0.0001328851212747395, 5.5456224799854681e-05, 5.8437053667148575e-05, 0.00010107160051120445, 5.3209230827633291e-05, 4.848840762861073e-05, 5.7885223213816062e-05, 5.0708003982435912e-05, 4.9988961109193042e-05, 8.3375896792858839e-05, } };
const TfLiteAffineQuantization quant41 = { (TfLiteFloatArray*)&quant41_scale, (TfLiteIntArray*)&g0::quant40_zero, 0 };
const MODEL_SECTION(EI_MODEL_SECTION) ALIGN(16) int8_t tensor_data42[2*1*1*32] = { 
  /* [0][0][][] */ -3,-1,13,-32,104,-1,107,12,26,-19,-55,-54,68,-17,104,-47,-53,-24,54,11,90,-18,127,-35,-27,101,25,-45,-60,-39,39,23, 
  /* [1][0][][] */ 63,94,-127,-46,-3,80,-60,-32,52,-77,-59,47,-39,7,15,68,-57,77,72,58,-47,4,-92,39,83,-53,-58,-63,53,60,79,-76, 
};
const TfArray<4, int> tensor_dimension42 = { 4, { 2,1,1,32 } };
const TfArray<2, float> quant42_scale = { 2, { 0.0058619491755962372, 0.0046161552891135216, } };
const TfArray<2, int> quant42_zero = { 2, { 0,0 } };
const TfLiteAffineQuantization quant42 = { (TfLiteFloatArray*)&quant42_scale, (TfLiteIntArray*)&quant42_zero, 0 };
const MODEL_SECTION(EI_MODEL_SECTION) ALIGN(8) int32_t tensor_data43[2] = { 9428, -11075, };
const TfArray<1, int> tensor_dimension43 = { 1, { 2 } };
const TfArray<2, float> quant43_scale = { 2, { 0.00038440289790742099, 0.00030270876595750451, } };
const TfLiteAffineQuantization quant43 = { (TfLiteFloatArray*)&quant43_scale, (TfLiteIntArray*)&g0::quant42_zero, 0 };
const TfArray<4, int> tensor_dimension44 = { 4, { 1,32,32,8 } };
const TfArray<1, float> quant44_scale = { 1, { 0.023529412224888802, } };
const TfLiteAffineQuantization quant44 = { (TfLiteFloatArray*)&quant44_scale, (TfLiteIntArray*)&g0::quant0_zero, 0 };
const TfArray<1, float> quant46_scale = { 1, { 0.087652415037155151, } };
const TfArray<1, int> quant46_zero = { 1, { -33 } };
const TfLiteAffineQuantization quant46 = { (TfLiteFloatArray*)&quant46_scale, (TfLiteIntArray*)&quant46_zero, 0 };
const TfArray<1, float> quant47_scale = { 1, { 0.083473801612854004, } };
const TfArray<1, int> quant47_zero = { 1, { -41 } };
const TfLiteAffineQuantization quant47 = { (TfLiteFloatArray*)&quant47_scale, (TfLiteIntArray*)&quant47_zero, 0 };
const TfArray<4, int> tensor_dimension48 = { 4, { 1,32,32,48 } };
const TfArray<4, int> tensor_dimension49 = { 4, { 1,33,33,48 } };
const TfArray<4, int> tensor_dimension50 = { 4, { 1,16,16,48 } };
const TfArray<4, int> tensor_dimension51 = { 4, { 1,16,16,8 } };
const TfArray<1, float> quant51_scale = { 1, { 0.088801801204681396, } };
const TfArray<1, int> quant51_zero = { 1, { -9 } };
const TfLiteAffineQuantization quant51 = { (TfLiteFloatArray*)&quant51_scale, (TfLiteIntArray*)&quant51_zero, 0 };
const TfArray<1, float> quant54_scale = { 1, { 0.075290262699127197, } };
const TfArray<1, int> quant54_zero = { 1, { -14 } };
const TfLiteAffineQuantization quant54 = { (TfLiteFloatArray*)&quant54_scale, (TfLiteIntArray*)&quant54_zero, 0 };
const TfArray<1, float> quant55_scale = { 1, { 0.11379782110452652, } };
const TfArray<1, int> quant55_zero = { 1, { -1 } };
const TfLiteAffineQuantization quant55 = { (TfLiteFloatArray*)&quant55_scale, (TfLiteIntArray*)&quant55_zero, 0 };
const TfArray<4, int> tensor_dimension57 = { 4, { 1,17,17,48 } };
const TfArray<4, int> tensor_dimension58 = { 4, { 1,8,8,48 } };
const TfArray<4, int> tensor_dimension59 = { 4, { 1,8,8,8 } };
const TfArray<1, float> quant59_scale = { 1, { 0.055797718465328217, } };
const TfArray<1, int> quant59_zero = { 1, { -17 } };
const TfLiteAffineQuantization quant59 = { (TfLiteFloatArray*)&quant59_scale, (TfLiteIntArray*)&quant59_zero, 0 };
const TfArray<1, float> quant60_scale = { 1, { 0.019516730681061745, } };
const TfLiteAffineQuantization quant60 = { (TfLiteFloatArray*)&quant60_scale, (TfLiteIntArray*)&g0::quant0_zero, 0 };
const TfArray<1, float> quant61_scale = { 1, { 0.022864140570163727, } };
const TfLiteAffineQuantization quant61 = { (TfLiteFloatArray*)&quant61_scale, (TfLiteIntArray*)&g0::quant0_zero, 0 };
const TfArray<1, float> quant62_scale = { 1, { 0.030460787937045097, } };
const TfArray<1, int> quant62_zero = { 1, { 17 } };
const TfLiteAffineQuantization quant62 = { (TfLiteFloatArray*)&quant62_scale, (TfLiteIntArray*)&quant62_zero, 0 };
const TfArray<1, float> quant63_scale = { 1, { 0.061394263058900833, } };
const TfArray<1, int> quant63_zero = { 1, { -13 } };
const TfLiteAffineQuantization quant63 = { (TfLiteFloatArray*)&quant63_scale, (TfLiteIntArray*)&quant63_zero, 0 };
const TfArray<1, float> quant64_scale = { 1, { 0.019356902688741684, } };
const TfLiteAffineQuantization quant64 = { (TfLiteFloatArray*)&quant64_scale, (TfLiteIntArray*)&g0::quant0_zero, 0 };
const TfArray<1, float> quant65_scale = { 1, { 0.021481424570083618, } };
const TfLiteAffineQuantization quant65 = { (TfLiteFloatArray*)&quant65_scale, (TfLiteIntArray*)&g0::quant0_zero, 0 };
const TfArray<1, float> quant66_scale = { 1, { 0.054801501333713531, } };
const TfArray<1, int> quant66_zero = { 1, { -40 } };
const TfLiteAffineQuantization quant66 = { (TfLiteFloatArray*)&quant66_scale, (TfLiteIntArray*)&quant66_zero, 0 };
const TfArray<1, float> quant67_scale = { 1, { 0.087535455822944641, } };
const TfArray<1, int> quant67_zero = { 1, { -24 } };
const TfLiteAffineQuantization quant67 = { (TfLiteFloatArray*)&quant67_scale, (TfLiteIntArray*)&quant67_zero, 0 };
const TfArray<1, float> quant68_scale = { 1, { 0.020618630573153496, } };
const TfLiteAffineQuantization quant68 = { (TfLiteFloatArray*)&quant68_scale, (TfLiteIntArray*)&g0::quant0_zero, 0 };
const TfArray<4, int> tensor_dimension69 = { 4, { 1,8,8,32 } };
const TfArray<1, float> quant69_scale = { 1, { 0.065575949847698212, } };
const TfLiteAffineQuantization quant69 = { (TfLiteFloatArray*)&quant69_scale, (TfLiteIntArray*)&g0::quant0_zero, 0 };
const TfArray<4, int> tensor_dimension70 = { 4, { 1,8,8,2 } };
const TfArray<1, float> quant70_scale = { 1, { 0.22969479858875275, } };
const TfArray<1, int> quant70_zero = { 1, { -8 } };
const TfLiteAffineQuantization quant70 = { (TfLiteFloatArray*)&quant70_scale, (TfLiteIntArray*)&quant70_zero, 0 };
const TfArray<1, float> quant71_scale = { 1, { 0.00390625, } };
const TfLiteAffineQuantization quant71 = { (TfLiteFloatArray*)&quant71_scale, (TfLiteIntArray*)&g0::quant0_zero, 0 };
const TfLiteConvParams opdata0 = { kTfLitePaddingSame, 2,2, kTfLiteActRelu6, 1,1 };
const TfArray<3, int> inputs0 = { 3, { 0,2,3 } };
const TfArray<1, int> outputs0 = { 1, { 44 } };
const TfLiteDepthwiseConvParams opdata1 = { kTfLitePaddingSame, 1,1, 1, kTfLiteActRelu6, 1,1 };
const TfArray<3, int> inputs1 = { 3, { 44,4,5 } };
const TfArray<1, int> outputs1 = { 1, { 45 } };
const TfLiteConvParams opdata2 = { kTfLitePaddingSame, 1,1, kTfLiteActNone, 1,1 };
const TfArray<3, int> inputs2 = { 3, { 45,6,7 } };
const TfArray<1, int> outputs2 = { 1, { 46 } };
const TfLiteAddParams opdata3 = { kTfLiteActNone };
const TfArray<2, int> inputs3 = { 2, { 44,46 } };
const TfArray<1, int> outputs3 = { 1, { 47 } };
const TfLiteConvParams opdata4 = { kTfLitePaddingSame, 1,1, kTfLiteActRelu6, 1,1 };
const TfArray<3, int> inputs4 = { 3, { 47,8,9 } };
const TfArray<1, int> outputs4 = { 1, { 48 } };
const TfArray<2, int> inputs5 = { 2, { 48,1 } };
const TfArray<1, int> outputs5 = { 1, { 49 } };
const TfLiteDepthwiseConvParams opdata6 = { kTfLitePaddingValid, 2,2, 1, kTfLiteActRelu6, 1,1 };
const TfArray<3, int> inputs6 = { 3, { 49,10,11 } };
const TfArray<1, int> outputs6 = { 1, { 50 } };
const TfLiteConvParams opdata7 = { kTfLitePaddingSame, 1,1, kTfLiteActNone, 1,1 };
const TfArray<3, int> inputs7 = { 3, { 50,12,13 } };
const TfArray<1, int> outputs7 = { 1, { 51 } };
const TfLiteConvParams opdata8 = { kTfLitePaddingSame, 1,1, kTfLiteActRelu6, 1,1 };
const TfArray<3, int> inputs8 = { 3, { 51,14,15 } };
const TfArray<1, int> outputs8 = { 1, { 52 } };
const TfLiteDepthwiseConvParams opdata9 = { kTfLitePaddingSame, 1,1, 1, kTfLiteActRelu6, 1,1 };
const TfArray<3, int> inputs9 = { 3, { 52,16,17 } };
const TfArray<1, int> outputs9 = { 1, { 53 } };
const TfLiteConvParams opdata10 = { kTfLitePaddingSame, 1,1, kTfLiteActNone, 1,1 };
const TfArray<3, int> inputs10 = { 3, { 53,18,19 } };
const TfArray<1, int> outputs10 = { 1, { 54 } };
const TfLiteAddParams opdata11 = { kTfLiteActNone };
const TfArray<2, int> inputs11 = { 2, { 51,54 } };
const TfArray<1, int> outputs11 = { 1, { 55 } };
const TfLiteConvParams opdata12 = { kTfLitePaddingSame, 1,1, kTfLiteActRelu6, 1,1 };
const TfArray<3, int> inputs12 = { 3, { 55,20,21 } };
const TfArray<1, int> outputs12 = { 1, { 56 } };
const TfArray<2, int> inputs13 = { 2, { 56,1 } };
const TfArray<1, int> outputs13 = { 1, { 57 } };
const TfLiteDepthwiseConvParams opdata14 = { kTfLitePaddingValid, 2,2, 1, kTfLiteActRelu6, 1,1 };
const TfArray<3, int> inputs14 = { 3, { 57,22,23 } };
const TfArray<1, int> outputs14 = { 1, { 58 } };
const TfLiteConvParams opdata15 = { kTfLitePaddingSame, 1,1, kTfLiteActNone, 1,1 };
const TfArray<3, int> inputs15 = { 3, { 58,24,25 } };
const TfArray<1, int> outputs15 = { 1, { 59 } };
const TfLiteConvParams opdata16 = { kTfLitePaddingSame, 1,1, kTfLiteActRelu6, 1,1 };
const TfArray<3, int> inputs16 = { 3, { 59,26,27 } };
const TfArray<1, int> outputs16 = { 1, { 60 } };
const TfLiteDepthwiseConvParams opdata17 = { kTfLitePaddingSame, 1,1, 1, kTfLiteActRelu6, 1,1 };
const TfArray<3, int> inputs17 = { 3, { 60,28,29 } };
const TfArray<1, int> outputs17 = { 1, { 61 } };
const TfLiteConvParams opdata18 = { kTfLitePaddingSame, 1,1, kTfLiteActNone, 1,1 };
const TfArray<3, int> inputs18 = { 3, { 61,30,31 } };
const TfArray<1, int> outputs18 = { 1, { 62 } };
const TfLiteAddParams opdata19 = { kTfLiteActNone };
const TfArray<2, int> inputs19 = { 2, { 59,62 } };
const TfArray<1, int> outputs19 = { 1, { 63 } };
const TfLiteConvParams opdata20 = { kTfLitePaddingSame, 1,1, kTfLiteActRelu6, 1,1 };
const TfArray<3, int> inputs20 = { 3, { 63,32,33 } };
const TfArray<1, int> outputs20 = { 1, { 64 } };
const TfLiteDepthwiseConvParams opdata21 = { kTfLitePaddingSame, 1,1, 1, kTfLiteActRelu6, 1,1 };
const TfArray<3, int> inputs21 = { 3, { 64,34,35 } };
const TfArray<1, int> outputs21 = { 1, { 65 } };
const TfLiteConvParams opdata22 = { kTfLitePaddingSame, 1,1, kTfLiteActNone, 1,1 };
const TfArray<3, int> inputs22 = { 3, { 65,36,37 } };
const TfArray<1, int> outputs22 = { 1, { 66 } };
const TfLiteAddParams opdata23 = { kTfLiteActNone };
const TfArray<2, int> inputs23 = { 2, { 63,66 } };
const TfArray<1, int> outputs23 = { 1, { 67 } };
const TfLiteConvParams opdata24 = { kTfLitePaddingSame, 1,1, kTfLiteActRelu6, 1,1 };
const TfArray<3, int> inputs24 = { 3, { 67,38,39 } };
const TfArray<1, int> outputs24 = { 1, { 68 } };
const TfLiteConvParams opdata25 = { kTfLitePaddingValid, 1,1, kTfLiteActRelu, 1,1 };
const TfArray<3, int> inputs25 = { 3, { 68,40,41 } };
const TfArray<1, int> outputs25 = { 1, { 69 } };
const TfLiteConvParams opdata26 = { kTfLitePaddingValid, 1,1, kTfLiteActNone, 1,1 };
const TfArray<3, int> inputs26 = { 3, { 69,42,43 } };
const TfArray<1, int> outputs26 = { 1, { 70 } };
const TfLiteSoftmaxParams opdata27 = { 1 };
const TfArray<1, int> inputs27 = { 1, { 70 } };
const TfArray<1, int> outputs27 = { 1, { 71 } };
};

TensorInfo_t tensorData[] = {
{ kTfLiteArenaRw, kTfLiteInt8, (int32_t*)(tensor_arena + 0), (TfLiteIntArray*)&g0::tensor_dimension0, 12288, {kTfLiteAffineQuantization, const_cast<void*>(static_cast<const void*>(&g0::quant0))}, },
{ kTfLiteMmapRo, kTfLiteInt32, (int32_t*)g0::tensor_data1, (TfLiteIntArray*)&g0::tensor_dimension1, 32, {kTfLiteNoQuantization, nullptr}, },
{ kTfLiteMmapRo, kTfLiteInt8, (int32_t*)g0::tensor_data2, (TfLiteIntArray*)&g0::tensor_dimension2, 216, {kTfLiteAffineQuantization, const_cast<void*>(static_cast<const void*>(&g0::quant2))}, },
{ kTfLiteMmapRo, kTfLiteInt32, (int32_t*)g0::tensor_data3, (TfLiteIntArray*)&g0::tensor_dimension3, 32, {kTfLiteAffineQuantization, const_cast<void*>(static_cast<const void*>(&g0::quant3))}, },
{ kTfLiteMmapRo, kTfLiteInt8, (int32_t*)g0::tensor_data4, (TfLiteIntArray*)&g0::tensor_dimension4, 72, {kTfLiteAffineQuantization, const_cast<void*>(static_cast<const void*>(&g0::quant4))}, },
{ kTfLiteMmapRo, kTfLiteInt32, (int32_t*)g0::tensor_data5, (TfLiteIntArray*)&g0::tensor_dimension3, 32, {kTfLiteAffineQuantization, const_cast<void*>(static_cast<const void*>(&g0::quant5))}, },
