/*
 * Copyright (c) 2026 EdgeImpulse Inc.
 *
 * Generated by Edge Impulse and licensed under the applicable Edge Impulse
 * Terms of Service. Community and Professional Terms of Service
 * (https://edgeimpulse.com/legal/terms-of-service) or Enterprise Terms of
 * Service (https://edgeimpulse.com/legal/enterprise-terms-of-service),
 * according to your product plan subscription (the “License”).
 *
 * This software, documentation and other associated files (collectively referred
 * to as the “Software”) is a single SDK variation generated by the Edge Impulse
 * platform and requires an active paid Edge Impulse subscription to use this
 * Software for any purpose.
 *
 * You may NOT use this Software unless you have an active Edge Impulse subscription
 * that meets the eligibility requirements for the applicable License, subject to
 * your full and continued compliance with the terms and conditions of the License,
 * including without limitation any usage restrictions under the applicable License.
 *
 * If you do not have an active Edge Impulse product plan subscription, or if use
 * of this Software exceeds the usage limitations of your Edge Impulse product plan
 * subscription, you are not permitted to use this Software and must immediately
 * delete and erase all copies of this Software within your control or possession.
 * Edge Impulse reserves all rights and remedies available to enforce its rights.
 *
 * Unless required by applicable law or agreed to in writing, the Software is
 * distributed on an "AS IS" BASIS, WITHOUT WARRANTIES OR CONDITIONS OF ANY KIND,
 * either express or implied. See the License for the specific language governing
 * permissions, disclaimers and limitations under the License.
 */
// Generated on: 11.04.2026 19:33:01

#include <stdio.h>
#include <stdlib.h>
#include "edge-impulse-sdk/tensorflow/lite/c/builtin_op_data.h"
#include "edge-impulse-sdk/tensorflow/lite/c/common.h"
#include "edge-impulse-sdk/tensorflow/lite/micro/micro_mutable_op_resolver.h"
#include "edge-impulse-sdk/porting/ei_classifier_porting.h"

#if EI_CLASSIFIER_PRINT_STATE
#if defined(__cplusplus) && EI_C_LINKAGE == 1
extern "C" {
    extern void ei_printf(const char *format, ...);
}
#else
extern void ei_printf(const char *format, ...);
#endif
#endif

#define STRINGIZE(x) #x
#define STRINGIZE_VALUE_OF(x) STRINGIZE(x)

#if defined (__GNUC__)  /* GNU compiler */
#define ALIGN(X) __attribute__((aligned(X)))
#define DEFINE_SECTION(x) __attribute__((section(x)))
#elif defined (_MSC_VER)
#define ALIGN(X) __declspec(align(X))
#elif defined (__TASKING__) /* TASKING Compiler */
#define ALIGN(X) __align(X)
#define DEFINE_SECTION(x) __attribute__((section(x)))
#elif defined (__ARMCC_VERSION) /* Arm Compiler */
#define ALIGN(X) __ALIGNED(x)
#define DEFINE_SECTION(x) __attribute__((section(x)))
#elif defined (__ICCARM__) /* IAR Compiler */
#define ALIGN(x) __attribute__((aligned(x)))
#define DEFINE_SECTION(x) __attribute__((section(x)))
#elif defined (__clang__) /* LLVM/Clang Compiler */
#define ALIGN(X) __ALIGNED(x)
#define DEFINE_SECTION(x) __attribute__((section(x)))
#endif

#if defined(EI_MODEL_SECTION) && (defined(__GNUC__) || defined(__clang__))
#define MODEL_SECTION(X) __attribute__((section(STRINGIZE_VALUE_OF(X))))
#else
#define MODEL_SECTION(X)
#endif

#ifndef EI_MAX_SCRATCH_BUFFER_COUNT
#ifndef CONFIG_IDF_TARGET_ESP32S3
#define EI_MAX_SCRATCH_BUFFER_COUNT 14
#else
#define EI_MAX_SCRATCH_BUFFER_COUNT 28
#endif // CONFIG_IDF_TARGET_ESP32S3
#endif // EI_MAX_SCRATCH_BUFFER_COUNT

#ifndef EI_MAX_OVERFLOW_BUFFER_COUNT
#define EI_MAX_OVERFLOW_BUFFER_COUNT 10
#endif // EI_MAX_OVERFLOW_BUFFER_COUNT

using namespace tflite;
using namespace tflite::ops;
using namespace tflite::ops::micro;

namespace {

#if defined(EI_CLASSIFIER_ALLOCATION_STATIC_HIMAX) || defined(EI_CLASSIFIER_ALLOCATION_STATIC_HIMAX_GNU)
constexpr int kTensorArenaSize = 118160;
#else
constexpr int kTensorArenaSize = 117136;
#endif

#if defined(EI_CLASSIFIER_ALLOCATION_STATIC)
#if defined (EI_TENSOR_ARENA_LOCATION)
uint8_t tensor_arena[kTensorArenaSize] ALIGN(16) DEFINE_SECTION(STRINGIZE_VALUE_OF(EI_TENSOR_ARENA_LOCATION));
#else
uint8_t tensor_arena[kTensorArenaSize] ALIGN(16);
#endif
#elif defined(EI_CLASSIFIER_ALLOCATION_STATIC_HIMAX)
#pragma Bss(".tensor_arena")
uint8_t tensor_arena[kTensorArenaSize] ALIGN(16);
#pragma Bss()
#elif defined(EI_CLASSIFIER_ALLOCATION_STATIC_HIMAX_GNU)
uint8_t tensor_arena[kTensorArenaSize] ALIGN(16) __attribute__((section(".tensor_arena")));
#else
#define EI_CLASSIFIER_ALLOCATION_HEAP 1
uint8_t* tensor_arena = NULL;
#endif

static uint8_t* tensor_boundary;
static uint8_t* current_location;

template <int SZ, class T> struct TfArray {
  int sz; T elem[SZ];
};

enum used_operators_e {
  OP_CONV_2D, OP_DEPTHWISE_CONV_2D, OP_PAD, OP_ADD, OP_SOFTMAX,  OP_LAST
};

struct TensorInfo_t { // subset of TfLiteTensor used for initialization from constant memory
  TfLiteAllocationType allocation_type;
  TfLiteType type;
  void* data;
  TfLiteIntArray* dims;
  size_t bytes;
  TfLiteQuantization quantization;
};

typedef struct {
  TfLiteTensor tensor;
  int16_t index;
} TfLiteTensorWithIndex;

typedef struct {
  TfLiteEvalTensor tensor;
  int16_t index;
} TfLiteEvalTensorWithIndex;

TfLiteContext ctx{};
static const int MAX_TFL_TENSOR_COUNT = 4;
static TfLiteTensorWithIndex tflTensors[MAX_TFL_TENSOR_COUNT];
static const int MAX_TFL_EVAL_COUNT = 4;
static TfLiteEvalTensorWithIndex tflEvalTensors[MAX_TFL_EVAL_COUNT];
TfLiteRegistration registrations[OP_LAST];

namespace g0 {
const TfArray<4, int> tensor_dimension0 = { 4, { 1,64,64,1 } };
const TfArray<1, float> quant0_scale = { 1, { 0.0039215688593685627, } };
const TfArray<1, int> quant0_zero = { 1, { -128 } };
const TfLiteAffineQuantization quant0 = { (TfLiteFloatArray*)&quant0_scale, (TfLiteIntArray*)&quant0_zero, 0 };
const MODEL_SECTION(EI_MODEL_SECTION) ALIGN(16) int32_t tensor_data1[4*2] = { 
  0, 0, 
  0, 1, 
  0, 1, 
  0, 0, 
};
const TfArray<2, int> tensor_dimension1 = { 2, { 4,2 } };
const MODEL_SECTION(EI_MODEL_SECTION) ALIGN(8) int32_t tensor_data2[2] = { 38538, -35881, };
const TfArray<1, int> tensor_dimension2 = { 1, { 2 } };
const TfArray<2, float> quant2_scale = { 2, { 8.7869309936650097e-05, 9.408928599441424e-05, } };
const TfArray<2, int> quant2_zero = { 2, { 0,0 } };
const TfLiteAffineQuantization quant2 = { (TfLiteFloatArray*)&quant2_scale, (TfLiteIntArray*)&quant2_zero, 0 };
const MODEL_SECTION(EI_MODEL_SECTION) ALIGN(16) int8_t tensor_data3[2*1*1*32] = { 
  /* [0][0][][] */ 46,-47,-64,100,-77,-2,-58,58,127,-36,-30,-37,-31,68,-31,33,100,-54,-41,-82,113,101,77,-80,-84,-104,-20,73,1,-74,2,60, 
  /* [1][0][][] */ 57,74,73,-60,-71,74,-7,15,-36,-11,37,104,110,42,35,0,-37,2,-57,-85,-74,36,31,107,82,72,-46,-4,103,-100,-127,-15, 
};
const TfArray<4, int> tensor_dimension3 = { 4, { 2,1,1,32 } };
const TfArray<2, float> quant3_scale = { 2, { 0.0034838307183235884, 0.003730439580976963, } };
const TfLiteAffineQuantization quant3 = { (TfLiteFloatArray*)&quant3_scale, (TfLiteIntArray*)&g0::quant2_zero, 0 };
const MODEL_SECTION(EI_MODEL_SECTION) ALIGN(16) int32_t tensor_data4[32] = { 487, 443, 464, -447, -472, 457, -600, 428, -396, -456, 409, 482, 446, 419, 156, -541, -527, -1043, -453, -457, -468, 460, 328, 450, 387, 426, -418, -490, 244, -405, 1790, -528, };
const TfArray<1, int> tensor_dimension4 = { 1, { 32 } };
const TfArray<32, float> quant4_scale = { 32, { 3.268497675890103e-05, 3.4041509934468195e-05, 3.280894088675268e-05, 3.2888619898585603e-05, 3.277336509199813e-05, 3.3182186598423868e-05, 3.3226533560082316e-05, 3.2517356885364279e-05, 3.3160966268042102e-05, 3.4092805435648188e-05, 3.4122564102290198e-05, 3.3686839742586017e-05, 3.3330063160974532e-05, 3.2854401069926098e-05, 3.255633419030346e-05, 3.3339980291202664e-05, 3.0552018870366737e-05, 3.9602517063030973e-05, 3.3159663871629164e-05, 3.2125517464010045e-05, 3.2545296562602744e-05, 3.1126655812840909e-05, 3.4364162274869159e-05, 3.2793770515127108e-05, 3.4652308386284858e-05, 3.3394902857253328e-05, 3.3184005587827414e-05, 3.3124328183475882e-05, 3.7501700717257336e-05, 3.224792453693226e-05, 4.6081688196863979e-05, 3.3659722248557955e-05, } };
const TfArray<32, int> quant4_zero = { 32, { 0,0,0,0,0,0,0,0,0,0,0,0,0,0,0,0,0,0,0,0,0,0,0,0,0,0,0,0,0,0,0,0 } };
const TfLiteAffineQuantization quant4 = { (TfLiteFloatArray*)&quant4_scale, (TfLiteIntArray*)&quant4_zero, 0 };
const MODEL_SECTION(EI_MODEL_SECTION) ALIGN(16) int8_t tensor_data5[32*1*1*96] = { 
  /* [0][0][][] */ -29,-44,115,18,106,-5,-83,-93,64,-93,-107,6,65,17,-30,63,-49,-24,-58,-48,-64,-101,12,117,-113,18,89,-42,121,7,-12,-77,90,-56,-87,73,-105,-78,-84,36,86,-81,-90,110,59,-107,121,-12,27,-54,-27,105,-68,-47,-89,116,33,78,125,-111,-72,92,-44,58,1,23,81,104,64,112,95,-111,112,-105,51,95,-105,25,-52,42,63,25,107,-7,-56,-36,-84,105,38,127,-2,-109,21,75,36,22, 
  /* [1][0][][] */ -47,40,-61,7,-29,91,45,17,76,-91,-100,112,74,-19,34,72,119,-31,45,127,-39,2,42,35,39,27,-29,114,21,15,108,-56,65,113,1,37,61,62,-5,-55,-57,12,-13,-89,-26,41,-19,-46,-12,-81,123,60,19,88,-68,-41,34,109,59,84,-49,123,-57,-69,-47,44,86,50,114,42,23,18,-102,88,-41,54,88,-32,-33,81,-71,91,-41,-122,33,122,-68,-67,84,85,101,33,92,97,33,-6, 
  /* [2][0][][] */ 57,45,-53,106,-12,-49,98,105,-108,98,-33,127,102,-8,95,-107,-47,-18,45,66,-91,-8,120,30,-21,91,119,18,-60,92,92,106,-65,-11,-85,-101,-78,98,117,-18,-115,-72,24,1,-77,124,-14,-71,114,43,102,-90,-39,69,32,27,-65,108,-66,5,-9,70,-27,81,105,57,60,98,-86,84,15,-66,45,-81,41,36,-49,-11,13,19,47,-91,0,-50,5,-93,-21,-34,98,121,-16,15,-36,-79,-43,-71, 
  /* [3][0][][] */ 70,-6,34,-29,-79,47,-122,35,50,17,61,0,90,94,70,1,101,94,-63,8,113,-94,-73,-124,-30,-121,-89,104,40,-107,83,3,-63,-42,-23,-20,-100,-31,37,45,-31,-100,-104,-5,70,24,-55,-92,65,-91,38,-5,92,24,87,-108,-124,-126,-126,-65,-104,31,-44,69,52,-40,-69,-38,-39,-76,-2,97,15,-114,51,-57,28,95,93,-69,-98,-127,32,91,26,40,-49,-125,-91,41,-6,-116,92,-101,-98,36, 
  /* [4][0][][] */ 47,98,-6,48,-35,-31,25,11,58,84,-14,52,21,-44,-19,-73,-33,-13,-74,6,103,-98,81,19,-26,-12,57,-67,-57,29,-75,-60,63,110,8,-111,-59,-12,-121,44,-57,-70,-80,-98,27,102,27,50,15,-49,-25,-83,-98,38,-94,14,29,-103,21,9,1,-82,-47,-76,-56,50,-6,-44,21,-108,-106,-92,-63,15,96,48,56,-32,-13,-65,-1,-52,-107,-21,-5,63,87,-3,-127,-82,39,40,24,95,-106,-22, 
  /* [5][0][][] */ 107,-85,87,93,49,-106,35,64,103,-108,1,-62,31,107,45,44,72,70,-64,108,39,58,24,-20,-101,-56,-6,-85,58,40,26,-92,-34,11,-61,26,-107,-35,55,30,-85,-46,50,104,-26,28,45,-45,-98,110,34,34,47,20,44,-15,114,59,-56,-39,39,-61,45,-64,-22,110,-18,37,84,14,109,-64,-40,75,-21,-66,15,-36,19,92,116,49,38,102,-78,88,-6,37,75,-95,127,98,-10,31,79,-84, 
  /* [6][0][][] */ 11,-48,106,68,-92,-70,-9,59,-18,-89,0,-94,80,48,110,-126,36,-2,-5,95,-85,-127,103,53,-67,-89,-14,-65,-35,-120,41,-84,-98,-127,-53,-113,-18,32,-117,77,82,50,15,-21,-119,102,-96,-52,-85,11,-34,-71,52,-58,89,-34,2,-14,-76,109,-102,-5,62,-80,-59,61,95,-55,72,-14,-114,-12,49,-77,-98,-49,-85,-108,-64,-37,26,-35,36,-32,-79,-92,-48,-101,77,87,89,10,-59,-71,69,-36, 
  /* [7][0][][] */ 127,80,-32,-39,-68,124,-13,7,122,10,-93,18,62,-85,53,86,58,25,8,125,63,40,3,90,-63,113,48,65,-74,117,-11,43,29,31,75,109,-102,98,-1,-27,108,-67,97,77,57,5,111,-107,62,-52,-106,-61,-18,93,26,34,127,-87,10,-55,15,-3,90,-108,-64,-52,77,30,-106,27,73,96,93,32,70,70,-61,65,-94,55,102,-33,-10,-73,96,45,-108,100,93,15,97,72,-52,-41,5,-61, 
  /* [8][0][][] */ 4,28,-54,-101,50,18,-83,-29,13,27,43,88,-7,-51,-97,-79,-82,87,-74,6,24,-31,78,101,-122,84,33,69,-80,9,-100,111,87,-42,38,-13,107,3,-26,61,80,100,-119,-127,-21,-31,-37,102,8,-97,-74,0,-72,-15,-40,-120,45,99,-94,107,106,33,35,101,-44,-56,-33,92,-97,38,28,-9,66,73,2,17,-54,93,78,68,28,76,-123,-75,23,36,80,-42,33,-43,-94,93,-91,-111,-49,65, 
  /* [9][0][][] */ -5,2,105,38,73,-114,-55,-127,34,42,-16,48,-34,-85,-109,-33,-1,-8,-106,-76,-4,91,-114,-110,108,-16,-20,18,-19,-68,-95,91,54,-7,19,-27,-83,8,-43,-52,39,-73,44,-99,74,15,-111,47,46,-19,-87,-56,65,-80,-76,95,77,-66,-18,-11,-94,98,76,-82,-93,-3,95,39,-48,90,100,-98,-1,74,-112,-102,-84,-125,-48,95,25,19,91,25,-50,-98,29,-19,90,24,-37,100,102,-8,52,-41, 
  /* [10][0][][] */ -52,87,100,-56,-7,115,113,35,31,40,25,-60,108,88,-23,18,-22,89,-88,-51,-11,34,61,-61,34,63,-103,-104,-38,89,-82,-72,89,108,127,81,-31,5,-25,43,-31,119,-102,-31,-87,-56,9,-52,10,4,46,9,69,25,-54,-26,-95,-5,26,-49,3,87,118,50,127,-65,-86,-14,32,-6,-88,-59,95,57,-75,113,-11,78,73,30,84,5,66,92,-97,73,98,-30,40,13,4,-60,-43,-44,-40,-70, 
  /* [11][0][][] */ 119,21,-6,113,127,57,62,43,102,101,-72,122,2,-77,37,-56,-43,-91,74,52,40,80,35,-102,-97,-86,-7,79,90,4,38,-10,-85,-63,62,54,-50,77,-17,-47,-19,112,-65,14,-33,-52,-81,-80,86,109,121,56,-81,-89,29,34,-61,-44,-24,-85,-68,97,93,20,40,97,-46,38,98,73,-78,-61,50,100,-91,60,-60,48,-33,97,-97,-18,-58,-45,50,-71,18,-29,-87,0,20,-92,-77,-26,-60,-39, 
  /* [12][0][][] */ 22,76,-47,10,98,19,-27,44,-82,70,-11,23,-36,20,59,-72,-88,-23,-38,-71,35,-4,24,106,-61,-40,113,-91,104,24,-25,126,-82,-61,-36,25,8,-73,-10,52,122,47,-103,-33,-12,-79,-29,126,-33,-112,-68,109,46,6,-73,95,-13,-49,52,70,68,124,4,65,124,43,-35,127,68,116,47,81,94,113,-8,2,-29,50,-109,-85,-50,111,58,8,-32,40,54,113,-88,-104,102,52,111,-8,35,75, 
  /* [13][0][][] */ 121,-55,114,108,104,126,90,75,70,-97,17,-22,100,81,76,-40,-113,-65,-63,37,77,-22,127,-44,-68,50,15,27,-81,-82,95,46,46,114,-13,45,-78,-26,36,77,-58,87,-43,18,-38,33,6,-25,39,110,-28,-106,-92,31,112,-77,-42,37,-21,-74,-21,127,-71,24,-45,-56,-86,96,-29,-1,104,7,-85,36,-69,-34,-106,76,93,-55,62,-93,109,18,-78,-100,98,115,-3,-47,-69,63,124,-50,75,-4, 
  /* [14][0][][] */ -59,-108,98,80,86,-23,-12,-112,-97,-32,66,89,-27,-84,-88,-86,-48,-68,15,32,-45,34,-3,70,-127,-68,-27,38,-109,-112,-75,42,109,-20,-29,12,106,120,40,-114,-3,-114,46,94,69,-127,73,-85,103,37,85,56,106,-23,-9,14,-47,15,45,89,-16,-79,-26,81,-89,-6,89,-104,-85,-81,-95,100,11,77,55,-70,54,-99,61,44,53,-23,-113,-51,-121,-102,-126,100,116,12,98,-50,96,112,-20,60, 
  /* [15][0][][] */ 8,-33,-37,65,84,-97,53,-104,60,-11,-77,3,98,-5,-100,-119,78,2,-100,15,42,12,67,98,77,60,30,86,12,48,58,-110,-4,-2,-73,-13,-75,111,105,-77,10,108,-56,-32,17,-84,-54,-87,-16,-87,-12,26,-107,-109,-58,-18,61,43,-51,105,-53,-76,-6,96,-44,89,-80,-5,-69,-5,57,-82,10,-12,52,-114,-9,45,100,72,-90,51,-116,-65,-127,-42,-97,35,80,66,-120,-50,47,103,-113,112, 
  /* [16][0][][] */ -88,-5,103,-78,36,111,-68,35,60,41,-120,67,-26,-62,-70,-72,104,77,68,60,114,78,-48,46,-39,50,-88,61,-123,4,33,4,-123,74,50,54,-49,60,-62,-88,21,-54,70,92,59,110,98,-21,-75,-126,-3,123,-53,122,63,38,23,86,80,14,119,109,29,58,49,4,-52,92,37,91,-41,-19,21,110,61,89,-18,92,-127,-23,6,-99,53,25,8,105,114,15,80,10,-24,113,66,-43,-97,32, 
  /* [17][0][][] */ 15,-105,14,62,-39,-96,-68,-84,10,-81,47,40,75,30,-99,31,40,46,82,96,-95,-31,-11,-40,2,47,-56,12,90,-38,-33,55,-49,-32,17,-5,-41,62,-89,-18,-94,-54,-21,-25,1,-9,69,-104,86,66,-18,4,-30,48,76,-75,-116,75,-95,-115,21,-83,52,73,-71,-65,39,-93,-95,6,71,11,8,-127,-72,44,81,-28,19,-65,-4,-32,-63,-100,-120,48,40,-50,-5,43,-92,-106,-16,70,-9,-15, 
  /* [18][0][][] */ -101,94,103,-76,-17,-116,-112,2,-12,74,-116,-48,-43,30,54,-65,14,-31,67,-31,94,-50,14,-86,21,-101,-24,105,22,28,-10,37,40,-34,-115,-113,-39,33,-42,57,-47,-9,-58,-16,-122,8,22,-10,14,-33,62,24,-118,-14,-4,81,-49,28,-22,-125,78,104,5,28,-77,-127,-38,84,62,-82,-78,101,-103,-24,-95,-113,48,52,-9,-80,-64,-14,-35,-73,99,-42,66,63,-117,-82,-68,100,85,-58,39,-15, 
  /* [19][0][][] */ 16,29,73,33,56,-90,95,89,97,-68,29,-12,-104,30,-63,60,73,-112,109,55,-26,77,-59,10,80,-87,26,-74,-100,-127,-70,45,78,-90,29,-8,6,-75,-62,-106,43,-123,-93,7,-92,31,73,-99,-28,34,-46,48,-40,11,4,-15,22,98,2,-27,56,-62,101,60,-77,-7,-33,-6,-14,48,75,-57,-70,-125,-62,-86,-23,-122,11,106,55,-123,-36,86,-92,-8,9,-4,89,29,-9,62,-39,114,73,-52, 
  /* [20][0][][] */ -17,68,64,89,-95,88,15,54,21,7,-89,0,-14,83,34,-79,-60,-44,-74,-40,18,-52,-82,-80,78,-81,-114,43,16,7,-47,111,99,39,-23,50,37,-34,-22,-116,-88,-39,-99,-109,-34,-67,-80,103,55,-127,-111,42,43,111,48,-7,91,68,104,91,110,-61,-74,-41,-36,-74,-59,9,-93,-89,-74,75,-71,-84,26,16,109,69,107,105,81,0,79,-17,58,115,-14,79,16,95,22,61,17,20,-9,6, 
  /* [21][0][][] */ 107,89,86,-104,111,-77,83,20,-4,-67,-75,32,10,47,-48,-90,-106,-26,37,-6,124,-48,84,-92,68,-86,-27,87,24,12,0,-22,8,28,-92,-117,127,106,-120,-39,-10,16,39,-11,-99,-84,-80,108,-20,-72,2,90,46,76,-98,31,-58,60,-53,127,65,-79,21,-7,97,40,-32,-70,-106,5,69,89,41,-23,83,78,-117,-21,76,121,21,109,45,-88,30,-95,68,-91,-106,91,124,-121,-47,-71,78,-32, 
  /* [22][0][][] */ 38,-47,-64,-90,92,-50,110,57,-96,90,-71,-114,117,-103,-106,-78,43,88,-105,-53,94,-68,37,31,95,3,-107,105,-51,-70,-58,-105,52,67,25,17,7,-14,-54,-113,5,-1,9,97,60,-112,97,-16,-58,-78,12,-16,-57,-86,-49,37,-11,-26,-23,-29,112,-72,-70,-107,-57,25,-109,-39,117,106,-20,4,-61,6,69,-85,48,-44,70,98,111,-95,-67,-127,80,91,97,-37,-48,38,-59,63,20,18,-24,96, 
  /* [23][0][][] */ 73,-86,13,67,108,-108,10,-98,52,-75,88,79,27,-104,29,-35,102,-25,-102,113,102,-79,111,-28,-13,-7,96,30,82,58,83,-33,-37,52,29,41,109,-9,-108,14,-107,6,19,-107,-63,-90,126,35,91,-113,-83,-54,91,-58,-47,99,-86,-12,100,46,-108,-87,-47,-3,44,47,-111,-105,73,-2,119,-67,2,-41,-32,-92,51,-8,103,127,-47,-50,33,-121,99,13,114,-26,-87,48,116,0,111,-51,-29,81, 
  /* [24][0][][] */ -66,-41,-91,-58,-73,-98,-62,-81,58,123,82,52,122,67,-27,-106,-66,52,36,-40,103,-72,-48,-28,54,-20,86,65,116,65,16,-55,2,18,59,35,-42,-86,68,-12,-73,-92,111,10,30,-32,55,77,-75,-44,-11,9,78,62,75,-62,-4,86,21,-1,97,3,43,102,-83,105,-34,-80,-88,68,-51,-17,-27,32,100,104,66,-58,-93,-73,-68,-90,-48,-127,3,69,-15,-104,32,-101,15,-67,-10,30,-87,22, 
  /* [25][0][][] */ -77,-52,-71,0,102,-64,-98,64,37,-105,-39,27,82,6,-100,-16,-61,70,45,-98,76,91,-6,-50,17,-44,-90,47,88,-79,50,123,96,-102,55,80,110,-65,-14,-9,-87,103,-95,10,108,44,79,44,-91,93,-63,-5,53,-18,-55,20,-23,63,-113,74,127,51,60,56,12,86,-7,0,-81,14,-20,-107,46,-121,80,28,77,90,23,29,59,53,-33,68,-72,-42,-108,-98,-17,-34,114,30,-112,-11,-18,-91, 
  /* [26][0][][] */ 49,-122,-27,-19,-106,-10,-15,-16,-100,-127,107,89,-85,-51,4,-19,108,24,-87,-74,10,69,98,9,50,59,6,43,6,0,-99,-6,-31,-67,-105,-110,-71,86,-54,106,-98,100,52,29,-79,71,-46,99,-30,27,-12,102,7,-52,-7,-112,97,59,58,25,-3,-100,60,-27,109,-25,-63,53,-94,73,88,94,78,-95,-91,5,43,-118,-100,6,-33,71,80,-67,80,-4,-38,16,-84,113,6,15,-61,111,48,90, 
  /* [27][0][][] */ 4,4,-71,-111,-127,-77,-77,-25,39,93,32,-109,-35,50,76,-35,59,-21,54,-90,-101,4,-33,-29,-112,39,-115,-9,58,21,-41,-16,55,63,-98,-95,-95,-72,-120,86,-102,12,22,14,96,19,61,98,88,61,54,-79,-97,-92,-13,-41,95,-30,-119,-84,-61,-67,-41,48,33,-54,-121,99,42,3,-124,1,55,-55,-15,-95,43,-71,84,97,79,-34,110,-57,-81,-90,-37,30,-56,-9,-43,-58,49,10,84,51, 
  /* [28][0][][] */ 87,2,83,45,-93,-53,-80,-59,-58,-86,60,72,-67,-72,4,90,74,101,-62,65,-28,20,-98,-63,-127,83,-75,-52,-64,-65,15,-13,-87,22,75,69,19,-99,-29,28,104,42,-98,51,-87,-15,19,36,13,-50,-75,-64,-68,15,52,35,62,-8,78,48,-33,-35,-97,14,59,73,-20,75,-67,27,-97,-24,68,13,-1,-90,-120,-64,-79,31,-57,-81,104,-62,54,-115,66,-94,-84,-65,-35,-45,-28,41,-111,-84, 
  /* [29][0][][] */ 48,52,52,-60,-97,6,-127,4,111,-22,-93,-100,105,-111,-57,-52,-109,101,25,-73,-80,-39,55,0,-35,2,-52,-34,-112,-13,102,-9,49,-5,-88,-64,-15,108,-13,92,48,107,-51,80,-7,108,-61,-30,12,-9,55,-95,71,-106,111,43,-99,52,-47,112,-125,93,-101,-58,-69,-72,48,86,92,-96,35,-78,110,85,58,23,116,-71,-34,30,-10,-92,-12,-72,64,118,50,84,-40,98,68,79,-113,12,-1,63, 
  /* [30][0][][] */ 30,-4,-23,42,-43,17,-23,7,111,4,40,-25,-62,31,59,50,-1,39,91,-47,63,-59,-49,39,-36,38,-44,112,8,-75,-55,15,-33,-36,-74,-16,29,34,15,17,92,-14,12,99,98,16,87,78,-54,86,41,-48,99,-1,9,85,-30,-35,-27,6,-50,10,-33,-5,-59,-49,-45,89,-32,82,55,2,-60,122,55,-25,-6,-35,-26,-22,48,44,-61,33,-61,68,-60,127,13,-42,82,56,-6,24,37,0, 
  /* [31][0][][] */ 76,-99,31,95,44,57,-66,-105,-33,-25,-85,-90,94,-127,-53,105,-68,-97,31,42,58,32,-37,100,38,-120,30,34,-79,-80,41,103,15,15,-98,-13,90,-37,-74,-117,55,-75,-37,27,0,-60,-47,19,67,21,87,-32,-122,-63,-87,19,-122,62,-3,109,-45,-8,80,-82,64,106,-51,-84,67,-126,-125,5,-103,-48,-2,0,-64,-55,44,85,-82,-47,50,69,52,91,-101,13,12,-58,-92,-60,8,99,-10,-30, 
};
const TfArray<4, int> tensor_dimension5 = { 4, { 32,1,1,96 } };
const TfArray<32, float> quant5_scale = { 32, { 0.0017759078182280064, 0.0018496137345209718, 0.0017826432595029473, 0.0017869725124910474, 0.0017807102994993329, 0.0018029231578111649, 0.0018053327221423388, 0.0017668002983555198, 0.0018017702968791127, 0.0018524008337408304, 0.0018540177261456847, 0.0018303431570529938, 0.0018109579104930162, 0.0017851133598014712, 0.0017689180094748735, 0.0018114966806024313, 0.00166001555044204, 0.0021517658606171608, 0.0018016995163634419, 0.0017455101478844881, 0.0017683184705674648, 0.0016912379069253802, 0.0018671448342502117, 0.0017818189226090908, 0.0018828008323907852, 0.0018144809873774648, 0.0018030219944193959, 0.0017997794784605503, 0.0020376199390739202, 0.0017521609552204609, 0.002503805560991168, 0.0018288696883246303, } };
const TfLiteAffineQuantization quant5 = { (TfLiteFloatArray*)&quant5_scale, (TfLiteIntArray*)&g0::quant4_zero, 0 };
const MODEL_SECTION(EI_MODEL_SECTION) ALIGN(16) int32_t tensor_data6[96] = { 1712, -169, 4455, 7902, 5755, -3600, 5666, -1799, -2869, -1246, 8029, -3465, 6861, 8539, 3343, 3136, -1060, -764, -2104, 7720, 2699, -1086, 3978, -916, -1955, 4534, 2366, 2452, 7747, 2945, 4568, 1776, 1664, 6195, 8033, 5422, -651, 4594, 3406, -6903, -474, 1716, -186, 1774, -2030, 542, -1813, 1048, -11177, 2239, 1599, -4600, 8708, -1255, 2652, 2031, 1195, 4337, -1158, -3356, 149, 3177, 497, 4707, 7478, 4103, 4259, 6590, 7094, -929, 3811, 6590, 4844, -1930, 6232, 7908, 915, -5518, 643, 1765, 11713, 2968, -825, -4195, 1506, 1049, 1940, -3096, 5473, -702, 5122, 1588, 152, -4323, -178, 2044, };
const TfArray<1, int> tensor_dimension6 = { 1, { 96 } };
const TfArray<96, float> quant6_scale = { 96, { 0.0001187868183478713, 0.00015728101425338537, 0.00012426941248122603, 9.7436219220981002e-05, 0.00011118509428342804, 0.0001160779720521532, 0.00010612679034238681, 0.00013720596325583756, 0.00013909884728491306, 0.00012802860874217004, 7.8079872764647007e-05, 0.00012714446347672492, 8.2678583567030728e-05, 7.056410686345771e-05, 9.6520430815871805e-05, 0.00012446993787307292, 0.00016682350542396307, 0.00014002322859596461, 0.00014316251326818019, 8.1173180660698563e-05, 0.00015963913756422698, 0.00012394993973430246, 9.334451169706881e-05, 0.00014528463361784816, 0.00012803421122953296, 0.00013108905113767833, 0.00012659800995606929, 0.0001353973348159343, 9.3916794867254794e-05, 0.00014706802903674543, 0.00011742112837964669, 0.00012685054389294237, 0.00016581628005951643, 9.5770927146077156e-05, 7.5273143011145294e-05, 9.270372538594529e-05, 0.00016221516125369817, 9.7975818789564073e-05, 0.00011727986566256732, 7.7098658948671073e-05, 0.00014383271627593786, 0.00012054528633598238, 0.00014348315016832203, 0.00014303196803666651, 0.00012168569082859904, 0.00011122546129627153, 0.00013073062291368842, 0.00012139188038418069, 6.4397892856504768e-05, 0.00012144725042162463, 0.00016345428593922406, 0.00010528173152124509, 8.6097876192070544e-05, 0.00013651553308591247, 0.00012350571341812611, 0.00012643486843444407, 0.00014441080566029996, 8.9443070464767516e-05, 0.00013003563799429685, 9.5055220299400389e-05, 0.00018052414816338569, 8.6083899077493697e-05, 0.00018575522699393332, 0.00014139723498374224, 9.2265028797555715e-05, 0.00011783908848883584, 9.1320296633057296e-05, 0.00011026982247130945, 9.5755276561249048e-05, 0.00013700731506105512, 0.00012837986287195235, 0.00010227703751297668, 9.4823706604074687e-05, 0.00011921003897441551, 0.00011189548968104646, 0.00010037346510216594, 0.00011072662164224312, 0.00011629422806436196, 0.00012721974053420126, 0.00011914991773664951, 7.1176451456267387e-05, 0.00010124889377038926, 0.00013155952910892665, 9.9997938377782702e-05, 0.00012908424832858145, 9.7627518698573112e-05, 0.00013348426728043705, 0.00012708090071100742, 0.00011225524940527976, 0.00014158322301227599, 0.0001194855067296885, 0.00013175663480069488, 0.00010687286703614518, 0.00010261094575980678, 0.00020773870346602052, 0.0001160100000561215, } };
const TfArray<96, int> quant6_zero = { 96, { 0,0,0,0,0,0,0,0,0,0,0,0,0,0,0,0,0,0,0,0,0,0,0,0,0,0,0,0,0,0,0,0,0,0,0,0,0,0,0,0,0,0,0,0,0,0,0,0,0,0,0,0,0,0,0,0,0,0,0,0,0,0,0,0,0,0,0,0,0,0,0,0,0,0,0,0,0,0,0,0,0,0,0,0,0,0,0,0,0,0,0,0,0,0,0,0 } };
const TfLiteAffineQuantization quant6 = { (TfLiteFloatArray*)&quant6_scale, (TfLiteIntArray*)&quant6_zero, 0 };
const MODEL_SECTION(EI_MODEL_SECTION) ALIGN(16) int8_t tensor_data7[96*1*1*16] = { 
  /* [0][0][][] */ -12,94,-81,30,41,-39,86,60,-54,8,37,-89,78,127,-67,15, 
  /* [1][0][][] */ -16,3,-53,-24,-11,40,21,-127,28,-52,-27,-55,-16,-46,-50,2, 
  /* [2][0][][] */ -18,-24,36,81,26,43,-110,127,-21,-2,68,-63,-25,-68,-40,60, 
  /* [3][0][][] */ 90,-101,76,-15,-9,-40,-39,127,-32,68,80,57,2,67,2,16, 
  /* [4][0][][] */ -43,-27,-13,35,-85,5,-28,-127,4,2,39,-10,44,48,95,107, 
  /* [5][0][][] */ 127,28,-22,-19,-83,30,23,75,10,-16,56,87,114,30,-80,-2, 
  /* [6][0][][] */ 13,-38,-69,-66,-85,-4,-3,-62,-53,-44,-18,41,104,62,127,-2, 
  /* [7][0][][] */ -54,40,-36,-87,-2,-61,-82,13,-111,54,-63,-65,-127,-34,20,93, 
  /* [8][0][][] */ 50,45,73,13,51,22,70,8,69,-26,39,4,-127,-25,-78,7, 
  /* [9][0][][] */ -35,68,32,-44,-29,-14,28,-10,-33,49,-42,19,45,127,29,26, 
  /* [10][0][][] */ 73,51,-48,62,-34,-21,63,-54,-76,-36,-61,-117,-127,-83,7,116, 
  /* [11][0][][] */ 49,1,54,1,-17,-35,0,100,-94,24,-23,7,-8,6,56,127, 
  /* [12][0][][] */ -65,-32,6,-8,22,-11,127,41,-63,44,17,-14,-3,103,-67,121, 
  /* [13][0][][] */ 4,46,22,42,107,40,116,105,-54,113,-60,-48,50,109,-127,-13, 
  /* [14][0][][] */ -119,122,-2,-22,-10,-4,56,-8,-39,38,127,-4,-87,28,-54,52, 
  /* [15][0][][] */ -9,-17,-127,-44,86,-37,-85,-32,-19,-26,-23,-72,-14,-86,-51,44, 
  /* [16][0][][] */ 120,-23,14,-7,37,-24,53,-22,-34,7,127,47,49,-2,-39,26, 
  /* [17][0][][] */ 18,15,-22,-92,-6,-60,121,-127,1,-29,-55,24,32,66,12,43, 
  /* [18][0][][] */ 32,127,-7,-44,66,-70,-26,-53,-34,126,-31,-1,-35,50,-7,-32, 
  /* [19][0][][] */ -76,-126,116,-99,32,-127,25,-44,45,55,104,110,40,-2,64,-22, 
  /* [20][0][][] */ -22,96,59,4,7,-8,24,-32,68,2,107,-25,-127,-26,-86,-13, 
  /* [21][0][][] */ -58,38,17,14,60,31,66,50,-127,49,-36,16,-17,19,-59,-22, 
  /* [22][0][][] */ 9,-91,43,8,10,-127,111,4,24,-38,-31,-72,52,-73,-62,-50, 
  /* [23][0][][] */ -55,-96,43,70,33,-14,20,-43,19,-39,83,4,1,76,88,127, 
  /* [24][0][][] */ 2,0,28,79,51,16,-54,-127,61,12,-46,13,-3,-1,-20,-27, 
  /* [25][0][][] */ -6,39,23,-41,-25,2,14,-25,-30,48,-51,-16,32,127,31,1, 
  /* [26][0][][] */ -74,81,2,20,27,-93,-6,-37,16,29,19,76,16,5,-92,127, 
  /* [27][0][][] */ -14,-127,-46,10,-60,91,-5,-58,21,-44,53,-35,25,-51,-99,-25, 
  /* [28][0][][] */ -36,-2,34,74,21,4,-37,-127,-110,51,105,-9,75,7,-46,-20, 
  /* [29][0][][] */ -127,105,-25,-32,-28,12,-115,-75,-41,-26,4,-4,14,-49,-114,59, 
  /* [30][0][][] */ 46,66,-50,69,-102,-97,-77,-25,-40,6,13,-103,127,37,-19,88, 
  /* [31][0][][] */ 127,30,-60,-33,-69,13,95,38,-63,-21,62,46,39,20,-22,9, 
  /* [32][0][][] */ -26,-24,127,5,-20,66,67,18,-21,-16,-15,16,2,63,62,34, 
  /* [33][0][][] */ 0,28,-55,-46,-29,25,117,29,-7,-10,22,-69,89,127,-52,45, 
  /* [34][0][][] */ -92,-27,98,21,23,-67,112,-15,-127,37,40,-47,62,56,-63,-31, 
  /* [35][0][][] */ -8,11,-54,8,-75,111,-32,-25,-16,127,12,88,-56,73,13,41, 
  /* [36][0][][] */ -10,-79,127,-48,-51,18,-41,-11,15,23,-50,80,0,-86,-37,44, 
  /* [37][0][][] */ 104,-12,89,-30,126,-79,-58,39,-64,127,-81,-5,-113,-50,125,-33, 
  /* [38][0][][] */ 41,58,12,-123,-21,-67,-120,72,-113,71,-93,-48,-82,-127,-126,82, 
  /* [39][0][][] */ -77,23,-56,-27,-82,-77,70,17,-127,-39,19,80,32,1,-2,48, 
  /* [40][0][][] */ 127,33,11,-76,-59,26,18,-39,-26,-38,-59,-79,2,36,43,21, 
  /* [41][0][][] */ 93,-72,-55,-44,-11,-4,-59,-20,57,-18,6,-58,127,-68,56,-36, 
  /* [42][0][][] */ -17,-90,-37,127,5,-96,-101,20,14,7,1,46,-83,68,-57,-5, 
  /* [43][0][][] */ -79,-43,-44,-108,-56,4,-3,76,41,-127,-48,26,-28,-52,-23,80, 
  /* [44][0][][] */ -37,52,41,-32,-25,-9,33,127,111,-87,72,108,111,44,-17,-9, 
  /* [45][0][][] */ 34,76,-69,91,127,-85,-39,-59,99,-75,59,-67,-34,8,-65,55, 
  /* [46][0][][] */ -28,-42,7,-12,86,-26,30,16,-3,127,-20,-115,38,62,-53,78, 
  /* [47][0][][] */ 85,-40,-29,-11,84,-16,-44,-65,-4,127,-34,32,-13,-108,-78,10, 
  /* [48][0][][] */ 13,29,-11,-127,-7,-52,115,-116,4,7,-41,46,52,67,6,36, 
  /* [49][0][][] */ -30,127,-73,29,43,-51,63,61,-31,24,50,-84,-26,83,110,-91, 
  /* [50][0][][] */ 8,42,-20,0,-127,0,-69,-59,51,75,35,34,-35,-37,-2,34, 
  /* [51][0][][] */ 127,-35,-53,-14,-49,90,-97,-42,43,-10,-37,76,-25,-61,4,43, 
  /* [52][0][][] */ -34,-61,47,67,-51,-119,-127,-21,-43,-43,-13,-59,30,-69,0,99, 
  /* [53][0][][] */ 19,96,56,-127,1,105,86,-21,-8,-16,-4,-33,93,-107,2,59, 
  /* [54][0][][] */ 37,127,12,-13,-4,-86,-104,55,3,-30,-48,119,73,83,26,57, 
  /* [55][0][][] */ -47,-19,47,17,46,-42,99,76,-69,3,26,13,127,47,-14,4, 
  /* [56][0][][] */ 127,21,17,23,-42,106,-54,-72,-25,40,-85,3,-57,93,-6,35, 
  /* [57][0][][] */ -48,-39,-43,-41,-74,-114,60,-33,-127,-26,60,50,27,37,-15,52, 
  /* [58][0][][] */ 46,-57,64,21,2,-68,-18,4,33,-9,-127,-26,32,-32,-43,51, 
  /* [59][0][][] */ 81,13,-127,102,5,33,86,-34,-73,-52,27,-109,-116,-64,27,109, 
  /* [60][0][][] */ 3,34,-9,22,-16,-28,-22,4,-36,-76,56,116,-39,-127,-32,-8, 
  /* [61][0][][] */ -36,16,79,-114,-78,50,-9,119,-21,-99,68,76,107,4,4,127, 
  /* [62][0][][] */ 71,45,-12,-127,-26,0,10,-38,-8,38,-28,49,31,-14,-94,-65, 
  /* [63][0][][] */ -3,-30,-1,-9,-61,-72,-58,1,-69,-4,-23,-14,127,7,42,-7, 
  /* [64][0][][] */ 19,-1,-17,47,-99,-41,-18,-79,47,127,42,6,48,-38,-51,107, 
  /* [65][0][][] */ -34,6,-19,-20,-74,62,19,-30,53,-101,101,-60,78,67,-127,56, 
  /* [66][0][][] */ -118,101,-89,-81,38,-30,-117,-58,-109,111,88,5,-127,-55,51,54, 
  /* [67][0][][] */ 8,-29,-127,-112,61,72,5,-25,-31,-6,50,-20,24,41,21,47, 
  /* [68][0][][] */ 48,20,-13,-46,-63,32,12,31,-57,74,127,-11,-6,-39,-120,-6, 
  /* [69][0][][] */ 74,-101,51,-54,16,-113,-36,127,-3,63,88,81,-13,79,-33,-2, 
  /* [70][0][][] */ 39,2,111,35,92,-22,127,6,39,34,-54,41,-60,67,-82,40, 
  /* [71][0][][] */ 14,36,101,-72,-127,-75,18,14,-25,-18,15,-108,-85,-1,17,29, 
  /* [72][0][][] */ -63,-103,29,-124,75,-16,2,49,-74,18,-127,-19,59,126,-66,123, 
  /* [73][0][][] */ 19,20,44,-8,123,-101,-53,-1,-37,102,-83,38,-85,-55,127,-18, 
  /* [74][0][][] */ -94,-2,-115,-59,67,-47,-42,20,-80,-2,-127,-42,-42,-64,-32,68, 
  /* [75][0][][] */ 83,-22,47,-45,11,-1,-127,-24,-10,-87,69,3,4,-9,-9,-8, 
  /* [76][0][][] */ 7,-57,-30,112,40,88,99,-62,72,-127,64,112,33,-87,-64,39, 
  /* [77][0][][] */ -34,-33,127,-22,30,-36,-31,-107,17,19,29,78,44,48,21,-1, 
  /* [78][0][][] */ -45,-2,18,-32,1,-57,29,-7,24,-10,13,-95,-105,-72,-127,-54, 
  /* [79][0][][] */ -112,-80,-24,24,127,23,-24,8,35,37,-11,48,-37,-81,-83,-21, 
  /* [80][0][][] */ 15,-110,50,127,-30,-28,-102,80,0,12,54,-7,-86,-15,-7,51, 
  /* [81][0][][] */ 112,67,-24,77,-4,39,23,127,22,20,127,67,125,38,57,-18, 
  /* [82][0][][] */ -48,4,20,-32,33,-127,-112,-87,-1,79,-49,-40,-23,104,-70,-21, 
  /* [83][0][][] */ 112,-20,86,-30,-34,-7,-126,-11,25,-127,4,-57,-16,-10,12,-22, 
  /* [84][0][][] */ 21,-65,-88,35,127,34,40,34,-114,16,-112,-30,39,-33,-65,8, 
  /* [85][0][][] */ 20,99,50,-43,110,0,41,-122,127,-49,34,-21,91,-81,15,-3, 
  /* [86][0][][] */ 118,-36,127,57,-11,-61,75,38,-58,-47,-91,-47,36,18,-67,9, 
  /* [87][0][][] */ -2,11,22,-76,80,-26,-47,13,37,-39,69,-42,-91,-127,-1,19, 
  /* [88][0][][] */ -58,-32,36,-5,23,26,-65,-48,-3,9,-71,-127,-49,-42,-19,-16, 
  /* [89][0][][] */ -68,11,25,-63,30,4,-127,22,83,21,-73,-13,-18,-80,-40,-25, 
  /* [90][0][][] */ -19,-23,-36,-92,127,14,-59,38,45,64,39,-8,43,22,-79,-13, 
  /* [91][0][][] */ -36,-59,24,61,-48,-14,3,80,-40,-73,14,-57,-10,50,34,127, 
  /* [92][0][][] */ -26,68,-2,-15,-20,52,-93,43,-42,-12,65,-1,-32,127,42,28, 
  /* [93][0][][] */ -3,77,-46,-70,65,85,-83,7,60,60,69,53,-127,26,-35,77, 
  /* [94][0][][] */ 19,73,95,5,-127,-36,12,-10,19,-12,33,-15,-50,-12,11,-26, 
  /* [95][0][][] */ 5,24,54,9,127,-15,-87,67,22,10,-97,84,-15,3,106,-50, 
};
const TfArray<4, int> tensor_dimension7 = { 4, { 96,1,1,16 } };
const TfArray<96, float> quant7_scale = { 96, { 0.0017707429360598326, 0.0023445719853043556, 0.0018524713814258575, 0.0014524717116728425, 0.0016574248438701034, 0.001730362419039011, 0.0015820212429389358, 0.0020453152246773243, 0.0020735322032123804, 0.0019085092935711145, 0.001163928653113544, 0.0018953295657411218, 0.0012324812123551965, 0.0010518919443711638, 0.0014388201525434852, 0.0018554605776444077, 0.0024868210311979055, 0.002087312052026391, 0.0021341089159250259, 0.0012100402964279056, 0.0023797242902219296, 0.0018477090634405613, 0.0013914770679548383, 0.0021657431498169899, 0.0019085929961875081, 0.0019541310612112284, 0.0018871835200116038, 0.0020183541346341372, 0.0014000080991536379, 0.0021923279855400324, 0.0017503848066553473, 0.0018909481586888433, 0.0024718062486499548, 0.0014276474248617887, 0.0011220891028642654, 0.0013819249579682946, 0.0024181248154491186, 0.0014605155447497964, 0.0017482789698988199, 0.0011493018828332424, 0.0021440996788442135, 0.0017969562904909253, 0.0021388886962085962, 0.0021321629174053669, 0.0018139561871066689, 0.0016580265946686268, 0.0019487880636006594, 0.001809576409868896, 0.00095997279277071357, 0.001810401794500649, 0.0024365964345633984, 0.001569424057379365, 0.001283452264033258, 0.0020350231789052486, 0.0018410871271044016, 0.0018847516039386392, 0.0021527172066271305, 0.0013333187671378255, 0.001938427914865315, 0.0014169784262776375, 0.0026910549495369196, 0.0012832438806071877, 0.0027690341230481863, 0.0021077941637486219, 0.0013753853272646666, 0.0017566152382642031, 0.0013613023329526186, 0.0016437809681519866, 0.0014274141285568476, 0.0020423540845513344, 0.0019137455383315682, 0.0015246333787217736, 0.001413527294062078, 0.0017770518315955997, 0.0016680146800354123, 0.0014962570276111364, 0.0016505904495716095, 0.0017335861921310425, 0.0018964516930282116, 0.0017761556664481759, 0.0010610200697556138, 0.0015093069523572922, 0.0019611443858593702, 0.0014906590804457664, 0.0019242456182837486, 0.0014553234213963151, 0.0019898363389074802, 0.0018943819450214505, 0.0016733775846660137, 0.0021105667110532522, 0.0017811582656577229, 0.0019640827085822821, 0.0015931428642943501, 0.001529610832221806, 0.0030967395287007093, 0.0017293492564931512, } };
const TfLiteAffineQuantization quant7 = { (TfLiteFloatArray*)&quant7_scale, (TfLiteIntArray*)&g0::quant6_zero, 0 };
const MODEL_SECTION(EI_MODEL_SECTION) ALIGN(16) int32_t tensor_data8[16] = { 11199, 15679, -3242, 4420, 381, 5822, 1230, 2692, 17983, -4898, -9070, 10074, -17228, 12455, 3215, 9740, };
const TfArray<1, int> tensor_dimension8 = { 1, { 16 } };
const TfArray<16, float> quant8_scale = { 16, { 4.5415297790896147e-05, 7.2555660153739154e-05, 4.8143498133867979e-05, 6.0826212575193495e-05, 6.8020694016013294e-05, 7.9213088611140847e-05, 5.1198538130847737e-05, 4.8493438953300938e-05, 9.5284878625534475e-05, 6.6432119638193399e-05, 5.4119362175697461e-05, 5.021116157877259e-05, 6.4535379351582378e-05, 6.6684151533991098e-05, 8.7940177763812244e-05, 5.8883226301986724e-05, } };
const TfArray<16, int> quant8_zero = { 16, { 0,0,0,0,0,0,0,0,0,0,0,0,0,0,0,0 } };
const TfLiteAffineQuantization quant8 = { (TfLiteFloatArray*)&quant8_scale, (TfLiteIntArray*)&quant8_zero, 0 };
const MODEL_SECTION(EI_MODEL_SECTION) ALIGN(16) int8_t tensor_data9[16*1*1*96] = { 
  /* [0][0][][] */ -110,53,60,-33,-66,-15,-67,-7,-49,18,-2,-30,40,45,36,-36,21,-3,96,18,21,-66,116,81,52,30,15,35,-62,-127,-98,8,-39,-45,38,28,3,36,-7,39,-24,7,-81,19,-68,-21,-6,96,-11,21,-45,-12,-1,-7,35,-66,-108,3,-25,87,48,29,5,7,-25,-66,-49,29,-49,-60,0,-9,-5,-8,-77,-54,-38,19,-54,0,-53,81,101,-83,7,60,13,56,42,-1,-10,-29,-44,-39,-68,16, 
  /* [1][0][][] */ 43,22,27,-54,-59,-22,0,7,-10,25,57,-57,4,-16,-63,-31,-9,-4,-67,36,-8,-85,9,57,-9,-65,3,-38,70,-107,104,-72,58,28,-19,56,33,80,-12,-34,22,21,-1,-9,9,55,-127,-44,-50,-53,-15,-26,38,-54,-37,37,12,1,-38,16,19,52,-4,-94,-10,-17,-59,-10,19,-6,-92,2,-48,-21,23,-82,8,19,25,-73,-26,-21,-88,-35,28,-42,-16,23,-75,-2,-56,39,12,61,-61,55, 
  /* [2][0][][] */ 78,-48,25,27,12,-80,64,7,-15,-17,-19,-17,-83,-32,13,-31,-101,-45,-33,49,-1,-48,-45,34,-3,-76,1,-28,-32,52,-58,123,-61,127,-32,18,-7,-26,-19,-17,-97,72,67,15,-63,3,-17,-13,33,-1,-32,-54,46,-14,-30,71,35,-2,54,-11,13,40,-39,5,74,9,-10,-5,23,50,-41,-2,51,47,65,36,36,-81,77,54,82,-22,-49,32,-52,30,17,66,7,2,-29,38,-42,50,-12,40, 
  /* [3][0][][] */ -2,-9,-17,10,8,-15,6,-68,-24,57,40,55,25,-5,-57,37,10,-30,32,8,14,127,27,-43,7,22,-24,0,66,-33,61,-18,-20,28,-29,-30,14,47,38,7,-83,-32,-46,33,-24,37,21,-7,-17,-47,-8,-31,51,-84,-37,-54,7,83,-28,-9,-10,-9,-37,-2,29,41,-42,3,-22,-2,13,-73,-39,-42,31,-7,13,-11,-38,-36,-32,-10,-58,14,-10,-38,31,-32,3,29,34,-24,51,17,-33,66, 
  /* [4][0][][] */ 34,13,-43,14,33,14,-46,5,-26,82,97,-13,-18,3,5,-47,9,-2,-34,44,24,-56,43,83,-74,5,-127,18,-48,-60,6,17,-58,-42,17,63,7,50,17,35,-40,-40,37,-28,-4,7,-36,53,-37,59,21,24,35,-8,-74,17,47,-24,1,-8,42,-10,29,19,-37,6,-30,12,-46,36,-55,50,33,-61,-34,-51,34,-54,-15,14,-45,91,-72,2,-29,33,31,-53,54,16,21,13,-58,-33,32,28, 
  /* [5][0][][] */ -80,45,56,-14,57,-14,66,-37,-13,30,-1,-30,40,-27,-16,-41,-4,-37,59,29,-107,-25,-82,44,-37,-8,50,22,43,-67,-11,48,57,115,-4,33,-10,35,39,-17,-26,100,80,-27,3,56,42,6,-3,16,-22,29,13,-41,34,-89,35,-50,-57,-55,50,84,-39,-14,73,-37,-64,-69,-44,-17,-63,-9,-26,15,-19,-52,31,-29,-36,-22,127,-17,31,-84,-90,28,25,-6,-48,49,21,-13,-26,24,4,82, 
  /* [6][0][][] */ 39,-18,-77,37,-41,-122,99,88,-65,65,-23,73,-127,-73,65,62,-3,-47,0,4,-11,-10,-63,-60,-64,37,73,26,34,38,89,-66,21,10,11,-80,21,-2,32,66,7,11,-69,-34,-1,-62,-72,21,33,-124,-20,71,30,13,-21,-64,70,44,14,-10,-107,43,-91,-3,29,-4,-2,58,36,21,-1,-49,-38,24,100,35,68,-31,41,-69,-5,-61,-86,72,12,-65,46,12,-44,63,33,39,-16,9,-27,120, 
  /* [7][0][][] */ 38,96,-41,-64,-13,-9,37,15,-58,41,-52,-65,-36,14,17,-7,-51,-43,-34,66,-6,127,10,38,-3,2,27,34,64,50,83,-32,74,37,-25,20,8,-2,-4,32,-68,-2,14,-57,22,-53,77,-23,51,-82,-84,-23,-50,10,9,-10,32,11,-120,15,-7,114,22,-20,-17,1,-52,18,-39,-16,-121,42,4,71,-34,42,-57,62,4,-76,-15,-53,74,-85,41,-21,-14,2,-9,85,-94,52,47,-37,-51,12, 
  /* [8][0][][] */ -2,87,-47,38,-31,-33,-80,21,-88,-26,12,2,-40,31,26,89,7,-45,2,13,40,-12,-6,-6,-33,76,1,23,-12,-21,-45,-28,-17,-49,-29,-64,-49,35,48,12,-11,-30,25,18,-32,-30,0,-16,-18,-12,50,71,1,-28,-69,92,-36,33,-13,-41,-46,10,26,58,-28,-69,-40,-10,-38,16,-6,6,-29,-46,-112,-17,-47,30,-73,-44,-25,6,-35,-38,-6,5,28,33,15,75,-53,-8,-94,-127,17,-44, 
  /* [9][0][][] */ -21,12,-69,48,-38,-27,62,60,-16,40,-29,92,-28,-21,29,127,6,15,76,11,12,22,44,-96,-32,-7,20,-7,8,-14,42,48,-34,1,-2,-120,31,-26,-25,-24,-7,14,39,-30,-15,1,22,17,30,80,28,-6,-58,-71,-4,6,-2,-13,77,-17,-56,54,-68,-26,77,-4,-25,8,-74,19,45,32,1,84,-28,-25,-27,16,-32,-5,49,-36,57,3,33,-17,-17,-37,-61,9,-3,4,69,33,-40,-5, 
  /* [10][0][][] */ 63,-6,-38,0,-35,-21,60,8,2,-32,-26,-9,-84,-17,10,-5,-72,-33,25,14,28,42,33,-2,-40,74,32,-6,-51,-70,-28,-13,65,-39,38,5,78,-92,79,113,26,-61,7,-3,-26,-90,-4,60,22,76,-71,-43,-23,31,10,59,18,-55,83,51,1,46,-66,-22,-13,-46,17,48,9,-34,-3,32,127,36,20,-79,21,-49,65,-6,-45,23,27,25,-33,-14,2,37,-46,-25,25,52,51,62,-26,4, 
  /* [11][0][][] */ -51,-39,38,-73,14,-1,-33,-37,49,-48,0,-4,-6,-6,6,10,-71,0,62,9,-59,21,-71,-86,24,18,-53,49,33,-61,40,-36,16,2,16,-17,-73,5,-127,11,-66,57,-48,57,13,13,-4,-41,19,-46,-65,-51,24,28,87,-63,-27,-74,8,-46,-28,-59,-33,-126,-5,-56,62,75,115,13,82,-17,-36,-21,69,-43,102,45,23,55,34,-9,-19,86,86,5,-11,-28,-86,-77,-20,35,55,48,53,67, 
  /* [12][0][][] */ 39,-36,0,-35,27,127,-18,44,39,53,-8,61,18,48,23,4,-74,48,20,51,124,10,88,-82,34,20,-85,-78,-27,87,8,5,28,-9,2,-49,62,-18,-31,-46,37,-31,44,49,-30,36,10,-7,-79,22,-2,21,-28,-18,8,30,-42,70,24,57,44,-97,4,-115,-18,112,-15,-42,-15,-61,81,1,7,15,-12,56,-15,49,-66,-6,-25,24,122,24,-5,73,-33,-78,74,-10,-91,58,85,9,-10,-107, 
  /* [13][0][][] */ -15,24,-13,-41,-40,-4,0,-28,3,-45,-40,-76,56,-108,-35,-70,-23,-34,-79,-22,-103,-23,33,99,-31,1,104,8,20,-34,58,44,6,1,-126,117,-18,-63,26,-65,127,4,-8,15,-8,-95,66,-28,72,-16,-44,28,21,6,-8,80,70,-53,-29,-7,63,46,-8,-91,-15,42,-41,36,-79,-46,-69,-5,-48,20,-45,-88,-108,16,53,86,-18,53,29,-85,62,35,29,-18,-23,-28,-14,22,-54,19,-16,-11, 
  /* [14][0][][] */ -5,34,-72,-30,90,86,-83,-10,37,-36,85,-15,21,-25,-38,-66,-61,18,34,127,18,-29,-15,16,4,31,-24,69,12,-3,-24,11,66,-4,-33,5,-25,68,63,13,47,8,35,14,1,-40,49,-33,29,-5,-7,-16,51,6,-30,20,13,58,-97,-8,-27,-66,-35,-96,18,-43,-46,3,-64,59,-26,39,-12,-32,-24,-38,44,-10,-62,-37,32,10,7,-20,-16,45,-17,-23,-28,74,65,14,-7,-41,-49,-62, 
  /* [15][0][][] */ -80,-55,38,-61,14,-16,-36,-91,-16,6,-11,77,0,-28,37,96,-119,-33,19,-79,20,-18,6,-99,55,-9,48,-63,-75,-113,-69,39,-45,60,84,-109,-4,-51,35,-35,-5,-9,38,-25,-12,-3,78,110,-61,-12,10,-53,-52,66,10,-46,-107,-13,127,16,-16,25,-109,27,-82,1,3,20,47,-89,106,-35,81,-30,-37,-38,-3,23,70,12,-20,75,53,39,1,-23,-123,6,-14,-77,-74,29,54,-36,-18,63, 
};
const TfArray<4, int> tensor_dimension9 = { 4, { 16,1,1,96 } };
const TfArray<16, float> quant9_scale = { 16, { 0.0020579204428941011, 0.0032877419143915176, 0.0021815444342792034, 0.0027562410105019808, 0.0030822472181171179, 0.003589412197470665, 0.0023199785500764847, 0.0021974013652652502, 0.0043176794424653053, 0.003010263666510582, 0.0024523308966308832, 0.0022752371151000261, 0.0029243158642202616, 0.0030216837767511606, 0.0039848661981523037, 0.0026681977324187756, } };
const TfLiteAffineQuantization quant9 = { (TfLiteFloatArray*)&quant9_scale, (TfLiteIntArray*)&g0::quant8_zero, 0 };
const MODEL_SECTION(EI_MODEL_SECTION) ALIGN(16) int32_t tensor_data10[96] = { 369, 982, -2992, -4362, 881, 2467, -1874, -188, -568, -1513, 8009, -1616, -43, 10504, 8177, -5294, 16158, 2232, -4668, 180, 1524, -2614, 1682, -715, 467, -3741, -1000, -3705, -201, -7051, -1580, 21, 10733, 250, -849, -208, -1317, -1890, -698, 7005, -438, -204, 557, -5780, 11142, 13314, 852, 12537, -1687, 10310, 13105, -3010, -595, 1838, 105, 9344, -176, 1283, 13645, 4755, 6387, 11387, 9417, -6921, -670, 222, -2277, 2209, -3387, -1518, 173, 3293, 10472, 526, -1038, 8873, -844, -494, 9590, -1272, -809, 13127, -281, 838, 19091, 1048, -3706, -2877, 1715, -5690, 13484, 897, -1646, -41, -4855, -3293, };
const TfArray<96, float> quant10_scale = { 96, { 0.00022568747226614505, 0.00023071991745382547, 0.00014357225154526532, 0.0002026714792009443, 0.00025016404106281698, 0.00027729032444767654, 0.00028453578124754131, 0.00019488994439598173, 0.00028286827728152275, 0.00015833310317248106, 0.00015850791533011943, 0.00044554239138960838, 0.00025071762502193451, 0.00015189188707154244, 0.00013947245315648615, 0.00015569977404084057, 0.00011455936328275129, 0.00022616726346313953, 0.00018300562805961818, 0.00015459147107321769, 0.00016187573783099651, 0.00030967697966843843, 0.00026773670106194913, 0.00024355792265851051, 0.00059954466996714473, 0.00019607986905612051, 0.00024373378255404532, 0.00017622268933337182, 0.00022179131337907165, 0.00011365688988007605, 0.00031434543780051172, 0.00022862190962769091, 0.00016643737035337836, 0.00019260487169958651, 0.0002554801176302135, 0.00035883500822819769, 0.00019143053214065731, 0.000316975376335904, 0.00029331125551834702, 0.00016978899657260627, 0.00022368929057847708, 0.000229030498303473, 0.00023744362988509238, 0.00012157675519119948, 0.00012397643877193332, 0.00011645386985037476, 0.00022078062465880066, 0.00012215375318191946, 0.00018934627587441355, 0.0001291886146645993, 0.00012553078704513609, 0.00015815037477295846, 0.0002571506192907691, 0.00014578571426682174, 0.00023678057186771184, 0.00017189585196319968, 0.00018662720685824752, 0.00019234370847698301, 0.00017517476226203144, 0.00012239543139003217, 0.0001977644715225324, 0.00017983904399443418, 0.00013477566244546324, 0.00014653199468739331, 0.0001893143926281482, 0.00027304270770400763, 0.00026496624923311174, 0.0002002067631110549, 0.00022574492322746664, 0.00024524336913600564, 0.000303635373711586, 0.00015768855519127101, 0.00014568872575182468, 0.00022664159769192338, 0.0002567318151704967, 0.00015769866877235472, 0.00019356123812031001, 0.00022717563842888921, 0.00014546875900123268, 0.0002755474706646055, 0.00026311745750717819, 0.0001193385905935429, 0.00021855033992324024, 0.00017473005573265254, 7.5199372076895088e-05, 0.00018962875765282661, 0.0001396438165102154, 0.00023659180442336947, 0.00019798737776000053, 0.00016267609316855669, 0.00010636961087584496, 0.00030402917764149606, 0.00023245075135491788, 0.00026562195853330195, 0.00013586287968792021, 0.00033136049751192331, } };
const TfLiteAffineQuantization quant10 = { (TfLiteFloatArray*)&quant10_scale, (TfLiteIntArray*)&g0::quant6_zero, 0 };
const MODEL_SECTION(EI_MODEL_SECTION) ALIGN(16) int8_t tensor_data11[1*3*3*96] = { 
  /* [0][0][][] */ 27,99,1,23,-41,0,42,47,60,-77,-81,25,-11,-16,34,-49,-123,20,15,15,33,67,89,70,16,-12,-55,3,-25,22,25,-11,-55,3,-34,91,7,59,9,-1,23,-34,-8,27,-101,-45,9,-37,-19,-56,-33,-5,49,73,-22,-11,-82,-84,-54,-127,-127,5,-127,-7,-22,51,43,-16,-27,16,28,-18,-26,20,42,-1,13,-33,-67,20,1,-64,74,-17,-105,-43,-13,18,-127,3,-92,26,78,-12,67,2, -46,-50,0,76,-12,91,-14,-6,52,35,-127,64,-36,-58,-114,127,-113,58,49,85,117,18,81,127,38,15,10,38,8,127,-3,-127,75,79,6,55,95,127,-15,-127,127,-12,98,127,-53,-101,127,-70,-3,-106,-127,-28,2,127,-11,-127,1,25,-114,-67,-38,-127,-61,95,-28,72,127,-22,1,127,127,-4,-36,22,-36,-87,16,-65,-27,127,-2,-64,127,-71,-109,-43,127,75,104,127,-108,-3,127,-38,127,24, 9,-108,-5,11,-23,-12,-7,46,21,47,-28,-4,-18,27,-5,-63,-44,7,2,1,23,57,48,84,15,-39,34,34,1,38,-5,-56,-52,-71,-37,63,11,13,13,25,-13,33,-21,61,-27,-31,4,-11,24,-44,31,5,11,-5,4,-3,42,-103,-6,-76,-86,23,-87,-9,44,8,-55,-18,-16,-17,-4,-2,3,-44,-5,14,8,-4,-89,-8,10,-76,23,-5,5,-39,11,-17,-100,21,-30,28,27,30,15,-5, 
  /* [0][1][][] */ 96,2,66,127,-6,-48,127,43,-30,-127,-67,127,0,-127,-56,36,-64,-44,72,42,-125,2,-127,-82,-16,58,-127,127,-72,73,127,73,33,52,6,127,-127,75,-18,-50,57,-127,21,77,-127,-70,-5,-127,-111,-81,-118,5,127,-73,80,-30,-127,-4,-74,8,-54,-77,-47,43,-90,-12,86,-92,-37,28,-45,-127,-127,54,127,-69,90,76,-127,-37,127,-127,-29,112,-64,-17,-5,87,-16,-8,-81,27,-7,-80,90,-16, -127,15,-57,121,-83,-127,-105,-127,58,16,-11,46,-93,-92,-52,118,-127,-127,127,127,26,-127,-125,93,-127,127,19,73,-60,-39,-97,75,-127,66,127,-49,22,124,127,-98,-42,22,22,56,-48,-127,-86,-99,2,-127,-120,127,35,82,42,-83,15,28,83,-26,-17,-38,-123,127,-5,-127,73,127,26,51,-76,-76,-31,45,-115,-127,127,127,103,-47,-80,-4,-105,70,-109,-92,125,127,118,121,-127,-127,-89,-57,92,127, 49,-15,88,72,-3,-14,10,32,-40,95,-57,73,7,-18,-127,77,35,-30,21,1,-127,12,-99,-85,-8,19,118,2,127,99,18,-116,-50,-127,-24,120,-122,-7,-36,-47,-12,88,21,123,-22,-21,-20,-71,127,-77,-88,4,41,-120,-127,32,94,-4,-127,93,-12,-50,4,56,127,-42,-30,-14,-51,8,-33,-50,-101,-127,3,-41,1,-14,-125,-44,-62,-115,-33,127,-127,12,-14,-7,-42,-43,-10,36,-22,127,24,-8, 
  /* [0][2][][] */ 33,-127,37,-20,7,14,37,49,-25,-56,6,-35,18,-19,5,36,-32,16,-4,20,-21,51,23,-53,27,50,2,-3,-22,14,6,8,-19,-14,-28,26,55,-14,-2,-36,2,28,-7,-43,-9,-18,-22,-13,-10,36,-35,28,-3,-22,-29,-11,-8,-12,-15,53,-55,4,34,-17,-21,53,-68,-24,32,-11,19,64,-54,21,22,11,-31,-30,-27,11,11,-14,-5,-22,-98,33,-50,-20,-95,100,-3,26,-2,5,5,-13, -45,14,127,1,127,63,-21,14,-127,24,-67,-21,127,-26,-68,47,2,43,-2,-60,10,25,62,-25,70,-55,-1,15,-11,94,-12,23,-74,30,8,-7,83,87,18,-84,-18,0,-127,24,-6,-24,-40,-59,0,-61,-41,69,74,-92,-33,-74,-11,127,-64,39,72,-117,88,53,-16,31,-55,14,127,-7,25,78,-94,16,-21,-55,-25,-78,-91,-25,-6,-67,-40,-51,-114,127,16,-16,88,112,41,33,-17,-13,5,-3, 12,85,19,-25,4,-3,-12,51,14,57,20,8,9,-7,4,37,-28,7,4,38,-19,46,-8,-51,13,34,16,21,19,14,-17,-71,-53,-21,-24,-14,32,-37,-5,-13,-6,-9,14,18,-38,-23,-11,14,24,47,-16,2,-21,-41,10,15,-1,3,-6,84,-48,3,38,-27,38,17,-67,15,24,7,13,62,22,-21,2,5,-23,-4,-12,15,1,-51,-14,1,-51,19,-48,-37,-86,102,7,18,-12,23,-16,-11, 
};
const TfArray<4, int> tensor_dimension11 = { 4, { 1,3,3,96 } };
const TfArray<96, float> quant11_scale = { 96, { 0.0095917172729969025, 0.0098055964335799217, 0.0061018206179141998, 0.00861353799700737, 0.010631971061229706, 0.011784838512539864, 0.012092771008610725, 0.0082828225567936897, 0.012021902017295361, 0.0067291567102074623, 0.0067365863360464573, 0.018935551866889, 0.010655499063432217, 0.0064554051496088505, 0.0059275790117681026, 0.0066172401420772076, 0.0048687728121876717, 0.0096121085807681084, 0.0077777388505637646, 0.0065701375715434551, 0.0068797189742326736, 0.013161271810531616, 0.011378809809684753, 0.0103512117639184, 0.025480648502707481, 0.0083333943039178848, 0.010358685627579689, 0.007489464245736599, 0.0094261309131979942, 0.0048304176889359951, 0.013359680771827698, 0.0097164306789636612, 0.007073588203638792, 0.0081857070326805115, 0.010857904329895973, 0.015250487253069878, 0.008135797455906868, 0.013471453450620174, 0.01246572844684124, 0.0072160321287810802, 0.0095067946240305901, 0.0097337961196899414, 0.010091354139149189, 0.0051670121029019356, 0.0052689984440803528, 0.0049492893740534782, 0.0093831764534115791, 0.0051915342919528484, 0.008047216571867466, 0.0054905163124203682, 0.0053350585512816906, 0.0067213908769190311, 0.01092890091240406, 0.0061958925798535347, 0.010063174180686474, 0.0073055736720561981, 0.0079316562041640282, 0.0081746075302362442, 0.0074449274688959122, 0.0052018058486282825, 0.0084049897268414497, 0.0076431590132415295, 0.0057279658503830433, 0.0062276097014546394, 0.0080458614975214005, 0.011604314669966698, 0.011261065490543842, 0.008508787490427494, 0.0095941592007875443, 0.010422843508422375, 0.012904503382742405, 0.0067017632536590099, 0.0061917705461382866, 0.009632267989218235, 0.010911101475358009, 0.0067021935246884823, 0.0082263527438044548, 0.0096549643203616142, 0.0061824219301342964, 0.011710766702890396, 0.011182491667568684, 0.0050718900747597218, 0.0092883892357349396, 0.0074260272085666656, 0.0031959731131792068, 0.0080592222511768341, 0.0059348619543015957, 0.010055151768028736, 0.0084144631400704384, 0.0069137336686253548, 0.004520708229392767, 0.01292124018073082, 0.0098791569471359253, 0.011288932524621487, 0.0057741724886000156, 0.01408282108604908, } };
const TfLiteAffineQuantization quant11 = { (TfLiteFloatArray*)&quant11_scale, (TfLiteIntArray*)&g0::quant6_zero, 3 };
const MODEL_SECTION(EI_MODEL_SECTION) ALIGN(16) int32_t tensor_data12[96] = { 8472, 6343, 2108, -1792, 7098, 13911, 11321, 3064, -522, 11116, 1619, -5911, 5040, 4432, 670, -729, 6254, 10572, -987, -676, 7329, 22649, 14349, -2514, -4942, -1188, 16138, -261, 1878, 2035, 11049, -2392, 10280, 3636, 5141, -5444, 1499, -6165, 341, 2739, 3560, 1939, 2094, -417, 1084, 2657, 5410, 5494, 4964, 3254, 7533, 2778, -3159, 2559, 1628, 2971, 2320, 3986, 12018, 1558, -1492, 7346, 7434, 4723, 4289, 11100, -4731, 3647, 8125, -812, 8674, 2421, 3774, 3887, 4861, 2754, -614, 2735, 3329, 4747, 4048, 4319, 11198, 815, 3034, 4982, 937, -1285, 19088, -810, 1286, -1900, 17501, 4041, -35, -1224, };
const TfArray<96, float> quant12_scale = { 96, { 8.8437314843758941e-05, 6.369355833157897e-05, 8.6231470049824566e-05, 0.00012818227696698159, 0.00010344884503865615, 5.758250699727796e-05, 7.2723960329312831e-05, 9.7422504040878266e-05, 0.00011936529335798696, 7.1046881203074008e-05, 0.00013729797501582652, 8.7392152636311948e-05, 0.00010769726213766262, 0.00011036027717636898, 0.00012817318201996386, 0.00010982013918692246, 9.9911238066852093e-05, 7.0764326665084809e-05, 8.0441401223652065e-05, 0.00010417377052363008, 8.5931926150806248e-05, 4.0253467886941507e-05, 6.1939768784213811e-05, 0.00011339591583237052, 0.00011655588605208322, 9.835921082412824e-05, 5.6373140978394076e-05, 0.0001068482524715364, 0.00012438565318007022, 0.00011012709728674963, 7.488116534659639e-05, 0.00012089672236470506, 7.6442163845058531e-05, 0.00013152044266462326, 0.00013687014870811254, 0.00010548064892645925, 0.00010280877177137882, 9.2531270638573915e-05, 0.00011264884960837662, 0.00011691270628944039, 0.00012438057456165552, 0.0001253162045031786, 0.00015366621664725244, 0.00016151017916854471, 0.00022603162506129593, 0.0001441395579604432, 0.00010441861377330497, 0.00010545135592110455, 0.00011828014976345003, 0.00014975716476328671, 9.5620722277089953e-05, 0.00014669114898424596, 0.00012784641876351088, 0.00015834097575861961, 0.00015363718557637185, 0.0001271785149583593, 0.00014670101518277079, 0.00010336329432902858, 6.478654540842399e-05, 0.00011118163092760369, 0.00016427479567937553, 9.5460447482764721e-05, 8.1324084021616727e-05, 0.00012714005424641073, 0.00012819560652133077, 7.2370610723737627e-05, 0.00011306150554446504, 0.00012495358532760292, 7.5912023021373898e-05, 0.00018366840959060937, 8.29326017992571e-05, 8.6524203652516007e-05, 0.00011425332922954112, 0.00011237157741561532, 0.00011485681898193434, 9.5738963864278048e-05, 0.0001488939014961943, 0.0001332021492999047, 0.0001067090779542923, 0.00010566409036982805, 0.00010599632514640689, 9.8062468168791384e-05, 6.9450332375708967e-05, 0.00010748690692707896, 0.00011535203520907089, 0.00013620892423205078, 0.00012394512305036187, 0.00019049826369155198, 4.8705340304877609e-05, 0.0001332317478954792, 0.00013593048788607121, 0.00012410890485625714, 4.7585035645170137e-05, 0.00010190131433773786, 0.00017352939175907522, 0.00010355331323808059, } };
const TfLiteAffineQuantization quant12 = { (TfLiteFloatArray*)&quant12_scale, (TfLiteIntArray*)&g0::quant6_zero, 0 };
const MODEL_SECTION(EI_MODEL_SECTION) ALIGN(16) int8_t tensor_data13[96*1*1*16] = { 
  /* [0][0][][] */ -43,50,-7,-22,-20,-59,-55,-24,66,-51,38,-53,91,-127,8,-121, 
  /* [1][0][][] */ -86,75,-109,-114,-66,30,-17,57,-51,5,90,-26,45,127,25,36, 
  /* [2][0][][] */ -52,-12,-72,13,-21,-54,33,-32,-99,127,79,6,51,64,-43,121, 
  /* [3][0][][] */ -54,-79,12,-38,-94,10,-63,-127,-2,10,43,-76,-76,-41,-124,-44, 
  /* [4][0][][] */ 86,6,-19,49,-81,-12,-127,48,15,69,14,49,2,5,-36,-76, 
  /* [5][0][][] */ -105,55,-79,-18,59,-58,-28,-81,98,-18,4,-40,32,-110,-127,-115, 
  /* [6][0][][] */ -1,-27,-38,27,-81,78,36,-36,-33,-59,127,-29,-13,0,-116,8, 
  /* [7][0][][] */ -19,116,127,-107,72,92,-13,-64,31,71,-95,-14,55,7,26,74, 
  /* [8][0][][] */ -54,-3,24,-4,55,3,89,127,-66,-20,-53,-88,43,80,-69,-43, 
  /* [9][0][][] */ 38,34,93,16,-110,-43,-86,-127,71,8,117,25,-26,-99,38,-21, 
  /* [10][0][][] */ -18,-104,3,-76,-113,67,39,24,-22,-40,-1,32,-2,59,-127,20, 
  /* [11][0][][] */ 109,-58,-14,96,-104,-18,66,-16,127,126,-49,36,37,-72,-35,94, 
  /* [12][0][][] */ -59,-74,127,-22,54,-24,32,63,63,-27,103,64,-31,28,-102,42, 
  /* [13][0][][] */ -12,-30,14,18,16,15,127,39,-98,22,16,10,-16,121,86,-80, 
  /* [14][0][][] */ 127,-86,108,-6,74,59,95,70,74,66,55,45,62,-49,38,-43, 
  /* [15][0][][] */ -10,107,14,-33,31,127,-76,58,-40,-36,-42,-22,-45,121,-32,-48, 
  /* [16][0][][] */ -47,68,105,-48,25,86,-2,-2,-7,19,-7,43,95,9,81,127, 
  /* [17][0][][] */ 9,127,82,-123,27,-45,3,-86,-62,94,-33,63,-71,-25,112,-82, 
  /* [18][0][][] */ -75,-2,-80,-85,103,84,-47,-64,42,76,127,77,-6,101,-35,0, 
  /* [19][0][][] */ 51,127,86,72,56,-20,-22,2,-35,118,45,117,53,63,-50,40, 
  /* [20][0][][] */ 103,-16,-7,90,-91,-1,-33,51,-25,-61,-127,-47,103,-44,35,-10, 
  /* [21][0][][] */ -112,-70,-38,114,-27,10,-127,79,-3,16,37,24,-38,52,-71,15, 
  /* [22][0][][] */ -11,7,-85,-63,127,-2,-45,69,51,86,52,81,-21,36,-7,37, 
  /* [23][0][][] */ -62,29,-10,17,22,60,105,94,-21,127,-33,-22,-9,26,-48,-44, 
  /* [24][0][][] */ 31,-87,41,12,127,43,74,-38,62,27,54,39,-78,33,-14,-26, 
  /* [25][0][][] */ 116,-65,86,16,15,-8,-26,82,124,-30,-59,6,127,-59,89,47, 
  /* [26][0][][] */ 65,38,116,112,85,-9,-73,-19,1,84,3,127,48,-75,30,-57, 
  /* [27][0][][] */ -52,29,-74,18,-35,110,22,-102,51,-75,116,-1,48,-48,127,123, 
  /* [28][0][][] */ -33,28,-78,-127,28,-83,8,-52,-83,87,-50,29,-26,15,-20,71, 
  /* [29][0][][] */ 87,101,-89,47,30,100,-45,-21,50,62,11,63,-127,21,-43,84, 
  /* [30][0][][] */ -19,83,-123,-54,76,-44,12,23,-60,45,-60,-8,3,57,-10,127, 
  /* [31][0][][] */ 25,-120,94,54,67,-71,-84,40,-27,-2,23,-33,-81,61,49,127, 
  /* [32][0][][] */ -58,63,13,43,-97,54,16,60,29,-127,19,-92,28,38,43,49, 
  /* [33][0][][] */ -81,-14,55,89,-3,17,-55,12,-44,-54,26,-16,-10,-1,3,127, 
  /* [34][0][][] */ -9,10,-87,-98,63,-16,-3,60,21,-14,-1,-13,-59,-28,-31,127, 
  /* [35][0][][] */ 67,-7,22,-11,-8,20,-73,-28,-24,-127,-51,11,-5,-27,46,-15, 
  /* [36][0][][] */ -13,30,-127,-29,33,117,-14,44,-35,20,57,32,22,27,-87,49, 
  /* [37][0][][] */ 59,27,65,-42,57,-127,44,-10,-111,59,-98,-32,11,11,91,30, 
  /* [38][0][][] */ -33,127,35,-43,42,17,64,-97,8,0,-121,34,-64,-96,-91,17, 
  /* [39][0][][] */ 82,37,-111,-109,-13,-36,11,-58,12,0,-6,-32,47,3,-127,-84, 
  /* [40][0][][] */ -47,18,-74,-97,-38,-17,23,-127,-4,-11,13,-38,46,73,22,65, 
  /* [41][0][][] */ -41,-89,-18,127,-6,-12,-75,-7,-15,-56,83,-56,-68,-5,5,24, 
  /* [42][0][][] */ -26,59,-25,-127,17,12,3,-38,59,5,-39,9,72,-20,-28,18, 
  /* [43][0][][] */ 2,46,1,18,127,31,25,29,10,39,3,-85,-118,-48,-20,-9, 
  /* [44][0][][] */ 75,-17,24,40,-26,-8,7,37,31,-31,28,9,127,8,-56,-30, 
  /* [45][0][][] */ 11,-85,-65,30,-41,-84,4,51,33,-24,15,29,-76,127,33,-40, 
  /* [46][0][][] */ -25,-91,32,79,10,5,-94,44,34,-48,66,-25,49,85,66,127, 
  /* [47][0][][] */ -31,-52,21,76,4,-8,50,14,5,-68,-127,-38,38,-37,-50,21, 
  /* [48][0][][] */ -82,90,-19,-35,3,64,-4,-127,25,-26,43,-55,57,-122,-61,7, 
  /* [49][0][][] */ -51,7,49,-42,9,2,127,114,-32,-41,-15,29,-46,24,-51,40, 
  /* [50][0][][] */ 50,28,-83,24,36,-127,-37,1,-75,52,-39,2,29,-82,-123,-55, 
  /* [51][0][][] */ -43,49,-32,102,-35,37,-38,-74,-36,-77,1,-60,4,27,-13,127, 
  /* [52][0][][] */ -116,-5,20,-5,34,36,56,3,8,-86,-47,-43,-95,-58,-127,-1, 
  /* [53][0][][] */ -34,-56,-50,-127,-20,-10,1,66,24,-55,-32,27,-31,36,59,95, 
  /* [54][0][][] */ 10,-55,9,-3,-62,64,46,-12,-23,-106,60,29,-27,-13,-127,29, 
  /* [55][0][][] */ -2,-30,-39,33,54,-32,63,75,-53,-64,-127,-38,58,-35,-18,33, 
  /* [56][0][][] */ 65,-41,-62,-32,-127,25,-118,-2,-11,-16,-32,16,104,-27,49,8, 
  /* [57][0][][] */ -40,13,22,-32,127,28,58,52,-42,52,6,-25,-51,84,-97,-15, 
  /* [58][0][][] */ 34,5,5,-23,39,-14,-53,-61,40,-127,-71,6,-87,-57,-18,52, 
  /* [59][0][][] */ -73,-35,6,22,26,66,-101,-55,92,127,-104,21,-15,-3,-26,-11, 
  /* [60][0][][] */ 17,-51,-7,15,-127,-43,29,3,-4,43,-14,43,2,-34,33,42, 
  /* [61][0][][] */ 26,30,-79,-7,-44,-19,-127,-82,-21,5,35,107,61,-58,107,61, 
  /* [62][0][][] */ 44,-22,38,-20,-8,42,36,126,-56,127,31,81,33,49,64,99, 
  /* [63][0][][] */ 25,-127,-9,-11,-71,11,48,-26,-8,-19,-6,-16,-41,124,114,32, 
  /* [64][0][][] */ -10,-2,-127,-37,23,57,32,-15,-15,-99,51,2,73,-31,-75,103, 
  /* [65][0][][] */ -29,13,43,65,68,-4,80,90,-56,28,-99,-63,36,127,-74,-15, 
  /* [66][0][][] */ -63,-127,0,-122,-45,-114,34,-32,-12,-32,38,101,-54,-24,-92,73, 
  /* [67][0][][] */ -31,-86,-70,-20,-89,111,-14,-127,-77,-30,-50,-103,20,-21,-61,36, 
  /* [68][0][][] */ 127,61,31,6,-111,37,-65,-45,-99,-126,-9,6,42,-27,95,-70, 
  /* [69][0][][] */ 40,10,44,-6,-5,-29,-47,46,-15,127,-28,9,-4,35,78,-23, 
  /* [70][0][][] */ 21,-14,-45,73,-126,25,-8,-99,82,127,49,58,57,-33,-21,29, 
  /* [71][0][][] */ 115,-81,78,100,-81,-40,49,-32,127,18,-60,48,79,-68,19,2, 
  /* [72][0][][] */ -2,-27,40,88,47,2,-127,71,61,-8,41,10,-45,-63,-49,89, 
  /* [73][0][][] */ 55,21,54,-127,54,-89,-69,47,-15,113,-19,10,14,-79,23,-44, 
  /* [74][0][][] */ 81,13,34,46,-127,-26,38,5,-79,-45,17,-49,28,-62,3,16, 
  /* [75][0][][] */ 92,127,-106,22,55,51,-23,-23,-21,-44,44,68,-110,50,61,86, 
  /* [76][0][][] */ -61,-40,-7,-36,-61,-5,91,-9,-60,23,94,38,-47,-127,-20,89, 
  /* [77][0][][] */ -37,127,-29,2,-40,-66,37,70,29,-51,-11,74,-22,58,-1,68, 
  /* [78][0][][] */ 127,34,-53,23,-60,19,-106,-34,-1,-16,-84,2,30,-115,30,51, 
  /* [79][0][][] */ -83,-43,118,48,-32,-110,-39,-58,-11,12,44,11,-50,127,-66,97, 
  /* [80][0][][] */ 70,103,27,-127,-6,36,90,-38,10,18,-44,14,81,-51,3,-10, 
  /* [81][0][][] */ 38,-67,12,-122,111,46,-11,127,110,33,-19,-50,-22,20,-96,-68, 
  /* [82][0][][] */ 68,44,69,-11,127,-122,28,44,1,117,-21,16,-4,-53,30,-104, 
  /* [83][0][][] */ -47,76,20,25,88,68,127,111,3,49,-34,-80,-87,110,-69,-126, 
  /* [84][0][][] */ 7,-96,-17,99,1,-80,-91,36,-78,66,-53,-5,-127,65,-5,-52, 
  /* [85][0][][] */ -111,47,-35,-10,-18,-50,-53,-41,-18,41,8,-88,-127,-82,-84,41, 
  /* [86][0][][] */ -9,71,91,126,43,-33,59,34,7,24,-65,-74,42,84,-127,-75, 
  /* [87][0][][] */ -14,48,127,-22,-97,-34,17,11,34,-24,6,43,-52,11,0,-6, 
  /* [88][0][][] */ -17,-64,-118,37,39,52,-7,34,-25,-92,-127,-112,123,-12,16,40, 
  /* [89][0][][] */ 43,24,11,-127,15,-56,-61,56,118,-21,34,-109,3,-26,59,-60, 
  /* [90][0][][] */ -2,71,20,15,-33,38,29,120,2,-52,-8,127,49,19,-40,70, 
  /* [91][0][][] */ -73,12,-32,80,93,72,-40,-115,-50,58,-3,24,-113,-127,-64,-3, 
  /* [92][0][][] */ -31,61,-15,-28,-127,-1,-80,50,-37,55,104,65,-17,-9,55,23, 
  /* [93][0][][] */ 111,54,103,45,-127,-79,21,42,-33,-72,-30,-77,38,-47,-7,-5, 
  /* [94][0][][] */ -30,-127,29,-103,14,30,-21,-1,81,-16,-2,58,11,56,-43,39, 
  /* [95][0][][] */ -48,-58,-28,-58,109,110,-39,43,93,50,-72,54,-26,127,-85,30, 
};
const TfArray<96, float> quant13_scale = { 96, { 0.0015680469805374742, 0.0011293252464383841, 0.0015289359726011753, 0.0022727490868419409, 0.0018342104740440845, 0.0010209726169705391, 0.0012894397368654609, 0.0017273598350584507, 0.0021164186764508486, 0.0012597041204571724, 0.0024343759287148714, 0.0015495156403630972, 0.00190953747369349, 0.0019567543640732765, 0.0022725879680365324, 0.0019471773412078619, 0.001771486597135663, 0.0012546943034976721, 0.0014262746553868055, 0.0018470638897269964, 0.0015236249892041087, 0.00071371829835698009, 0.0010982295498251915, 0.0020105780567973852, 0.0020666061900556087, 0.0017439682269468904, 0.00099952984601259232, 0.0018944840412586927, 0.0022054326254874468, 0.0019526199903339148, 0.001327688223682344, 0.0021435718517750502, 0.0013553657336160541, 0.0023319369647651911, 0.0024267903063446283, 0.001870235544629395, 0.001822861609980464, 0.001640635309740901, 0.0019973320886492729, 0.0020729328971356153, 0.0022053427528589964, 0.0022219319362193346, 0.0027245949022471905, 0.0028636730276048183, 0.0040076770819723606, 0.0025556813925504684, 0.0018514050170779228, 0.0018697162158787251, 0.0020971784833818674, 0.0026552849449217319, 0.0016954131424427032, 0.0026009227149188519, 0.0022667942102998495, 0.0028074812144041061, 0.0027240801136940718, 0.0022549519781023264, 0.0026010975707322359, 0.0018326935824006796, 0.0011487045558169484, 0.0019713174551725388, 0.0029126913286745548, 0.0016925713280215859, 0.0014419250655919313, 0.0022542700171470642, 0.0022729854099452496, 0.0012831746134907007, 0.0020046487916260958, 0.0022155025508254766, 0.0013459660112857819, 0.0032565516885370016, 0.001470445073209703, 0.0015341263497248292, 0.002025780500844121, 0.0019924158696085215, 0.0020364806987345219, 0.0016975096659734845, 0.0026399788912385702, 0.0023617546539753675, 0.0018920163856819272, 0.0018734881887212396, 0.0018793788040056825, 0.001738706836476922, 0.0012313963379710913, 0.0019058077596127987, 0.0020452612079679966, 0.0024150663521140814, 0.0021976218558847904, 0.0033776492346078157, 0.00086357508553192019, 0.0023622792214155197, 0.0024101296439766884, 0.0022005257196724415, 0.00084371143020689487, 0.0018067718483507633, 0.0030767808202654123, 0.0018360627582296729, } };
const TfLiteAffineQuantization quant13 = { (TfLiteFloatArray*)&quant13_scale, (TfLiteIntArray*)&g0::quant6_zero, 0 };
const MODEL_SECTION(EI_MODEL_SECTION) ALIGN(16) int32_t tensor_data14[16] = { -28274, -6547, 3897, -13130, 10782, -14285, 25945, -10442, 10494, -8358, 14426, 12465, -2350, -28784, -1951, 7046, };
const TfArray<16, float> quant14_scale = { 16, { 8.0020945461001247e-05, 5.4966913012322038e-05, 6.0600366850849241e-05, 6.422621663659811e-05, 9.5087249064818025e-05, 0.00014101168198976666, 5.6048000260489061e-05, 6.0621638112934306e-05, 0.00010044530063169077, 8.7998647359199822e-05, 0.00010288604244124144, 7.9369849117938429e-05, 7.3023780714720488e-05, 8.5307139670476317e-05, 7.0119007432367653e-05, 7.5081909017171711e-05, } };
const TfLiteAffineQuantization quant14 = { (TfLiteFloatArray*)&quant14_scale, (TfLiteIntArray*)&g0::quant8_zero, 0 };
const MODEL_SECTION(EI_MODEL_SECTION) ALIGN(16) int8_t tensor_data15[16*1*1*96] = { 
  /* [0][0][][] */ 15,26,12,9,-25,-72,-5,-15,-14,-80,20,-13,52,-69,62,38,-85,-23,29,17,83,16,-69,4,-2,60,127,67,7,81,48,-30,12,7,6,-27,35,25,-18,-5,108,17,23,-21,0,-8,-1,-35,21,-31,89,-7,-62,-3,43,32,-4,-44,6,15,-17,38,-60,-14,22,2,65,24,5,-16,27,32,6,33,12,30,64,-29,48,30,-17,51,30,35,-59,17,0,67,24,8,-80,-13,26,6,100,71, 
  /* [1][0][][] */ 21,44,-57,-14,-12,-49,102,-85,-66,-44,-58,-60,-11,-48,-7,-50,-38,-15,-46,-14,-12,-89,115,-35,-4,14,1,67,-51,14,-48,18,-35,32,16,12,-20,66,-69,89,36,14,0,-51,59,-54,-2,38,-85,4,52,-107,-44,52,66,69,37,28,-71,21,-59,12,-7,-20,41,31,108,13,-41,-127,11,12,16,69,-26,39,-56,-27,101,-26,45,-17,58,-55,-30,-58,-13,18,-17,-47,36,-3,73,-66,-35,55, 
  /* [2][0][][] */ 11,-14,23,-10,67,41,-49,28,-50,41,10,-20,35,-8,21,24,31,-27,-127,-12,-15,-42,-16,22,-2,-12,-42,10,-36,-25,-15,71,-18,-39,-7,17,-42,22,-20,-22,65,16,0,39,10,52,2,-7,-80,2,-21,16,-22,40,9,-61,32,17,42,27,-24,-14,-15,51,34,-4,-31,-3,-10,0,-17,-36,20,47,31,63,-58,-17,-26,-38,32,28,50,-19,-6,-45,-17,-53,-18,-28,-18,66,-7,-6,85,-43, 
  /* [3][0][][] */ 44,-34,-17,-124,-14,-35,127,-36,35,114,-76,-17,13,-16,-23,64,64,43,-31,20,-51,20,18,1,-51,82,56,-19,-49,-13,-73,70,0,-24,21,-30,5,-48,-30,61,1,6,-21,22,67,-58,-6,35,48,-32,20,-50,116,42,27,-9,4,-22,-20,-51,-48,36,71,-2,-29,-27,125,-34,-42,-17,-51,26,7,-81,5,-82,17,-51,126,1,-12,-61,-33,-45,-30,-43,79,76,-37,53,-60,8,18,-81,-20,35, 
  /* [4][0][][] */ -27,73,36,15,-17,16,-40,-30,18,-27,12,-9,13,38,-13,26,-13,-45,-20,-58,26,-39,-60,9,-25,-38,-18,8,-44,127,-58,-9,5,-36,4,-30,71,49,-33,5,23,18,17,-41,-52,-4,56,-15,22,-13,-57,-16,-63,30,37,22,0,65,-30,23,-38,-60,-22,7,62,27,-56,-6,0,-4,15,-62,-4,57,52,63,-27,24,-58,47,20,61,36,-54,39,-57,-24,-62,-33,-49,-46,-19,3,-1,28,-34, 
  /* [5][0][][] */ -3,-10,35,-19,-17,-24,-13,4,34,9,-15,-7,-19,-21,20,-12,-14,9,-50,-36,-21,15,-17,10,14,-44,63,-15,-1,43,9,73,-11,-78,22,8,-34,-27,-27,-4,-46,-4,-23,12,0,24,-66,21,-19,21,50,-13,22,-66,5,20,-25,-54,10,-32,40,26,21,47,-39,5,103,-21,-2,-22,9,15,-5,31,32,10,1,-7,127,41,-26,-13,-30,30,40,58,8,98,0,-36,-4,8,14,-16,-32,22, 
  /* [6][0][][] */ 29,-53,75,13,-33,103,-47,-96,-23,-81,-93,65,12,19,-37,78,17,30,13,-49,-87,-14,-93,-54,-6,-46,-5,61,-127,40,-13,-43,41,78,-31,-1,-11,-36,18,-14,-73,43,33,-34,18,54,-97,-7,60,5,-92,-124,85,2,-39,-30,27,-36,14,-25,-19,-50,40,3,48,-86,-61,-51,-104,1,-22,-74,-32,-112,29,-103,78,6,-72,36,-25,73,20,-103,74,-53,-26,-9,-63,84,-94,87,42,-52,76,-104, 
  /* [7][0][][] */ -2,-7,-60,60,-27,0,46,-2,-102,6,80,59,-4,-59,4,-40,-15,5,-8,-1,-51,-21,-51,-35,64,52,-2,73,5,28,25,34,-58,-127,34,110,-8,11,-46,8,-3,-16,7,-76,30,55,66,89,-13,55,-50,11,21,-51,42,-53,-24,33,-77,-25,60,9,2,-37,71,-61,109,-18,-59,-27,66,14,-20,-27,-83,-14,28,-47,103,-40,-8,-12,-71,-38,52,16,-83,42,-13,12,1,31,72,-6,93,-9, 
  /* [8][0][][] */ -12,-56,10,-1,-16,-7,19,-12,-5,-4,49,38,11,34,-36,-1,66,-2,17,8,-14,-77,-30,-25,-19,-37,66,-2,-25,51,4,-27,-12,2,-2,2,-40,-14,13,-24,-1,49,28,-42,12,-14,24,-6,29,4,48,3,0,14,-38,3,-16,109,-59,0,-19,-61,-61,-4,-78,-28,-18,17,-5,10,40,-17,-22,-127,46,-108,16,19,-54,23,-29,-7,4,62,60,-56,-36,57,-36,83,18,-19,-42,-4,-7,-63, 
  /* [9][0][][] */ -23,-27,-26,26,12,20,8,46,-44,1,57,63,-24,51,20,-53,-14,31,-21,-54,0,44,-7,15,-29,29,5,18,40,-12,20,-12,-19,-28,2,57,-25,-9,30,-2,-17,-34,14,2,12,38,3,37,-40,6,-19,37,127,17,-17,-2,15,-19,36,13,-31,-2,79,7,7,15,64,11,27,-7,-26,24,0,-125,-39,-123,-37,-18,41,-8,-8,29,2,-47,47,9,-61,-6,-7,116,34,32,50,40,-9,34, 
  /* [10][0][][] */ 26,40,11,3,-9,13,-41,-12,54,7,-42,26,22,10,-10,-58,-30,-5,22,-8,23,-9,-20,-22,8,-14,-91,47,-14,45,5,4,15,17,-18,4,8,2,12,-4,35,-11,55,-39,-29,-5,18,21,21,0,10,-18,-27,-15,-5,32,-11,3,-8,-8,-5,-40,-8,7,-9,-19,-90,-23,-51,-18,38,-21,-21,31,29,20,42,-23,-87,5,-12,27,0,-9,11,3,-73,-127,-27,26,6,18,44,-23,22,33, 
  /* [11][0][][] */ 17,-43,1,5,-55,26,14,16,72,-21,-29,-48,22,6,11,-11,-27,52,18,-71,8,36,13,-20,37,18,56,7,35,-59,-22,20,13,101,-95,5,11,-18,57,8,-54,42,-14,19,-42,2,-20,-6,52,-14,-25,-7,-22,14,-79,94,-23,-4,4,-33,31,0,-9,-65,-15,-44,-127,-78,-1,-31,-89,34,44,27,-12,-2,31,50,-110,-41,-16,-6,-19,-9,-18,-12,53,79,16,-48,7,4,-35,35,85,34, 
  /* [12][0][][] */ 26,25,-32,-21,23,-22,0,49,45,-36,11,5,6,-14,-10,6,14,-49,-14,2,7,60,14,58,-45,-34,-127,-3,79,-32,38,-10,-20,-83,66,-5,27,-17,5,16,-9,-62,18,38,42,-8,27,-23,-63,-7,-49,99,65,-16,28,-73,10,19,-37,-34,20,46,76,7,-25,-24,29,28,107,22,18,20,5,-15,-11,-3,-43,-61,43,-77,19,-55,28,-47,8,-2,0,-111,-13,36,-47,15,8,76,17,49, 
  /* [13][0][][] */ -9,18,-68,32,35,15,-10,18,21,69,-44,49,-44,-25,60,-55,15,46,62,2,-33,-40,-8,22,37,50,-20,27,12,33,63,-24,-19,59,-8,52,13,-39,-45,-52,0,-19,16,17,50,44,-30,42,-42,33,-3,0,-22,-45,60,36,9,-49,-6,-17,30,13,4,-27,8,81,127,45,13,-3,-53,-22,37,54,-83,57,13,-78,124,-47,-9,-39,22,-4,33,51,-38,-27,-20,-22,2,48,35,21,66,56, 
  /* [14][0][][] */ -11,57,24,21,-69,-39,20,31,-69,-34,82,1,-82,-13,82,-15,-43,47,-70,36,-23,14,-104,6,-44,-1,-56,-120,4,4,20,86,-56,36,13,-23,-21,-70,-21,-40,31,-31,53,-24,-8,52,-81,29,-18,-38,84,24,-8,28,-35,37,-52,31,-3,38,30,68,-4,47,25,-44,-2,-74,42,71,82,44,-59,39,6,11,36,-12,32,26,-71,123,0,-127,86,3,2,12,-103,-11,-12,-2,-23,9,39,36, 
  /* [15][0][][] */ 73,-32,22,34,48,10,-23,1,13,36,-64,-7,70,67,-8,-23,-8,0,-69,41,-7,-21,19,37,63,-34,87,35,48,-36,-29,56,61,50,-2,-81,60,65,68,50,89,30,-18,8,-48,-120,31,-45,-28,-27,-10,7,-17,-53,-33,53,-9,4,-9,24,12,-57,-37,38,32,44,-79,43,-6,-37,-10,-14,8,-114,-52,-98,-27,15,-127,25,80,-38,51,19,-52,-9,-11,-23,30,89,9,-68,-38,-22,39,-35, 
};
const TfArray<16, float> quant15_scale = { 16, { 0.0034008901566267014, 0.0023360936902463436, 0.0025755155365914106, 0.0027296140324324369, 0.004041207954287529, 0.0059929965063929558, 0.0023820400238037109, 0.0025764196179807186, 0.0042689251713454723, 0.0037399425636976957, 0.0043726568110287189, 0.0033732184674590826, 0.0031035104766488075, 0.0036255533341318369, 0.0029800578486174345, 0.0031909812241792679, } };
const TfLiteAffineQuantization quant15 = { (TfLiteFloatArray*)&quant15_scale, (TfLiteIntArray*)&g0::quant8_zero, 0 };
const MODEL_SECTION(EI_MODEL_SECTION) ALIGN(16) int32_t tensor_data16[96] = { 10200, -1538, -4858, 8377, -1472, -659, 1120, -1871, 1520, -4733, 685, -3613, 9825, -4316, -2875, -7350, 874, -586, -10288, -554, -1826, 646, -5886, -679, 159, 8157, -9437, -5873, -1320, -3005, 1530, -1449, 16617, -193, -2440, -1196, 350, 12406, 3047, 11178, -340, 5872, 553, 5773, -191, -1125, 9773, 928, -5043, 311, -4001, -864, -2343, -3932, 968, 2703, 1037, 1911, 1315, 1544, -707, 786, -2289, 7777, 10175, -1673, 15608, 7336, -818, -266, 11189, -1342, 427, 2166, -3630, 1210, 15876, 11845, 13180, 13558, 15193, -1268, 7954, 9769, -1562, -1718, 13652, -6236, 8299, -1254, -7366, -1279, 679, 2382, 19738, -2166, };
const TfArray<96, float> quant16_scale = { 96, { 0.00011508566967677325, 0.00024412877974100411, 0.00017825339455157518, 0.00013281682913657278, 0.00019896330195479095, 0.00038184275035746396, 0.00011459728557383642, 0.00021493149688467383, 0.00028349793865345418, 0.00021960596495773643, 0.00024708861019462347, 0.00019075920863542706, 9.7895535873249173e-05, 0.00015765942225698382, 0.00018781337712425739, 0.00015815775259397924, 0.000228812888963148, 0.00023892216267995536, 0.00013063357619103044, 0.00028689889586530626, 0.00024592247791588306, 0.00023945486464072019, 0.00012505300401244313, 0.0001660035050008446, 0.0012324897106736898, 0.00014438678044825792, 0.00024290100554935634, 0.0001593670021975413, 0.00029337461455725133, 0.00019046185479965061, 0.00017742277123034, 0.00027664413210004568, 8.1790152762550861e-05, 0.00038015272002667189, 0.00014385436952579767, 0.00018381109111942351, 0.00025153084425255656, 0.00010530012514209375, 0.00018861876742448658, 0.0001176507503259927, 0.00041616393718868494, 0.00019202235853299499, 0.00021618978644255549, 0.0001532166643301025, 0.0001460059720557183, 0.00022802398598287255, 0.00013176797074265778, 0.00025662494590505958, 0.00016867968952283263, 0.00028530432609841228, 0.00023709273955319077, 0.00020552770001813769, 0.00012590484402608126, 0.00023515464272350073, 0.00019951732247136533, 0.00022462516790255904, 0.00013713397493120283, 0.00034450727980583906, 0.0002874231431633234, 0.00021356710931286216, 0.00024262201623059809, 0.00024778975057415664, 0.00012694470933638513, 0.00014258969167713076, 0.00022107327822595835, 0.00038911157753318548, 0.0001032896398101002, 0.00014495558571070433, 0.00020650557416956872, 0.00026107503799721599, 0.00013782578753307462, 0.0002317404723726213, 0.0004822521295864135, 0.00015505278133787215, 0.00017277315782848746, 0.00018615728185977787, 8.5406951257027686e-05, 0.00015619961777701974, 0.00010718612611526623, 0.00016611507453490049, 8.4492181485984474e-05, 0.00025622115936130285, 0.000109753011201974, 0.00026095262728631496, 0.00011556382378330454, 0.00025169155560433865, 0.00011389465362299234, 0.00027183216297999024, 0.0001424038055120036, 0.00019794824765995145, 0.00012207365944050252, 0.00016838646843098104, 0.00024423643480986357, 0.00015177702880464494, 9.4294970040209591e-05, 0.0002677888551261276, } };
const TfLiteAffineQuantization quant16 = { (TfLiteFloatArray*)&quant16_scale, (TfLiteIntArray*)&g0::quant6_zero, 0 };
const MODEL_SECTION(EI_MODEL_SECTION) ALIGN(16) int8_t tensor_data17[1*3*3*96] = { 
  /* [0][0][][] */ -56,-10,-8,-33,102,1,25,4,-3,5,-14,-13,-31,7,0,-2,-21,3,-21,-19,-11,18,-3,48,-6,-8,-35,8,13,0,24,9,-2,6,-4,-27,-1,-44,-47,5,7,-5,29,-22,-22,40,-70,-12,-30,2,-6,46,-56,7,31,-14,6,-5,3,-21,-4,-19,1,-37,-21,-15,-43,-23,-8,33,-5,3,15,-3,2,-7,-17,-8,127,-39,-119,4,-122,-28,-27,-18,2,8,-22,-9,-1,-33,-11,23,-26,13, -47,33,46,-90,-28,6,127,-45,5,-19,-44,23,-63,8,-83,86,-13,78,57,-32,-11,127,70,127,23,1,50,82,127,33,127,-27,-88,-13,-75,-29,-27,-122,127,-65,-32,-127,-19,-42,70,-30,-40,2,33,-4,21,127,-84,37,-81,-15,-69,-5,-10,23,-10,-127,-116,-54,-51,7,-10,-74,-12,24,-61,109,-127,-22,7,-35,-127,-110,-10,-127,-118,15,23,-65,91,74,-99,32,-127,10,29,-6,3,119,-66,-80, -30,4,-9,-14,73,0,45,-16,-18,18,-14,10,-6,9,-1,-14,-16,1,-18,-24,-12,14,1,33,-7,-5,6,-13,11,8,8,12,-18,3,-17,61,-6,-69,-35,14,4,-2,20,-14,-11,-23,-42,-18,-21,-7,-3,28,12,-2,-2,-18,67,-15,4,-19,-10,-6,-49,-8,-27,-31,127,-21,-8,20,-6,13,14,1,-3,12,-6,17,-53,-28,-110,0,-127,-22,8,-28,-1,-26,-45,-29,7,61,-3,32,-30,20, 
  /* [0][1][][] */ -105,-2,37,-69,36,104,-45,-4,-3,-6,-24,-16,-127,29,25,68,-17,36,108,24,27,-21,94,-25,33,18,62,10,-12,5,-23,-13,-127,-15,64,-21,-14,-127,-57,-127,-15,12,83,-41,-77,127,-99,-81,53,54,22,-38,-112,76,57,-29,15,-25,29,-8,16,-13,96,-86,-46,18,-25,-43,-4,-1,-127,12,56,127,14,-79,-87,-55,-71,-30,-118,-16,-36,-57,34,19,-115,49,-65,127,79,-106,127,-8,-54,-3, 72,127,127,127,-127,-127,103,-53,127,127,-73,-59,-86,127,-23,127,127,-127,127,127,127,-85,89,-126,-127,-127,127,127,-120,127,-34,127,-93,127,127,-91,127,84,21,-19,127,2,-127,-101,127,-21,127,127,127,-127,127,-105,116,127,-127,127,-127,127,-127,127,-97,100,113,-127,127,127,-15,127,-109,-127,-29,-127,3,120,127,77,11,-127,100,-114,56,127,119,127,127,71,-127,127,-84,55,-3,-34,-97,-31,-127,-31, -127,-26,25,-69,9,57,-65,12,-36,-5,-3,127,-105,22,26,60,-24,47,84,11,15,-21,71,-20,32,5,43,-8,-6,-5,3,-12,-101,-29,72,127,-4,-81,-90,-100,-27,-23,30,-35,-58,-64,-87,-106,50,62,3,-27,127,4,84,-48,83,-23,43,-34,7,-31,-127,-46,-74,-16,-50,-63,-25,3,-93,3,22,-101,3,127,-69,-38,-60,19,-105,-14,-68,-75,2,27,-84,42,-14,-74,127,127,-47,-25,-85,0, 
  /* [0][2][][] */ -14,-35,-23,-32,43,5,-14,27,-8,8,34,-20,33,7,-3,-37,-6,4,-37,-24,-24,-13,30,-13,5,-10,-20,3,7,-10,-27,10,-12,-3,2,-18,0,-36,-24,-17,-29,1,21,12,23,15,-64,1,-38,10,-19,-7,-4,-35,30,-9,-7,-20,3,-24,9,15,14,-3,-39,-15,110,29,28,18,-10,5,-9,-19,0,-32,-30,35,-30,-17,4,-4,-73,-22,-9,-1,47,-18,9,10,-10,-22,-14,-27,-16,0, -28,-51,16,-114,-32,6,27,127,-50,69,127,-22,-76,22,127,79,-16,-25,85,-56,-29,-35,127,19,16,-11,28,24,2,-1,-89,-39,-52,-33,-93,5,-99,-100,51,-61,-33,-123,-37,127,31,-16,-69,-2,14,-5,-16,2,68,22,-54,-43,-59,-55,42,-57,127,28,105,4,-94,-40,-24,-40,127,26,-56,21,19,-35,13,-26,-31,-30,-4,33,-127,-20,-66,-86,34,-127,-18,7,-4,5,41,1,11,-127,-61,127, -11,11,-23,4,32,-6,-8,18,-20,7,14,49,73,5,-3,-38,-8,18,-1,-27,-16,4,19,-4,-2,-10,-21,-6,8,-3,-31,5,1,2,-1,10,-7,-49,-37,-2,-37,-13,5,9,25,-4,-59,5,-34,-11,-11,-7,8,-45,19,-13,54,-16,9,-20,7,25,-9,15,-28,-28,-19,15,22,10,-13,3,-48,-36,-13,-12,-19,14,101,0,-13,6,-50,-3,-5,4,55,0,35,1,-10,19,-4,-16,-16,0, 
};
const TfArray<96, float> quant17_scale = { 96, { 0.005457745399326086, 0.01157739944756031, 0.008453369140625, 0.0062986160628497601, 0.0094355018809437752, 0.018108254298567772, 0.005434584803879261, 0.010192766785621643, 0.013444416224956512, 0.010414445772767067, 0.011717764660716057, 0.0090464362874627113, 0.0046425322070717812, 0.0074767344631254673, 0.0089067351073026657, 0.0075003672391176224, 0.010851068422198296, 0.011330484412610531, 0.0061950786039233208, 0.013605699874460697, 0.011662461794912815, 0.011355746537446976, 0.0059304293245077133, 0.0078724389895796776, 0.058448761701583862, 0.0068473014980554581, 0.011519174091517925, 0.0075577134266495705, 0.013912800699472427, 0.0090323351323604584, 0.0084139779210090637, 0.013119385577738285, 0.0038787610828876495, 0.018028106540441513, 0.0068220528773963451, 0.0087169334292411804, 0.011928429827094078, 0.0049936822615563869, 0.0089449295774102211, 0.0055793900974094868, 0.019735878333449364, 0.0091063389554619789, 0.010252439416944981, 0.0072660441510379314, 0.0069240890443325043, 0.010813656263053417, 0.0062488759867846966, 0.012170008383691311, 0.0079993521794676781, 0.013530081138014793, 0.011243727058172226, 0.0097468076273798943, 0.0059708268381655216, 0.011151815764605999, 0.0094617754220962524, 0.010652473196387291, 0.0065033496357500553, 0.01633768156170845, 0.013630562461912632, 0.010128063149750233, 0.011505943723022938, 0.011751014739274979, 0.0060201403684914112, 0.0067620775662362576, 0.010484030470252037, 0.018452966585755348, 0.0048983385786414146, 0.0068742763251066208, 0.0097931819036602974, 0.012381047010421753, 0.0065361578017473221, 0.010989904403686523, 0.022870000451803207, 0.0073531186208128929, 0.008193477988243103, 0.008828197605907917, 0.0040502818301320076, 0.0074075059965252876, 0.005083122756332159, 0.0078777298331260681, 0.0040069003589451313, 0.012150860391557217, 0.0052048531360924244, 0.012375242076814175, 0.0054804212413728237, 0.011936051771044731, 0.0054012634791433811, 0.012891186401247978, 0.006753262598067522, 0.0093873646110296249, 0.0057891393080353737, 0.0079854466021060944, 0.011582504026591778, 0.0071977716870605946, 0.0044717811979353428, 0.012699438259005547, } };
const TfLiteAffineQuantization quant17 = { (TfLiteFloatArray*)&quant17_scale, (TfLiteIntArray*)&g0::quant6_zero, 3 };
const MODEL_SECTION(EI_MODEL_SECTION) ALIGN(16) int32_t tensor_data18[96] = { 1701, 7924, 330, 1883, 7289, 19987, -73, 3022, 13298, -1727, 19158, 4348, 2550, 678, 5157, 399, 4068, 4765, -327, 12654, 1708, 8425, -1812, 1777, -12700, 1536, 3263, 2687, 9252, 1575, 4358, 5160, 2295, 13839, 5030, 4308, 5285, 2853, 4740, 2834, 18156, 1884, 3483, 1662, 3458, 10683, 8325, 11035, 1674, -1190, 2089, 8267, 3333, -4172, 8263, 315, 2784, 20148, 1502, 2568, 2852, 13688, 4669, -345, 19656, 15028, 2391, 4815, 9036, 5159, 3453, 2192, -4970, 4628, 1880, 4565, 392, 13667, 4132, 10167, 3618, 1365, 6698, 19539, -162, 9176, 9174, 2231, -1019, 3129, 2097, 13136, 4080, 4241, 5903, 5986, };
const TfArray<96, float> quant18_scale = { 96, { 0.00017351836140733212, 9.4147209892980754e-05, 0.00023257893917616457, 0.00020981392299290746, 9.5846822659950703e-05, 4.5163858885644004e-05, 0.00023000445798970759, 9.5612762379460037e-05, 6.4596752054058015e-05, 0.00011255179560976103, 4.6675409976160154e-05, 0.00010441424092277884, 0.00011996430839644745, 0.00026157096726819873, 0.00010422214836580679, 0.00010606695286696777, 0.00015379584510810673, 0.00013239691907074302, 0.00012897800479549915, 7.273787196027115e-05, 0.00014814913447480649, 8.9889814262278378e-05, 0.00014622211165260524, 0.00013590460002887994, 5.995777974021621e-05, 0.00012996993609704077, 0.0001575515343574807, 0.00013836151629220694, 9.4656708824913949e-05, 0.00016245378355961293, 0.00013090565335005522, 0.00010292130900779739, 0.00017714659043122083, 6.1276281485334039e-05, 0.00010530964937061071, 0.00013652748020831496, 0.0001163229753728956, 0.00015457258268725127, 0.00010764068429125473, 0.00014613060920964926, 5.1522525609470904e-05, 0.00016416884318459779, 0.00011263758642598987, 0.00011461701069492847, 0.00011337012256262824, 7.9131372331175953e-05, 8.6229978478513658e-05, 6.8364788603503257e-05, 0.00018042375450022519, 0.00019545502436812967, 0.00018962980539072305, 8.6422558524645865e-05, 0.00014013570034876466, 9.6768133516889066e-05, 8.8291104475501925e-05, 0.00022566303960047662, 0.00011433258623583242, 4.5633936679223552e-05, 0.00013393450353760272, 0.00011818031634902582, 0.00014612247468903661, 6.4352672779932618e-05, 0.00012812965724151582, 0.0001695742248557508, 4.8283432988682762e-05, 5.7945839216699824e-05, 0.00016592793690506369, 0.00012069005606463179, 8.9162043877877295e-05, 9.6977470093406737e-05, 0.0001541819074191153, 0.00010951162403216586, 0.0001088997014448978, 0.00013168423902243376, 0.00019041394989471883, 0.00014336491585709155, 0.00018735711637418717, 6.2146165873855352e-05, 0.00013599998783320189, 8.4863386291544884e-05, 0.00011534344230312854, 0.00012325934949330986, 7.3436611273791641e-05, 4.926790643366985e-05, 0.00010788350482471287, 7.7042815973982215e-05, 8.0830664956010878e-05, 0.00018456368707120419, 0.00015598081517964602, 0.00017974326328840107, 0.00010953973105642945, 6.7878565459977835e-05, 0.00012846400204580277, 0.00010395183198852465, 9.6302457677666098e-05, 0.00010388851660536602, } };
const TfLiteAffineQuantization quant18 = { (TfLiteFloatArray*)&quant18_scale, (TfLiteIntArray*)&g0::quant6_zero, 0 };
const MODEL_SECTION(EI_MODEL_SECTION) ALIGN(16) int8_t tensor_data19[96*1*1*16] = { 
  /* [0][0][][] */ 58,3,10,61,-127,-37,93,38,69,104,-35,44,17,-11,51,74, 
  /* [1][0][][] */ -20,30,-100,14,127,110,-13,6,-28,11,-56,30,-65,80,-49,-40, 
  /* [2][0][][] */ -35,58,78,0,60,79,9,35,37,-4,35,-14,57,-127,-5,10, 
  /* [3][0][][] */ 127,-26,20,4,22,30,-5,16,36,22,-57,-18,-32,43,-22,54, 
  /* [4][0][][] */ -77,-4,-6,16,-96,-2,-71,-18,-13,42,-1,-43,-21,37,-52,127, 
  /* [5][0][][] */ -120,12,23,21,127,43,13,22,-68,24,-17,14,-83,69,-114,-33, 
  /* [6][0][][] */ -127,19,-34,33,-13,-79,89,18,7,-39,-67,45,25,-11,-37,8, 
  /* [7][0][][] */ -11,101,75,-109,74,51,127,2,37,11,-11,56,105,13,-37,-15, 
  /* [8][0][][] */ -20,-29,-83,68,-59,87,-57,-89,41,-42,88,36,127,33,-111,-3, 
  /* [9][0][][] */ -29,-127,-25,96,-48,-69,-23,69,51,52,17,67,-92,11,-6,-40, 
  /* [10][0][][] */ -30,-54,-125,42,-109,127,46,-88,26,-64,58,-48,30,83,-93,72, 
  /* [11][0][][] */ -47,-124,-29,33,-8,85,41,-14,18,13,32,-103,18,127,-120,120, 
  /* [12][0][][] */ -33,-90,-86,102,-108,-127,11,69,77,65,-28,109,-11,-65,-22,3, 
  /* [13][0][][] */ -67,-24,-35,-8,-13,4,33,12,-15,127,-7,-25,37,29,13,-15, 
  /* [14][0][][] */ -127,-18,-44,-53,-14,97,-23,-109,115,-60,73,5,96,-51,-106,-100, 
  /* [15][0][][] */ 2,-127,90,-55,-53,-28,12,55,7,-56,-96,-43,87,-42,-31,-43, 
  /* [16][0][][] */ -18,-38,33,-37,41,21,-23,-34,73,-127,36,-15,-1,-3,-85,-105, 
  /* [17][0][][] */ -31,4,20,-53,8,-4,-43,8,89,-62,37,69,102,-81,-32,-127, 
  /* [18][0][][] */ 65,6,-33,-124,-2,-36,127,-42,13,53,-5,55,-13,71,-8,-113, 
  /* [19][0][][] */ -35,-29,-35,-67,-91,39,-13,-18,31,-33,12,-127,-14,-18,-22,-6, 
  /* [20][0][][] */ 18,68,67,-83,57,-6,-38,87,-113,-127,25,-87,-41,100,-11,-8, 
  /* [21][0][][] */ 11,-101,-127,11,80,36,58,89,-61,-82,0,11,81,-87,-23,23, 
  /* [22][0][][] */ 53,-13,97,-12,8,6,77,20,15,127,29,21,-2,9,110,-4, 
  /* [23][0][][] */ -101,-50,-27,51,53,38,20,0,5,3,12,-82,0,70,63,127, 
  /* [24][0][][] */ 16,-5,49,25,10,-79,22,-64,32,127,-111,85,-12,-59,77,-77, 
  /* [25][0][][] */ 127,-64,123,107,45,5,-21,27,-106,91,50,-59,-14,23,72,-18, 
  /* [26][0][][] */ -20,19,15,43,-57,113,-18,38,-61,-35,-84,33,8,19,49,-127, 
  /* [27][0][][] */ 31,-1,-15,-56,-45,8,-91,11,-106,-21,-67,-48,-85,52,-31,127, 
  /* [28][0][][] */ -88,19,20,-8,22,-5,-127,-9,-3,-41,2,-24,19,-51,-86,-34, 
  /* [29][0][][] */ -26,-119,-31,104,-38,8,127,11,76,51,-107,66,29,-35,-49,77, 
  /* [30][0][][] */ 45,-52,-81,13,-127,31,53,-37,19,-3,6,-35,-27,46,-11,73, 
  /* [31][0][][] */ -127,-6,-4,95,-36,16,-57,-19,-28,-52,19,-32,-28,-54,-24,105, 
  /* [32][0][][] */ -127,-90,-90,-2,-100,-55,-3,-9,122,50,-60,-61,39,36,39,-6, 
  /* [33][0][][] */ -10,10,-99,31,-127,-105,53,-12,-123,23,-59,-66,-31,94,75,64, 
  /* [34][0][][] */ 31,52,10,42,-65,-45,36,20,29,-127,-21,46,-21,12,40,92, 
  /* [35][0][][] */ 42,-2,-63,-19,-127,16,92,-39,23,52,-22,-8,17,73,35,60, 
  /* [36][0][][] */ -11,-7,-59,63,127,-16,35,67,-91,20,-79,-80,20,-21,10,21, 
  /* [37][0][][] */ -124,55,3,-79,49,-95,-44,-34,-11,-27,-30,51,59,-83,15,-127, 
  /* [38][0][][] */ 19,87,6,-66,-87,-42,-127,-67,-38,-60,53,53,-69,-87,55,-20, 
  /* [39][0][][] */ 2,-39,8,70,8,85,88,-59,-25,51,21,-21,-11,114,61,127, 
  /* [40][0][][] */ 112,49,67,94,-70,-43,-4,25,-86,50,-9,-21,-46,-35,127,2, 
  /* [41][0][][] */ -27,-2,4,41,-98,119,3,49,-58,26,-104,9,16,38,40,-127, 
  /* [42][0][][] */ -2,-101,26,-24,127,34,70,19,-36,-105,-92,-32,-14,-7,-15,51, 
  /* [43][0][][] */ -35,-78,-25,-10,100,7,-8,79,-65,-59,-127,-65,120,-12,-43,55, 
  /* [44][0][][] */ -42,-59,-73,-86,26,71,60,15,-23,-127,-61,60,-34,55,21,102, 
  /* [45][0][][] */ -1,-57,-65,4,-127,69,-27,-53,55,-51,32,-39,-1,14,-31,38, 
  /* [46][0][][] */ 28,-80,-16,13,80,-82,-24,100,-15,-32,39,63,-58,-58,56,-127, 
  /* [47][0][][] */ -78,-34,-11,93,-13,7,28,38,7,127,83,93,-47,81,-3,101, 
  /* [48][0][][] */ 46,-18,-75,-86,34,-67,13,55,43,-74,-7,24,-54,3,-36,-127, 
  /* [49][0][][] */ 55,32,15,39,-8,-23,50,58,-36,127,-47,47,-40,-27,74,88, 
  /* [50][0][][] */ -2,-3,12,10,-127,-16,-11,-43,50,14,23,51,-19,-56,19,4, 
  /* [51][0][][] */ 6,-9,-17,-127,-33,105,38,-58,6,3,56,-73,68,86,-29,19, 
  /* [52][0][][] */ 25,-25,12,-99,97,-114,-2,-46,45,10,127,-59,50,12,-45,98, 
  /* [53][0][][] */ -46,-58,34,-24,-40,-127,16,-101,2,95,-99,78,-31,-28,22,-88, 
  /* [54][0][][] */ 70,75,48,-18,-127,-46,-83,-104,-13,12,44,71,-67,-48,59,5, 
  /* [55][0][][] */ 19,18,-43,68,-36,27,32,-21,2,127,19,50,-8,-7,-7,47, 
  /* [56][0][][] */ 48,-113,-76,75,-78,49,-11,60,127,23,58,62,-33,-31,46,107, 
  /* [57][0][][] */ 28,21,121,-98,91,1,3,-1,82,-38,3,127,64,-45,114,-58, 
  /* [58][0][][] */ 89,-56,21,-75,34,13,-4,127,54,102,-10,71,55,16,94,-3, 
  /* [59][0][][] */ -46,26,30,-44,1,-95,0,18,-4,13,-127,-106,-121,-64,84,-10, 
  /* [60][0][][] */ 23,-24,27,9,12,-15,14,-42,14,127,-8,66,-5,-12,-26,-27, 
  /* [61][0][][] */ 58,66,-2,-22,-93,-127,-28,-55,-72,-20,-16,13,-77,-38,73,99, 
  /* [62][0][][] */ -21,96,-30,41,-57,127,-45,23,-62,15,-55,34,-34,44,70,-106, 
  /* [63][0][][] */ 34,-4,-63,-127,-22,-52,78,-9,-1,-98,-30,34,-35,69,39,-25, 
  /* [64][0][][] */ -28,17,18,-22,49,-68,35,82,-127,-17,-88,-34,-28,78,75,58, 
  /* [65][0][][] */ -68,-18,-39,-12,73,24,-49,-78,-123,-50,1,-38,-127,89,-48,33, 
  /* [66][0][][] */ -14,64,-13,34,-46,127,-21,23,-57,16,-31,46,-36,50,55,-86, 
  /* [67][0][][] */ 24,-26,-28,-17,4,-96,61,-91,-17,23,6,127,-61,-45,-12,-119, 
  /* [68][0][][] */ 5,-127,-29,69,-13,-2,27,101,43,33,58,4,-62,38,-22,-6, 
  /* [69][0][][] */ 22,96,71,-101,37,-3,-36,82,33,96,53,88,80,-93,38,-127, 
  /* [70][0][][] */ 41,32,37,-34,83,12,-94,-37,-127,-96,5,41,-38,63,-107,-8, 
  /* [71][0][][] */ -25,-75,37,-38,61,-12,30,26,-70,75,-127,-44,12,88,-21,38, 
  /* [72][0][][] */ 5,18,59,8,-52,-28,-106,-68,-7,70,-19,51,17,114,-127,1, 
  /* [73][0][][] */ -4,-31,-16,-43,40,-101,33,-45,63,84,99,-14,25,-18,-66,127, 
  /* [74][0][][] */ 6,-5,-22,72,-69,-5,91,22,73,62,24,105,127,22,-51,11, 
  /* [75][0][][] */ -27,46,-26,33,-56,127,-16,26,-34,28,-36,44,-17,46,35,-66, 
  /* [76][0][][] */ -73,79,-57,48,-99,-13,-6,29,54,47,-39,-49,50,-49,-127,43, 
  /* [77][0][][] */ 109,116,-127,122,75,84,65,61,58,10,113,-45,69,39,54,20, 
  /* [78][0][][] */ 12,-42,1,-56,69,-124,31,-52,51,42,127,-32,9,-15,-45,127, 
  /* [79][0][][] */ -44,63,0,20,-2,-46,-39,-7,-127,-7,58,3,102,42,-91,-48, 
  /* [80][0][][] */ -64,27,86,-2,59,41,2,-127,-78,50,-73,-35,-2,-90,41,65, 
  /* [81][0][][] */ 82,74,-22,-11,29,-23,91,122,-118,122,-63,-46,-29,12,112,127, 
  /* [82][0][][] */ 60,98,-24,-62,-8,-49,98,-113,36,23,-76,61,127,-29,68,-65, 
  /* [83][0][][] */ 1,-33,17,27,0,32,-33,-105,67,-38,106,14,34,-71,-64,-127, 
  /* [84][0][][] */ -127,-81,-43,-23,2,95,88,3,96,84,106,112,61,83,-86,-2, 
  /* [85][0][][] */ 127,6,91,-86,68,-13,-23,78,29,115,-72,13,-56,61,120,22, 
  /* [86][0][][] */ -78,69,-33,-2,31,88,16,11,110,41,127,-27,-28,64,-20,-34, 
  /* [87][0][][] */ 11,-58,25,-39,42,-127,26,-28,38,-12,59,-36,35,-41,-35,68, 
  /* [88][0][][] */ -91,59,45,-7,121,-23,41,35,-60,-75,113,-72,83,124,113,-127, 
  /* [89][0][][] */ -25,42,-16,22,-28,127,-11,28,-41,13,-41,17,-8,50,23,-96, 
  /* [90][0][][] */ 49,-73,28,20,127,3,59,26,-1,-98,-116,-25,-12,-5,-59,31, 
  /* [91][0][][] */ -24,71,-29,-54,7,-77,-95,34,-95,28,-114,-127,-125,-70,-14,28, 
  /* [92][0][][] */ 62,48,61,30,-127,-86,25,12,-19,26,-18,-36,-21,-86,19,1, 
  /* [93][0][][] */ 7,-127,-121,68,-45,-56,-15,105,103,57,18,56,-57,42,-21,-34, 
  /* [94][0][][] */ 101,3,124,-13,22,-46,14,33,17,77,-8,48,11,10,127,-6, 
  /* [95][0][][] */ -56,-44,-12,-30,127,-15,29,70,-34,1,-102,-46,20,6,-55,19, 
};
const TfArray<96, float> quant19_scale = { 96, { 0.0041022775694727898, 0.0022258046083152294, 0.0054985727183520794, 0.0049603679217398167, 0.0022659865207970142, 0.0010677526006475091, 0.0054377075284719467, 0.0022604528348892927, 0.0015271800803020597, 0.0026609213091433048, 0.0011034882627427578, 0.0024685352109372616, 0.0028361659497022629, 0.006183994933962822, 0.0024639938492327929, 0.002507608151063323, 0.0036360027734190226, 0.0031300946138799191, 0.003049265593290329, 0.0017196504632011056, 0.0035025046672672033, 0.0021251523867249489, 0.0034569462295621634, 0.0032130223698914051, 0.0014175067190080881, 0.0030727165285497904, 0.0037247936706990004, 0.0032711080275475979, 0.0022378501016646624, 0.0038406914100050926, 0.0030948384664952755, 0.0024332397151738405, 0.0041880551725625992, 0.0014486784348264337, 0.0024897041730582714, 0.0032277484424412251, 0.0027500784490257502, 0.0036543661262840033, 0.0025448140222579241, 0.0034547832328826189, 0.0012180826161056757, 0.0038812384009361267, 0.0026629494968801737, 0.0027097465936094522, 0.0026802679058164358, 0.0018708040006458759, 0.0020386273972690105, 0.0016162631800398231, 0.0042655328288674355, 0.0046208985149860382, 0.0044831801205873489, 0.002043180400505662, 0.0033130529336631298, 0.0022877678275108337, 0.0020873560570180416, 0.0053350687958300114, 0.0027030222117900848, 0.0010788660729303956, 0.0031664459966123104, 0.0027939893770962954, 0.0034545909147709608, 0.001521409722045064, 0.0030292090959846973, 0.0040090312249958515, 0.0011415047338232398, 0.0013699409319087863, 0.0039228266105055809, 0.0028533239383250475, 0.0021079466678202152, 0.0022927168756723404, 0.0036451299674808979, 0.0025890462566167116, 0.0025745793245732784, 0.0031132455915212631, 0.0045017185620963573, 0.003389397170394659, 0.0044294497929513454, 0.0014692440163344145, 0.0032152773346751928, 0.002006318885833025, 0.002726920647546649, 0.0029140664264559746, 0.0017361697973683476, 0.0011647794162854552, 0.0025505546946078539, 0.0018214269075542688, 0.0019109782297164202, 0.0043634083122014999, 0.003687659278512001, 0.0042494451627135277, 0.0025897107552736998, 0.001604767981916666, 0.0030371136963367462, 0.0024576031137257814, 0.0022767584305256605, 0.0024561062455177307, } };
const TfLiteAffineQuantization quant19 = { (TfLiteFloatArray*)&quant19_scale, (TfLiteIntArray*)&g0::quant6_zero, 0 };
const MODEL_SECTION(EI_MODEL_SECTION) ALIGN(16) int32_t tensor_data20[16] = { -4856, 11089, -20570, 1386, 11922, -15117, -42160, -9391, -6494, 6952, -15249, -13579, 7161, -10514, -4183, -2671, };
const TfArray<16, float> quant20_scale = { 16, { 0.00015156070003286004, 0.00014032887702342123, 0.00015647386317141354, 0.00013855344150215387, 8.7223874288611114e-05, 0.00014548789476975799, 0.00011164986790390685, 0.00015944724145811051, 9.6816649602260441e-05, 8.4210601926315576e-05, 0.00015133888518903404, 0.00016153446631506085, 0.00011489108146633953, 8.1924947153311223e-05, 0.00013770570512861013, 0.00012401441927067935, } };
const TfLiteAffineQuantization quant20 = { (TfLiteFloatArray*)&quant20_scale, (TfLiteIntArray*)&g0::quant8_zero, 0 };
const MODEL_SECTION(EI_MODEL_SECTION) ALIGN(16) int8_t tensor_data21[16*1*1*48] = { 
  /* [0][0][][] */ 20,37,18,-24,68,65,-36,61,-14,112,9,46,-39,33,-17,48,33,81,42,-62,-62,67,-9,49,56,44,39,52,-41,-49,-5,88,-30,15,-63,44,42,-127,-29,17,16,-33,56,-8,-6,-55,-59,-17, 
  /* [1][0][][] */ -51,0,-77,-42,12,88,-55,19,-16,-31,-42,31,58,-15,-27,-27,-29,-32,-7,19,-64,44,-103,-52,-55,-39,44,67,-22,-26,41,-41,8,-59,-37,51,13,-58,127,-37,-24,28,-42,-14,31,54,29,16, 
  /* [2][0][][] */ -6,2,53,-28,-22,-72,20,19,96,73,-61,16,111,-50,127,75,-67,-12,-34,25,87,-79,-34,-95,5,-30,33,-68,42,47,-35,19,28,-24,63,36,-66,16,3,-31,32,29,61,-12,29,-79,93,-57, 
  /* [3][0][][] */ 38,1,-25,-28,32,110,19,-21,44,-53,27,-26,-54,10,15,40,-48,-65,36,-127,-14,5,-29,-15,-41,95,124,64,-13,-41,31,38,62,-31,96,33,-47,-55,-2,46,26,9,-16,6,25,21,-12,-21, 
  /* [4][0][][] */ 102,-9,12,-40,91,90,52,14,78,-14,-114,29,44,-25,13,-8,-94,-127,-22,-96,-14,21,-32,-26,-80,122,-99,115,-54,-60,20,80,43,-44,24,-30,-7,5,-26,34,-47,-5,3,50,-46,101,-30,-60, 
  /* [5][0][][] */ 4,-4,-54,-1,-14,51,15,-33,63,52,38,87,55,-22,36,-5,-40,127,-16,39,5,3,-65,-17,39,-1,-65,-35,-18,30,19,-23,-36,-4,36,19,-41,9,-88,5,87,-20,29,48,-20,7,-36,33, 
  /* [6][0][][] */ 61,17,17,81,2,-34,106,-53,8,66,119,107,44,40,-53,68,39,-48,-80,95,49,-61,-43,68,-84,93,98,-12,118,48,-38,0,108,-60,-127,-8,104,28,-4,3,16,58,62,-29,74,120,36,-3, 
  /* [7][0][][] */ -98,-5,-24,26,-60,-55,22,44,77,115,-54,-68,-95,8,-19,-17,-73,99,3,120,-50,43,24,36,-20,-88,-32,-78,30,45,-6,4,-19,12,15,-16,4,-55,127,16,6,37,22,-15,56,67,-26,2, 
  /* [8][0][][] */ -8,-91,59,-59,71,-64,77,-38,-26,-120,26,13,-32,-5,33,34,-2,4,-39,104,13,36,-18,34,70,-16,-64,-32,-127,-27,-60,-111,11,-65,6,89,-5,31,115,22,16,-3,75,127,-4,-74,-47,83, 
  /* [9][0][][] */ 17,-40,21,-71,39,85,-41,44,16,-39,-33,-15,24,-45,115,-21,9,-113,37,45,-77,44,53,-42,-27,-75,-27,83,56,80,-38,-33,-54,29,-12,127,-26,-40,-58,-29,-32,-1,33,108,53,86,-66,15, 
  /* [10][0][][] */ -11,15,-26,-15,19,31,-64,-45,47,36,64,-8,-31,-6,51,-53,-60,127,-3,47,-4,-10,15,24,-44,41,3,89,31,9,-31,-12,68,5,-11,27,-9,-43,-40,17,-76,-2,22,-14,14,46,29,32, 
  /* [11][0][][] */ -33,53,-20,39,32,56,-6,8,16,16,-127,-79,70,21,-12,-49,-6,30,-44,-43,-13,-7,109,4,52,9,-14,36,-6,26,-5,47,31,-7,-46,5,41,83,105,24,34,-35,62,-4,-61,-23,92,9, 
  /* [12][0][][] */ -64,-2,30,14,-69,-53,-2,-3,-39,-38,-127,16,76,-99,24,30,49,106,80,-122,-38,48,-47,-87,-2,-19,35,-40,-1,19,-16,71,70,75,32,-29,-55,-25,25,-6,-29,17,61,1,32,-13,-38,-35, 
  /* [13][0][][] */ -58,-119,-50,-112,5,25,55,7,-121,24,119,-65,55,50,127,0,112,27,-9,-93,67,-75,114,-2,-80,11,-28,10,-47,-93,-107,9,45,-33,-77,60,31,-52,74,-80,-9,54,67,40,52,-25,105,-67, 
  /* [14][0][][] */ 63,18,-54,14,-39,17,-83,-21,-33,60,59,51,-14,-64,12,-45,52,-110,25,9,93,-61,21,-5,-13,127,-91,5,-52,-24,-86,4,119,48,90,-27,-82,14,-19,60,-14,-53,105,-22,-57,-46,-56,55, 
  /* [15][0][][] */ -66,13,38,15,97,8,0,32,20,78,-15,55,59,-12,-35,-23,12,41,5,-39,22,-40,-52,-60,50,-67,-43,70,-35,11,19,7,-66,-2,127,-4,-93,20,58,-20,-46,-20,15,-4,-37,-29,-11,8, 
};
const TfArray<4, int> tensor_dimension21 = { 4, { 16,1,1,48 } };
const TfArray<16, float> quant21_scale = { 16, { 0.0064818207174539566, 0.0060014678165316582, 0.006691942922770977, 0.0059255370870232582, 0.0037303173448890448, 0.0062221041880548, 0.0047749476507306099, 0.0068191057071089745, 0.0041405730880796909, 0.0036014481447637081, 0.0064723342657089233, 0.0069083706475794315, 0.0049135652370750904, 0.0035036974586546421, 0.0058892816305160522, 0.0053037446923553944, } };
const TfLiteAffineQuantization quant21 = { (TfLiteFloatArray*)&quant21_scale, (TfLiteIntArray*)&g0::quant8_zero, 0 };
const MODEL_SECTION(EI_MODEL_SECTION) ALIGN(16) int32_t tensor_data22[48] = { 17273, -1171, 18183, -591, 15176, -3085, 35485, 296, 12629, 25648, -1391, 22609, -1841, 12136, 30189, 23725, -979, -5926, 2709, 41729, -1703, 19598, 923, 18168, 20557, 29523, -771, -2491, -3883, 16313, 19314, -155, 258, -1748, 18, 17284, 10289, 28235, -809, 19413, 25497, 871, 935, 14975, -1107, -1880, 36464, 22566, };
const TfArray<1, int> tensor_dimension22 = { 1, { 48 } };
const TfArray<48, float> quant22_scale = { 48, { 9.7391777671873569e-05, 0.00013678445247933269, 7.9850520705804229e-05, 0.00018336734501644969, 0.00014927210577297956, 9.8697084467858076e-05, 5.6301840231753886e-05, 0.00026507896836847067, 0.00013289229536894709, 9.136080916505307e-05, 8.329912816407159e-05, 0.00010815582936629653, 8.9853143435902894e-05, 0.0001165422800113447, 6.000242501613684e-05, 8.9074390416499227e-05, 0.00014559525880031288, 8.7215106759686023e-05, 0.0001350985694443807, 5.468179369927384e-05, 0.00010737248521763831, 7.6255179010331631e-05, 0.00010044355440186337, 0.00012787358718924224, 7.7592761954292655e-05, 9.0559922682587057e-05, 7.0826012233737856e-05, 5.7046090660151094e-05, 0.00018966136849485338, 8.7227257608901709e-05, 7.3226554377470165e-05, 0.00034289437462575734, 0.00011542729043867439, 0.00016778417921159416, 0.00012119841994717717, 8.8728404080029577e-05, 0.0001125140770454891, 6.0877639043610543e-05, 0.00010779677540995181, 0.00012626266106963158, 6.4459942223038524e-05, 0.0001357903383905068, 0.00018316561181563884, 8.3632839960046113e-05, 0.00015038363926578313, 8.3820581494364887e-05, 5.3263829613570124e-05, 7.3230628913734108e-05, } };
const TfArray<48, int> quant22_zero = { 48, { 0,0,0,0,0,0,0,0,0,0,0,0,0,0,0,0,0,0,0,0,0,0,0,0,0,0,0,0,0,0,0,0,0,0,0,0,0,0,0,0,0,0,0,0,0,0,0,0 } };
const TfLiteAffineQuantization quant22 = { (TfLiteFloatArray*)&quant22_scale, (TfLiteIntArray*)&quant22_zero, 0 };
const MODEL_SECTION(EI_MODEL_SECTION) ALIGN(16) int8_t tensor_data23[1*3*3*48] = { 
  /* [0][0][][] */ -111,50,-127,113,-93,74,-58,69,-88,-58,63,-44,60,-77,-44,-55,79,83,93,-91,85,-122,69,-106,-87,-59,52,122,-94,-58,-85,34,66,-82,59,-106,-84,-118,99,-38,-18,-98,123,-90,105,46,-86,-43, -121,103,-81,119,-84,125,-50,127,-118,-81,99,-67,101,-117,-71,-80,92,108,127,-127,114,-126,87,-127,-94,-90,81,127,25,-103,-95,91,106,-127,81,-123,-101,-127,119,-85,-112,104,127,-96,-31,98,-78,-83, -66,38,0,38,-19,64,-15,18,-49,-36,51,-29,35,-37,-37,-26,47,49,67,-40,25,-41,42,-34,-76,-32,32,32,106,-39,-52,31,32,-74,32,-24,-36,-16,47,-48,-126,-43,18,-42,-69,57,-13,-44, 
  /* [0][1][][] */ -98,78,-64,109,-60,99,-118,74,-102,-82,79,-86,98,-113,-81,-82,102,90,-62,-93,98,-127,102,-89,-117,-86,88,95,-127,-92,-102,70,84,39,76,-123,-97,-102,123,-87,-115,-125,112,-106,127,60,-127,-97, -127,127,-114,127,-127,127,-127,119,-127,-127,127,-127,127,-127,-127,-127,127,127,-60,-119,127,-124,127,-106,-122,-127,127,112,16,-127,-127,127,127,53,127,-127,-127,-101,127,-127,-127,127,121,-127,-56,127,-113,-127, -92,93,-82,35,-55,40,-61,78,-57,-38,58,-51,48,-54,-47,-16,61,56,-46,-35,31,-54,50,-40,-127,-45,50,39,121,-81,-64,74,34,18,47,-59,-49,-10,54,-49,-41,-75,34,-56,-84,73,-27,-64, 
